{"learner":{"attributes":{"best_iteration":"97","best_score":"0.0280622076718035"},"feature_names":[],"feature_types":[],"gradient_booster":{"model":{"gbtree_model_param":{"num_parallel_tree":"1","num_trees":"148"},"iteration_indptr":[0,1,2,3,4,5,6,7,8,9,10,11,12,13,14,15,16,17,18,19,20,21,22,23,24,25,26,27,28,29,30,31,32,33,34,35,36,37,38,39,40,41,42,43,44,45,46,47,48,49,50,51,52,53,54,55,56,57,58,59,60,61,62,63,64,65,66,67,68,69,70,71,72,73,74,75,76,77,78,79,80,81,82,83,84,85,86,87,88,89,90,91,92,93,94,95,96,97,98,99,100,101,102,103,104,105,106,107,108,109,110,111,112,113,114,115,116,117,118,119,120,121,122,123,124,125,126,127,128,129,130,131,132,133,134,135,136,137,138,139,140,141,142,143,144,145,146,147,148],"tree_info":[0,0,0,0,0,0,0,0,0,0,0,0,0,0,0,0,0,0,0,0,0,0,0,0,0,0,0,0,0,0,0,0,0,0,0,0,0,0,0,0,0,0,0,0,0,0,0,0,0,0,0,0,0,0,0,0,0,0,0,0,0,0,0,0,0,0,0,0,0,0,0,0,0,0,0,0,0,0,0,0,0,0,0,0,0,0,0,0,0,0,0,0,0,0,0,0,0,0,0,0,0,0,0,0,0,0,0,0,0,0,0,0,0,0,0,0,0,0,0,0,0,0,0,0,0,0,0,0,0,0,0,0,0,0,0,0,0,0,0,0,0,0,0,0,0,0,0,0],"trees":[{"base_weights":[2.7004452E-4,-1.4491871E-1,7.062655E-1,-1.4207309E-2,2.0535032E-1,2.0383384E0,7.40061E-2,7.4674773E-1,-5.4985084E-2,1.8819921E0,5.300679E0,1.1722652E-3,5.331818E-1,1.4254793E0,4.3585697E-1,-9.72725E-2,6.894179E-1,2.7626288E0,1.5038382E0,7.48147E0,3.2345393E0,-5.0271656E-3,3.6880064E0,1.1594584E0,3.24205E-1,7.2921175E-1,1.8039069E0,7.43412E-1,-9.470399E-2,-3.9776593E-2,-1.6048408E-1,2.5584457E0,4.152351E-1,2.0001602E0,3.4240932E0,1.0342079E0,1.9679382E0,6.2087297E0,1.0030113E1,2.6830328E0,3.1154543E-1,-1.8454399E-2,6.578003E-1,6.111279E0,9.294607E-1,8.736113E-1,1.8659109E0,7.0541516E-2,6.542114E-1,-1.3823473E-2,8.441588E-1,-1.3459697E-2,1.8668118E0,-1.40422555E-2,8.1055224E-1,1.6845913E-1,-1.6010596E-1,9.486279E-2,-1.1028816E-1,-1.6230263E-1,5.620629E-1,2.1895035E-1,1.2959337E-1,-3.075943E-3,8.838924E-1,-1.3823473E-2,2.0890481E0,3.0634298E0,4.341653E0,1.5427881E0,6.452114E-1,2.6126719E0,1.7620747E0,-1.1365967E-2,6.464183E0,6.850339E-1,1.0016805E0,1.2756847E-1,2.753908E0,2.5255628E-2,-1.5407526E-1,1.4032235E0,1.9368984E-1,-9.471638E-3,7.508806E0,3.1052834E-1,-1.2628851E-2,2.1518466E0,7.090447E-1,2.0172359E-1,1.7042665E0,1.0373604E0,6.974437E-3,2.1719759E0,5.2069134E-1,1.307397E-1,7.971386E-1,2.3461022E0,1.7436762E0,8.148078E-1,-1.1839548E-2,-1.4051332E-2,7.3472667E-1,8.462372E-2,-1.7544433E-1,-7.708582E-2,1.8427819E-1,-1.19150445E-1,5.652387E-2,-1.13050245E-1,-1.7654982E-1,1.7195027E-2,5.2634034E-2,-4.2539757E-2,6.1991715E-1,1.4862924E0,4.4006822E-1,2.6883607E0,1.7579192E0,3.889599E0,2.7409115E0,5.36654E0,3.9928424E0,7.3311216E-1,1.6421316E0,7.2041327E-1,-1.8363208E-2,-1.2431526E-2,2.6481843E0,1.5688705E0,2.2989817E0,6.9756346E0,3.100913E0,1.093444E-1,2.2303897E-1,-4.162862E-2,2.9404774E-1,5.381398E-1,-1.5963389E-1,2.8926518E0,6.7129284E-1,7.704782E-2,2.0643616E0,6.84965E-1,2.0386168E-1,2.3989093E0,3.5200563E-1,4.8273695E-1,1.3489628E0,1.4417262E-1,1.3287494E0,-4.949951E-2,1.5217843E0,-5.2521087E-2,6.8455666E-1,3.5312865E0,1.2823339E0,1.9529566E0,4.386503E-1,6.520229E-2,4.638452E-2,1.6154543E-1,2.2803558E-1,1.4081314E-1,5.848226E-2,6.5321214E-2,9.3444055E-3,6.293386E-2,4.634033E-3,-1.3661017E-2,5.9213284E-2,-1.41813895E-2,9.3444055E-3,7.052836E-2,-6.8103103E-3,8.1311665E-2,1.0846326E-2,-4.00353E-3,-1.1631614E-2,8.5451804E-2,-1.2108574E-2,-1.1448129E-2,5.2497216E-2,-1.4162274E-2,1.7195027E-2,-4.9631195E-3,7.052836E-2,1.7195027E-2,5.639361E-2,6.1406374E-2,1.36607E-1,4.7957174E-2,-1.3371725E-2,2.1654804E-1,-9.471638E-3,1.4208375E-1,7.740637E-2,2.972369E-1,3.7063164E-1,-1.3192641E-2,2.2492513E-1,4.362812E-1,1.2386169E-1,2.9181805E-1,3.9002934E-1,-1.0655594E-2,6.0691673E-2,-1.3497085E-2,1.3457932E-1,-1.391751E-2,6.072021E-2,5.811925E-2,-1.1301306E-2,1.397966E-1,2.1878095E-1,-1.3561664E-2,1.2781629E-1,2.1948272E-1,1.3581368E-1,7.5668913E-1,4.5936266E-1,5.48634E-1,8.890231E-2,8.989816E-3,-8.277727E-3,9.2832364E-2,1.5975248E-2,-1.3114577E-2,1.0030983E-1,-3.188533E-3,-1.3959088E-2,4.507397E-1,2.4275333E-2,9.0631634E-2,7.5994567E-3,1.7719503E-1,2.557871E-3,5.238617E-1,-1.2177821E-2,2.1334761E-1,2.0634033E-2,-1.0655594E-2,7.052836E-2,5.011486E-2,-1.3877052E-2,5.4147728E-2,1.5542527E-1,6.688542E-2,1.316805E-1,-1.3260294E-2,4.3861695E-2,6.0309827E-2,1.4636083E-1,-8.181019E-3,1.6683202E-2,6.753712E-2,-1.2915871E-2,3.5611618E-1,1.2756847E-1,7.141214E-2,3.9052835E-1,2.9344406E-2,1.6835141E-1,5.615312E-2,1.2991847E-2],"categories":[],"categories_nodes":[],"categories_segments":[],"categories_sizes":[],"default_left":[0,0,0,0,0,0,0,0,0,0,0,0,0,0,0,0,0,0,0,0,0,0,0,0,0,0,0,0,0,0,0,0,0,0,0,0,0,0,0,0,0,0,0,0,0,0,0,0,0,0,0,0,0,0,0,0,0,0,0,0,0,0,0,0,0,0,0,0,0,0,0,0,0,0,0,0,0,0,0,0,0,0,0,0,0,0,0,0,0,0,0,0,0,0,0,0,0,0,0,0,0,0,0,0,0,0,0,0,0,0,0,0,0,0,0,0,0,0,0,0,0,0,0,0,0,0,0,0,0,0,0,0,0,0,0,0,0,0,0,0,0,0,0,0,0,0,0,0,0,0,0,0,0,0,0,0,0,0,0,0,0,0,0,0,0,0,0,0,0,0,0,0,0,0,0,0,0,0,0,0,0,0,0,0,0,0,0,0,0,0,0,0,0,0,0,0,0,0,0,0,0,0,0,0,0,0,0,0,0,0,0,0,0,0,0,0,0,0,0,0,0,0,0,0,0,0,0,0,0,0,0,0,0,0,0,0,0,0,0,0,0,0,0,0,0,0,0,0,0,0,0,0,0,0,0,0,0,0,0,0,0,0,0,0,0],"id":0,"left_children":[1,3,5,-1,7,9,11,13,15,17,19,21,23,25,27,29,31,33,35,37,39,41,43,45,47,49,51,53,55,57,59,61,63,65,67,69,71,73,75,77,-1,79,81,83,85,87,89,91,93,-1,95,-1,97,-1,99,101,103,105,107,109,111,-1,-1,113,115,-1,117,119,121,123,125,127,129,-1,131,-1,-1,-1,133,135,137,139,141,-1,143,-1,-1,145,147,-1,149,151,153,155,157,-1,159,161,163,165,-1,-1,167,169,171,173,175,177,179,181,183,-1,-1,185,187,189,191,193,195,197,199,201,203,205,207,209,211,-1,213,215,217,219,221,-1,-1,223,225,227,229,231,233,235,237,-1,-1,239,241,243,245,-1,247,249,251,253,255,257,259,261,263,-1,-1,-1,-1,-1,-1,-1,-1,-1,-1,-1,-1,-1,-1,-1,-1,-1,-1,-1,-1,-1,-1,-1,-1,-1,-1,-1,-1,-1,-1,-1,-1,-1,-1,-1,-1,-1,-1,-1,-1,-1,-1,-1,-1,-1,-1,-1,-1,-1,-1,-1,-1,-1,-1,-1,-1,-1,-1,-1,-1,-1,-1,-1,-1,-1,-1,-1,-1,-1,-1,-1,-1,-1,-1,-1,-1,-1,-1,-1,-1,-1,-1,-1,-1,-1,-1,-1,-1,-1,-1,-1,-1,-1,-1,-1,-1,-1,-1,-1,-1,-1,-1,-1,-1,-1,-1],"loss_changes":[1.284132E4,1.1891941E3,1.7997154E4,0E0,1.2496586E3,3.4981816E3,4.8466302E2,6.068806E2,1.8856258E2,2.1820977E3,1.3906279E3,2.8592767E2,2.5928455E2,2.3687671E2,3.2250757E2,2.0589802E1,1.6394824E2,9.872168E2,9.994707E2,4.3077637E2,4.8862427E1,1.1116347E2,1.3469864E2,9.853082E1,1.2459888E2,3.3324387E1,7.288782E1,7.732623E1,1.252244E1,2.8197054E1,3.6376724E0,2.4325562E0,5.5287277E1,1.7767212E2,3.355E2,4.512578E2,3.0199512E2,1.6964111E2,7.185986E1,2.7057495E0,0E0,7.257436E1,8.552598E1,9.6656555E1,3.5921974E1,7.315018E1,1.0751709E1,5.180174E1,1.2998495E2,0E0,9.247925E0,0E0,2.9372192E1,0E0,4.876831E0,2.8382748E1,2.1995325E0,1.5711931E1,2.8880157E0,1.8697433E0,9.152079E-2,0E0,0E0,3.7142234E0,3.490477E1,0E0,1.7030688E2,1.9184473E2,8.403223E1,7.8427734E1,6.4736206E1,5.516504E1,1.7834033E2,0E0,1.5038428E2,0E0,0E0,0E0,2.0739746E-1,1.6647015E2,1.1567627E1,1.01623184E2,3.344358E1,0E0,2.520404E1,0E0,0E0,1.6942535E1,4.5111435E1,0E0,1.9062805E0,2.7453373E1,3.1963936E1,5.835533E1,6.9176025E1,0E0,5.772095E-1,1.2867737E1,6.3101807E0,1.288269E0,0E0,0E0,1.8880978E0,5.9859753E0,3.1266975E-1,2.7738316E0,2.7093908E1,3.3498383E0,2.0981113E1,1.4126217E1,4.290924E-1,0E0,0E0,2.6135492E0,1.5830588E-1,7.5959625E0,7.6496553E0,1.6512207E1,6.4622803E0,1.00979E1,1.1338086E2,1.5467529E1,5.0440186E1,2.5342636E0,6.427344E1,4.0340393E1,1.2278095E1,0E0,3.8111572E1,6.508032E1,1.1884131E2,2.0910645E2,1.0450516E2,0E0,0E0,7.063135E1,1.505914E2,1.2265457E1,5.261421E0,2.1834583E2,1.7183775E1,1.399835E1,9.044748E1,0E0,0E0,1.9389786E1,1.6591954E0,2.2268024E1,3.1414352E1,0E0,3.0004158E0,1.2722647E0,7.1278152E0,9.487837E0,8.78084E0,2.8543E1,4.1927284E1,6.9145203E0,4.0976868E1,0E0,0E0,0E0,0E0,0E0,0E0,0E0,0E0,0E0,0E0,0E0,0E0,0E0,0E0,0E0,0E0,0E0,0E0,0E0,0E0,0E0,0E0,0E0,0E0,0E0,0E0,0E0,0E0,0E0,0E0,0E0,0E0,0E0,0E0,0E0,0E0,0E0,0E0,0E0,0E0,0E0,0E0,0E0,0E0,0E0,0E0,0E0,0E0,0E0,0E0,0E0,0E0,0E0,0E0,0E0,0E0,0E0,0E0,0E0,0E0,0E0,0E0,0E0,0E0,0E0,0E0,0E0,0E0,0E0,0E0,0E0,0E0,0E0,0E0,0E0,0E0,0E0,0E0,0E0,0E0,0E0,0E0,0E0,0E0,0E0,0E0,0E0,0E0,0E0,0E0,0E0,0E0,0E0,0E0,0E0,0E0,0E0,0E0,0E0,0E0,0E0,0E0,0E0,0E0,0E0,0E0],"parents":[2147483647,0,0,1,1,2,2,4,4,5,5,6,6,7,7,8,8,9,9,10,10,11,11,12,12,13,13,14,14,15,15,16,16,17,17,18,18,19,19,20,20,21,21,22,22,23,23,24,24,25,25,26,26,27,27,28,28,29,29,30,30,31,31,32,32,33,33,34,34,35,35,36,36,37,37,38,38,39,39,41,41,42,42,43,43,44,44,45,45,46,46,47,47,48,48,50,50,52,52,54,54,55,55,56,56,57,57,58,58,59,59,60,60,63,63,64,64,66,66,67,67,68,68,69,69,70,70,71,71,72,72,74,74,78,78,79,79,80,80,81,81,82,82,84,84,87,87,88,88,90,90,91,91,92,92,93,93,94,94,96,96,97,97,98,98,99,99,102,102,103,103,104,104,105,105,106,106,107,107,108,108,109,109,110,110,113,113,114,114,115,115,116,116,117,117,118,118,119,119,120,120,121,121,122,122,123,123,124,124,125,125,126,126,128,128,129,129,130,130,131,131,132,132,135,135,136,136,137,137,138,138,139,139,140,140,141,141,142,142,145,145,146,146,147,147,148,148,150,150,151,151,152,152,153,153,154,154,155,155,156,156,157,157,158,158],"right_children":[2,4,6,-1,8,10,12,14,16,18,20,22,24,26,28,30,32,34,36,38,40,42,44,46,48,50,52,54,56,58,60,62,64,66,68,70,72,74,76,78,-1,80,82,84,86,88,90,92,94,-1,96,-1,98,-1,100,102,104,106,108,110,112,-1,-1,114,116,-1,118,120,122,124,126,128,130,-1,132,-1,-1,-1,134,136,138,140,142,-1,144,-1,-1,146,148,-1,150,152,154,156,158,-1,160,162,164,166,-1,-1,168,170,172,174,176,178,180,182,184,-1,-1,186,188,190,192,194,196,198,200,202,204,206,208,210,212,-1,214,216,218,220,222,-1,-1,224,226,228,230,232,234,236,238,-1,-1,240,242,244,246,-1,248,250,252,254,256,258,260,262,264,-1,-1,-1,-1,-1,-1,-1,-1,-1,-1,-1,-1,-1,-1,-1,-1,-1,-1,-1,-1,-1,-1,-1,-1,-1,-1,-1,-1,-1,-1,-1,-1,-1,-1,-1,-1,-1,-1,-1,-1,-1,-1,-1,-1,-1,-1,-1,-1,-1,-1,-1,-1,-1,-1,-1,-1,-1,-1,-1,-1,-1,-1,-1,-1,-1,-1,-1,-1,-1,-1,-1,-1,-1,-1,-1,-1,-1,-1,-1,-1,-1,-1,-1,-1,-1,-1,-1,-1,-1,-1,-1,-1,-1,-1,-1,-1,-1,-1,-1,-1,-1,-1,-1,-1,-1,-1],"split_conditions":[5E1,1E1,1E0,-1.4207309E-2,1E0,1.75E2,8.028E-1,2.5E1,8.07E-1,3.5E1,3.5E1,4.22E2,2.4E1,2.9E1,1.26E2,1.39E2,1.2E2,7.1E1,9E1,2.22E2,6.05E2,2.8E2,3E1,2E1,1.04E2,1E0,1E0,1E0,4E1,5.5E-1,1E0,8.1E1,1.95E2,1E0,1E2,4.5E1,4.5E1,1E0,1.19E2,1.03E0,3.1154543E-1,1.5E1,3.455E-1,1.124E3,2.09E2,1E1,5.3E1,1.21E2,3E1,-1.3823473E-2,1.1E1,-1.3459697E-2,1.8E1,-1.40422555E-2,5E1,3.6E1,1.12E2,1E0,1E0,4E1,1.66E2,2.1895035E-1,1.2959337E-1,1.8E1,2.4E1,-1.3823473E-2,2.4E1,2.4E1,2.5E1,7E1,1.6E2,1E0,1.35E2,-1.1365967E-2,5.8E1,6.850339E-1,1.0016805E0,1.2756847E-1,1.79E2,1E0,2E1,3E1,6.5E1,-9.471638E-3,1.367E3,3.1052834E-1,-1.2628851E-2,1.2E1,1E-1,2.0172359E-1,8.125E-1,6.1E1,7.3E1,1.31E2,1.84E2,1.307397E-1,1.1E2,3.1E1,2.9E1,1.89E1,-1.1839548E-2,-1.4051332E-2,2.9E1,8.028E-1,8.14E-1,1.857E-1,2E0,6.296E-1,2.6E1,4E1,4.55E2,1.7195027E-2,5.2634034E-2,2.8E-1,7.4E1,3.9E1,1.33E2,2.184E1,1.51E2,9E1,1E0,1.428E3,1.45E2,1E0,1E0,1E0,6E1,-1.2431526E-2,1.05E2,1E0,6E1,2.4E1,1.248E3,1.093444E-1,2.2303897E-1,3.5E-1,1E1,1E0,4E1,1.76E2,5.8E2,1.6E1,1E0,6.84965E-1,2.0386168E-1,1.39E3,1E0,3.84E2,8.2E1,1.4417262E-1,1E0,5.74E0,1E0,8.214E-1,2.16E2,1E0,2.3E2,8.036E-1,1E0,6.520229E-2,4.638452E-2,1.6154543E-1,2.2803558E-1,1.4081314E-1,5.848226E-2,6.5321214E-2,9.3444055E-3,6.293386E-2,4.634033E-3,-1.3661017E-2,5.9213284E-2,-1.41813895E-2,9.3444055E-3,7.052836E-2,-6.8103103E-3,8.1311665E-2,1.0846326E-2,-4.00353E-3,-1.1631614E-2,8.5451804E-2,-1.2108574E-2,-1.1448129E-2,5.2497216E-2,-1.4162274E-2,1.7195027E-2,-4.9631195E-3,7.052836E-2,1.7195027E-2,5.639361E-2,6.1406374E-2,1.36607E-1,4.7957174E-2,-1.3371725E-2,2.1654804E-1,-9.471638E-3,1.4208375E-1,7.740637E-2,2.972369E-1,3.7063164E-1,-1.3192641E-2,2.2492513E-1,4.362812E-1,1.2386169E-1,2.9181805E-1,3.9002934E-1,-1.0655594E-2,6.0691673E-2,-1.3497085E-2,1.3457932E-1,-1.391751E-2,6.072021E-2,5.811925E-2,-1.1301306E-2,1.397966E-1,2.1878095E-1,-1.3561664E-2,1.2781629E-1,2.1948272E-1,1.3581368E-1,7.5668913E-1,4.5936266E-1,5.48634E-1,8.890231E-2,8.989816E-3,-8.277727E-3,9.2832364E-2,1.5975248E-2,-1.3114577E-2,1.0030983E-1,-3.188533E-3,-1.3959088E-2,4.507397E-1,2.4275333E-2,9.0631634E-2,7.5994567E-3,1.7719503E-1,2.557871E-3,5.238617E-1,-1.2177821E-2,2.1334761E-1,2.0634033E-2,-1.0655594E-2,7.052836E-2,5.011486E-2,-1.3877052E-2,5.4147728E-2,1.5542527E-1,6.688542E-2,1.316805E-1,-1.3260294E-2,4.3861695E-2,6.0309827E-2,1.4636083E-1,-8.181019E-3,1.6683202E-2,6.753712E-2,-1.2915871E-2,3.5611618E-1,1.2756847E-1,7.141214E-2,3.9052835E-1,2.9344406E-2,1.6835141E-1,5.615312E-2,1.2991847E-2],"split_indices":[23,23,26,0,26,23,14,28,14,28,28,20,28,23,10,10,19,23,23,23,19,20,28,25,23,2,2,2,28,14,210,20,10,2,23,28,28,2,12,3,0,25,14,7,23,17,20,10,28,0,28,0,28,0,28,23,22,0,2,28,9,0,0,25,28,0,28,28,28,23,9,2,23,0,8,0,0,0,23,2,28,28,13,0,7,0,0,25,4,0,14,23,12,9,10,0,22,23,8,3,0,0,8,14,14,14,0,14,9,13,19,0,0,4,9,23,20,3,20,23,2,7,23,2,2,2,28,0,23,2,28,28,7,0,0,14,8,2,28,23,30,8,11,0,0,7,0,19,23,0,11,3,0,14,19,11,23,14,11,0,0,0,0,0,0,0,0,0,0,0,0,0,0,0,0,0,0,0,0,0,0,0,0,0,0,0,0,0,0,0,0,0,0,0,0,0,0,0,0,0,0,0,0,0,0,0,0,0,0,0,0,0,0,0,0,0,0,0,0,0,0,0,0,0,0,0,0,0,0,0,0,0,0,0,0,0,0,0,0,0,0,0,0,0,0,0,0,0,0,0,0,0,0,0,0,0,0,0,0,0,0,0,0,0,0],"split_type":[0,0,0,0,0,0,0,0,0,0,0,0,0,0,0,0,0,0,0,0,0,0,0,0,0,0,0,0,0,0,0,0,0,0,0,0,0,0,0,0,0,0,0,0,0,0,0,0,0,0,0,0,0,0,0,0,0,0,0,0,0,0,0,0,0,0,0,0,0,0,0,0,0,0,0,0,0,0,0,0,0,0,0,0,0,0,0,0,0,0,0,0,0,0,0,0,0,0,0,0,0,0,0,0,0,0,0,0,0,0,0,0,0,0,0,0,0,0,0,0,0,0,0,0,0,0,0,0,0,0,0,0,0,0,0,0,0,0,0,0,0,0,0,0,0,0,0,0,0,0,0,0,0,0,0,0,0,0,0,0,0,0,0,0,0,0,0,0,0,0,0,0,0,0,0,0,0,0,0,0,0,0,0,0,0,0,0,0,0,0,0,0,0,0,0,0,0,0,0,0,0,0,0,0,0,0,0,0,0,0,0,0,0,0,0,0,0,0,0,0,0,0,0,0,0,0,0,0,0,0,0,0,0,0,0,0,0,0,0,0,0,0,0,0,0,0,0,0,0,0,0,0,0,0,0,0,0,0,0,0,0,0,0,0,0],"sum_hessian":[1.25276E5,1.03908E5,2.1368E4,9.5043E4,8.865E3,6.877E3,1.4491E4,2.878E3,5.987E3,6.564E3,3.13E2,1.2508E4,1.983E3,9.03E2,1.975E3,5.666E3,3.21E2,1.97E3,4.594E3,1.51E2,1.62E2,1.2488E4,2E1,4.95E2,1.488E3,3.19E2,5.84E2,1.25E3,7.25E2,2.968E3,2.698E3,4E1,2.81E2,9.17E2,1.053E3,2.285E3,2.309E3,1.03E2,4.8E1,9.1E1,7.1E1,1.2241E4,2.47E2,1E1,1E1,3.54E2,1.41E2,8.42E2,6.46E2,3.6E1,2.83E2,1.8E1,5.66E2,8.5E1,1.165E3,1.44E2,5.81E2,1.02E3,1.948E3,2.692E3,6E0,3.2E1,8E0,1.49E2,1.32E2,3.6E1,8.81E2,7.59E2,2.94E2,9.89E2,1.296E3,5.56E2,1.753E3,4E0,9.9E1,3.3E1,1.5E1,7E0,8.4E1,9.258E3,2.983E3,9.4E1,1.53E2,2E0,8E0,2E0,8E0,3.9E1,3.15E2,2.5E1,1.16E2,5.1E1,7.91E2,5.1E1,5.95E2,1.4E1,2.69E2,1.12E2,4.54E2,1.16E3,5E0,9E1,5.4E1,3.4E1,5.47E2,3.49E2,6.71E2,1.85E3,9.8E1,6.06E2,2.086E3,2E0,4E0,1.41E2,8E0,5.5E1,7.7E1,3.11E2,5.7E2,2.1E2,5.49E2,7.1E1,2.23E2,1.09E2,8.8E2,1.164E3,1.32E2,7E0,5.49E2,1.292E3,4.61E2,8.5E1,1.4E1,3E0,8.1E1,7.414E3,1.844E3,2.3E1,2.96E3,3E1,6.4E1,1.45E2,8E0,6E0,2E0,3.4E1,5E0,2.34E2,8.1E1,8.9E1,2.7E1,1.6E1,3.5E1,7.28E2,6.3E1,1.9E1,3.2E1,3.1E1,5.64E2,2.46E2,2.3E1,7.1E1,4.1E1,4.46E2,8E0,1.157E3,3E0,5E1,4E0,2.5E1,9E0,5.44E2,3E0,2E0,3.47E2,3.6E1,6.35E2,5.1E2,1.34E3,1.6E1,8.2E1,5.84E2,2.2E1,2.084E3,2E0,1.39E2,2E0,2E0,6E0,1.4E1,4.1E1,6.1E1,1.6E1,3.09E2,2E0,5.56E2,1.4E1,1.75E2,3.5E1,1.3E1,5.36E2,6.9E1,2E0,1.64E2,5.9E1,3E0,1.06E2,1.9E1,8.61E2,4.8E1,1.116E3,1.8E1,1.14E2,5E1,4.99E2,2.1E1,1.271E3,2.63E2,1.98E2,2.6E1,5.9E1,4E0,1E1,2.124E3,5.29E3,1.8E2,1.664E3,1.2E1,1.1E1,3.27E2,2.633E3,1.4E1,1.6E1,3.5E1,2.9E1,2E0,1.43E2,2E0,6E0,3E1,4E0,3E0,2E0,1.92E2,4.2E1,3.9E1,4.2E1,1.2E1,1.5E1,1.4E1,2E0,1.1E1,2.4E1,6.12E2,1.16E2,5.3E1,1E1,1.2E1,7E0,3E1,2E0,3E0,2.8E1,2.88E2,2.76E2],"tree_param":{"num_deleted":"0","num_feature":"335","num_nodes":"265","size_leaf_vector":"1"}},{"base_weights":[2.2823662E-4,-1.3346088E-1,6.470096E-1,-1.3070737E-2,1.8438406E-1,1.8800303E0,6.1530154E-2,6.7610794E-1,-5.1218383E-2,1.7418898E0,5.040715E0,-4.8629018E-3,4.8000196E-1,1.3024046E0,4.029707E-1,-8.809328E-2,6.220878E-1,2.5506005E0,1.3876792E0,7.5483913E0,3.0559566E0,-2.5936374E-2,4.0063113E-1,1.0160033E0,2.5620025E-1,6.612477E-1,1.6557984E0,6.816316E-1,-8.6471215E-2,-3.705873E-2,-1.4793552E-1,2.3911588E0,3.7715355E-1,1.8439536E0,3.1656463E0,1.0424429E0,1.9364825E0,6.816939E0,8.10209E-1,2.509182E0,2.93124E-1,4.794946E-2,-9.102579E-2,1.1478393E0,2.3035584E-1,8.945048E-1,2.1986732E0,1.165617E0,1.9468944E-1,-1.2756801E-2,7.7144855E-1,-1.2474148E-2,1.7190136E0,-1.29387E-2,7.4447316E-1,1.5298532E-1,-1.4731319E-1,1.2615274E-1,-9.023512E-2,-1.4977504E-1,3.504694E-1,1.1607863E-1,2.0176788E-1,1.6688514E-1,1.4294386E0,-1.2756801E-2,1.9261281E0,2.806977E0,4.0128884E0,1.3997258E0,5.865438E-1,2.4509006E0,1.5949299E0,-8.865454E-3,6.956602E0,1.1621748E-1,2.0544401E-1,-2.279437E-2,2.9835406E-1,-4.1285075E-2,-1.6056085E-1,2.467645E0,1.993319E-1,-2.9505715E-2,5.805837E-1,5.860015E-1,1.3790196E0,2.0349313E-1,1.6967374E0,2.3662974E-1,1.4314592E0,7.56162E-2,6.941243E-1,1.1876926E-1,7.3355186E-1,2.1748953E0,1.609632E0,7.498259E-1,-1.1584543E-2,-1.2944167E-2,6.7864656E-1,5.996419E-2,-1.6141762E-1,4.9024484E-1,1.0580671E-1,-3.5505805E-2,-1.2206234E-1,-1.0000221E-1,-1.3070571E-2,-9.968706E-3,5.7187563E-1,-6.253935E-2,4.983977E-1,3.7550926E-1,1.3131493E-1,2.4524832E0,1.6250136E0,3.5433373E0,2.5118773E0,4.983946E0,3.7032104E0,-1.28061185E-2,1.4380941E0,6.8066627E-1,1.7222974E-1,-1.3806292E-2,2.4811296E0,1.4529246E0,2.0092967E0,7.3518267E0,4.003666E0,1.1429875E-1,-1.11134686E-1,1.5494986E0,2.2740038E-1,-6.597465E-2,9.104226E-2,1.41482E-1,-1.6164412E-1,1.3318375E0,3.7494247E0,1.2934922E0,-1.1618017E-2,-1.0281532E-1,1.9592385E-1,1.4822986E0,3.5440943E-1,4.028064E-1,1.2805299E0,2.9043918E0,1.1725633E0,1.5674761E-1,-1.3743143E-2,9.142105E-1,-1.339691E-2,2.1744316E0,1.0374205E0,3.2638898E-1,-3.7606873E-2,1.7046922E0,4.127475E-1,5.896249E-2,1.4721187E-2,1.5118429E-1,2.1058889E-1,1.3000913E-1,5.432352E-2,6.0119018E-2,1.6453475E-2,5.8140643E-2,3.4046574E-3,-1.2662351E-2,5.494993E-2,-1.304896E-2,8.783742E-3,5.84644E-2,6.698341E-3,7.643596E-3,6.6151135E-2,-3.373194E-3,2.226684E-2,-1.0833618E-2,5.208131E-3,-1.0676828E-2,5.879309E-2,1.7805595E-2,5.3366713E-2,1.1820752E-2,-1.2742605E-2,5.495598E-2,-4.5620943E-3,5.162997E-2,-9.85329E-3,1.974888E-1,-8.966484E-3,1.3303699E-1,1.0914091E-1,2.711135E-1,3.3736026E-1,-1.2140351E-2,2.0576146E-1,4.0490547E-1,1.1725573E-1,2.647391E-1,3.475958E-1,5.478859E-2,1.209491E-1,-1.2826832E-2,5.7806224E-2,5.486708E-2,-1.1712406E-2,1.8834795E-1,2.207956E-1,1.2279371E-1,5.3771775E-2,2.011653E-1,1.2777445E-1,6.5326524E-1,4.6179163E-1,1.6868757E-1,5.5944604E-1,7.501983E-3,8.123403E-2,-9.063125E-3,6.87123E-2,1.3164766E-1,4.0356122E-2,5.871843E-3,6.317904E-2,7.538834E-3,-6.523134E-3,2.793885E-3,1.9447273E-2,-1.1511203E-2,6.8425074E-2,-1.3015458E-2,-9.350055E-3,1.7142598E-1,-2.0889891E-2,-1.2919588E-2,3.701992E-1,-1.1981713E-2,2.44429E-1,-1.3967019E-2,5.0211858E-2,-1.0322652E-2,8.4448114E-2,6.352209E-2,-1.4446604E-2,1.421687E-1,3.704909E-2,1.3358194E-1,1.4591874E-2,1.1672621E-1,2.5107741E-2,1.0870621E-2,1.3275316E-1,2.6332948E-1,6.1968457E-2,1.0788291E-1,1.7942695E-2,-8.764423E-3,1.01898E-1,1.8965979E-1,7.9483606E-2,-1.1794486E-2,9.455876E-2,9.418092E-3,5.591109E-2,-1.0126733E-2,1.192835E-2,1.6785632E-1,6.2339168E-2,2.6652833E-2,2.3444286E-1],"categories":[],"categories_nodes":[],"categories_segments":[],"categories_sizes":[],"default_left":[0,0,0,0,0,0,0,0,0,0,0,0,0,0,0,0,0,0,0,0,0,0,0,0,0,0,0,0,0,0,0,0,0,0,0,0,0,0,0,0,0,0,0,0,0,0,0,0,0,0,0,0,0,0,0,0,0,0,0,0,0,0,0,0,0,0,0,0,0,0,0,0,0,0,0,0,0,0,0,0,0,0,0,0,0,0,0,0,0,0,0,0,0,0,0,0,0,0,0,0,0,0,0,0,0,0,0,0,0,0,0,0,0,0,0,0,0,0,0,0,0,0,0,0,0,0,0,0,0,0,0,0,0,0,0,0,0,0,0,0,0,0,0,0,0,0,0,0,0,0,0,0,0,0,0,0,0,0,0,0,0,0,0,0,0,0,0,0,0,0,0,0,0,0,0,0,0,0,0,0,0,0,0,0,0,0,0,0,0,0,0,0,0,0,0,0,0,0,0,0,0,0,0,0,0,0,0,0,0,0,0,0,0,0,0,0,0,0,0,0,0,0,0,0,0,0,0,0,0,0,0,0,0,0,0,0,0,0,0,0,0,0,0,0,0,0,0,0,0,0,0,0,0,0,0,0,0,0,0,0,0,0,0,0,0,0,0,0,0,0,0,0,0,0,0],"id":1,"left_children":[1,3,5,-1,7,9,11,13,15,17,19,21,23,25,27,29,31,33,35,37,39,41,43,45,47,49,51,53,55,57,59,61,63,65,67,69,71,73,-1,75,-1,77,79,81,83,85,87,89,91,-1,93,-1,95,-1,97,99,101,103,105,107,109,-1,-1,111,113,-1,115,117,119,121,123,125,127,-1,129,-1,-1,131,133,135,137,139,141,143,145,147,149,-1,151,153,155,157,159,-1,161,163,165,167,-1,-1,169,171,173,175,177,179,181,183,-1,-1,185,187,189,191,-1,193,195,197,199,201,203,-1,205,207,209,-1,211,213,215,217,219,221,223,225,227,229,231,233,235,237,239,241,243,245,247,249,251,253,255,257,259,-1,-1,261,-1,263,265,267,269,271,273,-1,-1,-1,-1,-1,-1,-1,-1,-1,-1,-1,-1,-1,-1,-1,-1,-1,-1,-1,-1,-1,-1,-1,-1,-1,-1,-1,-1,-1,-1,-1,-1,-1,-1,-1,-1,-1,-1,-1,-1,-1,-1,-1,-1,-1,-1,-1,-1,-1,-1,-1,-1,-1,-1,-1,-1,-1,-1,-1,-1,-1,-1,-1,-1,-1,-1,-1,-1,-1,-1,-1,-1,-1,-1,-1,-1,-1,-1,-1,-1,-1,-1,-1,-1,-1,-1,-1,-1,-1,-1,-1,-1,-1,-1,-1,-1,-1,-1,-1,-1,-1,-1,-1,-1,-1,-1,-1,-1,-1,-1,-1,-1,-1,-1],"loss_changes":[1.0840446E4,9.881736E2,1.5502864E4,0E0,1.0357456E3,3.009996E3,4.0458743E2,4.9487927E2,1.5014064E2,1.8945059E3,1.4153232E3,1.0741461E2,2.3893597E2,1.980697E2,2.752906E2,1.7500168E1,1.3515625E2,8.7079004E2,8.714238E2,1.7055566E2,4.5002075E1,5.7469322E1,7.874609E1,8.23808E1,7.853514E1,2.8522034E1,6.509119E1,6.8276306E1,1.0701618E1,2.6872877E1,2.4710884E0,1.0185242E0,6.10511E1,1.5522363E2,3.1601562E2,4.6046924E2,3.0866162E2,9.9461426E1,0E0,1.8044434E0,0E0,9.91553E1,2.1966648E1,1.4347034E2,4.6159584E1,7.901123E1,5.034912E0,2.164109E1,7.844702E1,0E0,6.397354E0,0E0,2.3775513E1,0E0,5.8063354E0,2.4765068E1,1.719944E0,5.5854864E0,4.0629616E0,1.764183E0,1.1231135E0,0E0,0E0,1.7676414E1,9.661453E0,0E0,1.3929248E2,1.5624756E2,7.71709E1,9.520752E1,4.8472107E1,5.657715E1,6.0159668E1,0E0,8.727295E1,0E0,0E0,5.2876564E1,1.0910513E2,1.2110634E1,8.896103E-1,6.488742E1,1.5710314E1,4.8457804E0,4.352672E1,4.1217003E1,6.1783386E1,0E0,1.2603836E1,5.9029865E0,1.7944626E1,3.0307892E1,7.152139E1,0E0,3.7104797E-1,8.458618E0,5.3077393E0,9.215698E-1,0E0,0E0,1.6828461E0,5.3078427E0,2.697382E-1,3.8504686E0,5.263487E0,1.8090557E0,3.698986E0,1.5937077E1,0E0,0E0,8.43246E-2,2.8311424E0,9.988176E0,1.2906654E0,0E0,1.3800903E1,3.4508057E0,8.074707E0,8.785596E1,1.2725586E1,4.7563965E1,0E0,8.503589E1,3.5892212E1,3.8068054E1,0E0,1.8245605E1,5.0313354E1,5.2414062E1,6.4714355E1,6.456647E1,3.15492E1,5.645794E0,5.798004E0,1.0109236E2,7.7951794E0,4.966116E0,2.1601467E0,1.0498047E-1,3.5440075E1,7.6296234E1,2.8428886E1,6.15208E0,6.8482366E0,1.635702E1,1.2097038E1,3.9064194E1,2.4067066E1,2.9265373E1,1.7243362E1,3.0401947E1,0E0,0E0,3.084012E0,0E0,2.9765701E0,8.224747E0,2.572303E1,1.2246087E1,1.8394714E1,3.910034E1,0E0,0E0,0E0,0E0,0E0,0E0,0E0,0E0,0E0,0E0,0E0,0E0,0E0,0E0,0E0,0E0,0E0,0E0,0E0,0E0,0E0,0E0,0E0,0E0,0E0,0E0,0E0,0E0,0E0,0E0,0E0,0E0,0E0,0E0,0E0,0E0,0E0,0E0,0E0,0E0,0E0,0E0,0E0,0E0,0E0,0E0,0E0,0E0,0E0,0E0,0E0,0E0,0E0,0E0,0E0,0E0,0E0,0E0,0E0,0E0,0E0,0E0,0E0,0E0,0E0,0E0,0E0,0E0,0E0,0E0,0E0,0E0,0E0,0E0,0E0,0E0,0E0,0E0,0E0,0E0,0E0,0E0,0E0,0E0,0E0,0E0,0E0,0E0,0E0,0E0,0E0,0E0,0E0,0E0,0E0,0E0,0E0,0E0,0E0,0E0,0E0,0E0,0E0,0E0,0E0,0E0,0E0,0E0,0E0,0E0,0E0,0E0,0E0,0E0],"parents":[2147483647,0,0,1,1,2,2,4,4,5,5,6,6,7,7,8,8,9,9,10,10,11,11,12,12,13,13,14,14,15,15,16,16,17,17,18,18,19,19,20,20,21,21,22,22,23,23,24,24,25,25,26,26,27,27,28,28,29,29,30,30,31,31,32,32,33,33,34,34,35,35,36,36,37,37,39,39,41,41,42,42,43,43,44,44,45,45,46,46,47,47,48,48,50,50,52,52,54,54,55,55,56,56,57,57,58,58,59,59,60,60,63,63,64,64,66,66,67,67,68,68,69,69,70,70,71,71,72,72,74,74,77,77,78,78,79,79,80,80,81,81,82,82,83,83,84,84,85,85,86,86,88,88,89,89,90,90,91,91,92,92,94,94,95,95,96,96,97,97,100,100,101,101,102,102,103,103,104,104,105,105,106,106,107,107,110,110,111,111,112,112,113,113,115,115,116,116,117,117,118,118,119,119,120,120,122,122,123,123,124,124,126,126,127,127,128,128,129,129,130,130,131,131,132,132,133,133,134,134,135,135,136,136,137,137,138,138,139,139,140,140,141,141,142,142,143,143,144,144,145,145,146,146,147,147,148,148,149,149,150,150,153,153,155,155,156,156,157,157,158,158,159,159,160,160],"right_children":[2,4,6,-1,8,10,12,14,16,18,20,22,24,26,28,30,32,34,36,38,40,42,44,46,48,50,52,54,56,58,60,62,64,66,68,70,72,74,-1,76,-1,78,80,82,84,86,88,90,92,-1,94,-1,96,-1,98,100,102,104,106,108,110,-1,-1,112,114,-1,116,118,120,122,124,126,128,-1,130,-1,-1,132,134,136,138,140,142,144,146,148,150,-1,152,154,156,158,160,-1,162,164,166,168,-1,-1,170,172,174,176,178,180,182,184,-1,-1,186,188,190,192,-1,194,196,198,200,202,204,-1,206,208,210,-1,212,214,216,218,220,222,224,226,228,230,232,234,236,238,240,242,244,246,248,250,252,254,256,258,260,-1,-1,262,-1,264,266,268,270,272,274,-1,-1,-1,-1,-1,-1,-1,-1,-1,-1,-1,-1,-1,-1,-1,-1,-1,-1,-1,-1,-1,-1,-1,-1,-1,-1,-1,-1,-1,-1,-1,-1,-1,-1,-1,-1,-1,-1,-1,-1,-1,-1,-1,-1,-1,-1,-1,-1,-1,-1,-1,-1,-1,-1,-1,-1,-1,-1,-1,-1,-1,-1,-1,-1,-1,-1,-1,-1,-1,-1,-1,-1,-1,-1,-1,-1,-1,-1,-1,-1,-1,-1,-1,-1,-1,-1,-1,-1,-1,-1,-1,-1,-1,-1,-1,-1,-1,-1,-1,-1,-1,-1,-1,-1,-1,-1,-1,-1,-1,-1,-1,-1,-1,-1],"split_conditions":[5E1,1E1,1E0,-1.3070737E-2,1E0,1.79E2,8.028E-1,2.5E1,8.07E-1,3.5E1,3.5E1,1.61E2,2.5E1,2.9E1,1.28E2,1.14E2,1.2E2,7.1E1,1E2,2.41E2,6.05E2,4.8E1,3E1,6.28E0,8E0,1E0,1E0,1E0,4E1,4.75E-1,1E0,3E1,4E1,1E0,1E2,5E1,5E1,1E0,8.10209E-1,1.03E0,2.93124E-1,1.5E1,1.3E1,3.455E-1,7.692E-1,8.8E1,1.248E3,7.1E1,1.42E2,-1.2756801E-2,1.1E1,-1.2474148E-2,1.8E1,-1.29387E-2,5E1,3.6E1,1.12E2,2.031E-1,6.296E-1,4E1,1.9E2,1.1607863E-1,2.0176788E-1,2.4E1,1.98E0,-1.2756801E-2,2.4E1,2.4E1,2.5E1,1E0,1E1,1E0,1.5E2,-8.865454E-3,5.9E1,1.1621748E-1,2.0544401E-1,3.766E-1,7E0,5E-2,1E1,2.8E1,3.7E1,2.48E2,2.5E1,4E1,1.5E1,2.0349313E-1,1.9E2,5.1E1,3.6E1,3.5E1,3.9E1,1.1876926E-1,1.57E2,3.1E1,2.9E1,9E0,-1.1584543E-2,-1.2944167E-2,1.99E2,8.028E-1,8.14E-1,7E0,1E0,1E0,1.2E1,3.5E1,-1.3070571E-2,-9.968706E-3,1.239E3,3.5E1,1.9E2,1.73E0,1.3131493E-1,2.184E1,1.63E2,9E1,1E0,1.428E3,1.21E2,-1.28061185E-2,7E1,1E0,6.1E1,-1.3806292E-2,1.33E2,7.5E1,6E1,3E1,6.8E1,7.5E1,3.4E-1,9E0,1E2,2.8E-1,1E0,9.4E1,1E0,2.02E2,4.465E2,1.37E0,7.8E1,7.01E2,2.09E2,6.475E2,5.1E1,1E1,1.4E1,1.3E1,5.4E1,1.5674761E-1,-1.3743143E-2,2E1,-1.339691E-2,6.72E2,3.95E2,1.2E1,1.06E2,4.8E1,2.8E2,5.896249E-2,1.4721187E-2,1.5118429E-1,2.1058889E-1,1.3000913E-1,5.432352E-2,6.0119018E-2,1.6453475E-2,5.8140643E-2,3.4046574E-3,-1.2662351E-2,5.494993E-2,-1.304896E-2,8.783742E-3,5.84644E-2,6.698341E-3,7.643596E-3,6.6151135E-2,-3.373194E-3,2.226684E-2,-1.0833618E-2,5.208131E-3,-1.0676828E-2,5.879309E-2,1.7805595E-2,5.3366713E-2,1.1820752E-2,-1.2742605E-2,5.495598E-2,-4.5620943E-3,5.162997E-2,-9.85329E-3,1.974888E-1,-8.966484E-3,1.3303699E-1,1.0914091E-1,2.711135E-1,3.3736026E-1,-1.2140351E-2,2.0576146E-1,4.0490547E-1,1.1725573E-1,2.647391E-1,3.475958E-1,5.478859E-2,1.209491E-1,-1.2826832E-2,5.7806224E-2,5.486708E-2,-1.1712406E-2,1.8834795E-1,2.207956E-1,1.2279371E-1,5.3771775E-2,2.011653E-1,1.2777445E-1,6.5326524E-1,4.6179163E-1,1.6868757E-1,5.5944604E-1,7.501983E-3,8.123403E-2,-9.063125E-3,6.87123E-2,1.3164766E-1,4.0356122E-2,5.871843E-3,6.317904E-2,7.538834E-3,-6.523134E-3,2.793885E-3,1.9447273E-2,-1.1511203E-2,6.8425074E-2,-1.3015458E-2,-9.350055E-3,1.7142598E-1,-2.0889891E-2,-1.2919588E-2,3.701992E-1,-1.1981713E-2,2.44429E-1,-1.3967019E-2,5.0211858E-2,-1.0322652E-2,8.4448114E-2,6.352209E-2,-1.4446604E-2,1.421687E-1,3.704909E-2,1.3358194E-1,1.4591874E-2,1.1672621E-1,2.5107741E-2,1.0870621E-2,1.3275316E-1,2.6332948E-1,6.1968457E-2,1.0788291E-1,1.7942695E-2,-8.764423E-3,1.01898E-1,1.8965979E-1,7.9483606E-2,-1.1794486E-2,9.455876E-2,9.418092E-3,5.591109E-2,-1.0126733E-2,1.192835E-2,1.6785632E-1,6.2339168E-2,2.6652833E-2,2.3444286E-1],"split_indices":[23,23,26,0,26,23,14,28,14,28,28,23,28,23,10,22,19,23,23,23,19,28,28,3,17,2,2,2,28,14,295,23,27,2,23,28,28,2,0,3,0,27,25,14,14,23,7,23,23,0,28,0,28,0,28,23,22,14,14,28,9,0,0,27,3,0,28,28,28,2,25,2,23,0,8,0,0,14,17,4,8,13,13,9,8,27,8,0,19,9,28,28,27,0,9,23,8,17,0,0,9,14,14,8,312,323,27,27,0,0,7,9,19,3,0,3,10,23,2,7,23,0,23,2,12,0,23,28,28,28,8,12,4,25,23,14,2,23,254,23,30,3,27,29,23,30,12,17,25,25,27,0,0,27,0,29,29,25,23,28,23,0,0,0,0,0,0,0,0,0,0,0,0,0,0,0,0,0,0,0,0,0,0,0,0,0,0,0,0,0,0,0,0,0,0,0,0,0,0,0,0,0,0,0,0,0,0,0,0,0,0,0,0,0,0,0,0,0,0,0,0,0,0,0,0,0,0,0,0,0,0,0,0,0,0,0,0,0,0,0,0,0,0,0,0,0,0,0,0,0,0,0,0,0,0,0,0,0,0,0,0,0,0,0,0,0,0,0,0,0,0,0,0,0,0],"split_type":[0,0,0,0,0,0,0,0,0,0,0,0,0,0,0,0,0,0,0,0,0,0,0,0,0,0,0,0,0,0,0,0,0,0,0,0,0,0,0,0,0,0,0,0,0,0,0,0,0,0,0,0,0,0,0,0,0,0,0,0,0,0,0,0,0,0,0,0,0,0,0,0,0,0,0,0,0,0,0,0,0,0,0,0,0,0,0,0,0,0,0,0,0,0,0,0,0,0,0,0,0,0,0,0,0,0,0,0,0,0,0,0,0,0,0,0,0,0,0,0,0,0,0,0,0,0,0,0,0,0,0,0,0,0,0,0,0,0,0,0,0,0,0,0,0,0,0,0,0,0,0,0,0,0,0,0,0,0,0,0,0,0,0,0,0,0,0,0,0,0,0,0,0,0,0,0,0,0,0,0,0,0,0,0,0,0,0,0,0,0,0,0,0,0,0,0,0,0,0,0,0,0,0,0,0,0,0,0,0,0,0,0,0,0,0,0,0,0,0,0,0,0,0,0,0,0,0,0,0,0,0,0,0,0,0,0,0,0,0,0,0,0,0,0,0,0,0,0,0,0,0,0,0,0,0,0,0,0,0,0,0,0,0,0,0,0,0,0,0,0,0,0,0,0,0],"sum_hessian":[1.25368E5,1.03894E5,2.1474E4,9.4955E4,8.939E3,6.913E3,1.4561E4,2.895E3,6.044E3,6.625E3,2.88E2,1.2568E4,1.993E3,8.78E2,2.017E3,5.731E3,3.13E2,2.016E3,4.609E3,1.26E2,1.62E2,1.1948E4,6.2E2,5.86E2,1.407E3,3.13E2,5.65E2,1.285E3,7.32E2,3.094E3,2.637E3,3.7E1,2.76E2,9.4E2,1.076E3,2.831E3,1.778E3,1.01E2,2.5E1,8.8E1,7.4E1,5.596E3,6.352E3,1.14E2,5.06E2,5.33E2,5.3E1,8.8E1,1.319E3,3.7E1,2.76E2,1.9E1,5.46E2,8.9E1,1.196E3,1.48E2,5.84E2,7.6E2,2.334E3,2.628E3,9E0,6E0,3.1E1,2.31E2,4.5E1,3.7E1,9.03E2,7.59E2,3.17E2,1.586E3,1.245E3,7.07E2,1.071E3,2E0,9.9E1,6E0,8.2E1,4.364E3,1.232E3,3.704E3,2.648E3,4.7E1,6.7E1,2.91E2,2.15E2,3.27E2,2.06E2,2.9E1,2.4E1,2E1,6.8E1,1.066E3,2.53E2,1.2E1,2.64E2,1.02E2,4.44E2,1.189E3,7E0,9.3E1,5.5E1,3.7E1,5.47E2,3.9E1,7.21E2,8.59E2,1.475E3,5.66E2,2.062E3,3E0,6E0,1.37E2,9.4E1,8E0,3.7E1,3.26E2,5.77E2,2.14E2,5.45E2,7.3E1,2.44E2,3.8E1,1.548E3,1.014E3,2.31E2,8E0,6.99E2,8.01E2,2.7E2,8.6E1,1.3E1,1.71E3,2.654E3,6.5E1,1.167E3,3.122E3,5.82E2,9E0,2.639E3,2.6E1,2.1E1,1E1,5.7E1,2.2E2,7.1E1,4.2E1,1.73E2,2.6E2,6.7E1,2.3E1,1.83E2,2.1E1,3E0,7E0,1.3E1,2.2E1,4.6E1,3.31E2,7.35E2,5.4E1,1.99E2,2.62E2,2E0,6.6E1,3.6E1,4.36E2,8E0,1.185E3,4E0,5.1E1,4E0,2.8E1,9E0,5.44E2,3E0,2.4E1,1.5E1,7.12E2,9E0,8.42E2,1.7E1,1.377E3,9.8E1,5.45E2,2.1E1,2E0,4E0,4.3E1,9.4E1,7E1,2.4E1,5E0,3E0,3.24E2,2E0,4.99E2,7.8E1,1.79E2,3.5E1,1.2E1,5.33E2,7.1E1,2E0,1.55E2,8.9E1,1.39E2,1.409E3,4.8E1,9.66E2,8.8E1,1.43E2,4.87E2,2.12E2,7.24E2,7.7E1,1.19E2,1.51E2,5.4E1,3.2E1,9E0,4E0,1.673E3,3.7E1,2.649E3,5E0,5.9E1,6E0,9.17E2,2.5E2,2.76E2,2.846E3,4.26E2,1.56E2,7E0,2E0,2.576E3,6.3E1,1.7E1,9E0,4E0,1.7E1,6E0,4E0,4.6E1,1.1E1,2.16E2,4E0,2.7E1,4.4E1,3.2E1,1E1,1.9E1,1.54E2,1.9E1,2.41E2,1.7E1,5E1,1.9E1,4E0,1.54E2,2.9E1,2E0,5E0,1.8E1,4E0,5E0,4.1E1,2.13E2,1.18E2,4.98E2,2.37E2,3.7E1,1.7E1,1.94E2,5E0],"tree_param":{"num_deleted":"0","num_feature":"335","num_nodes":"275","size_leaf_vector":"1"}},{"base_weights":[9.1892417E-4,-1.227411E-1,6.0510737E-1,-1.2025089E-2,1.7111991E-1,1.7381487E0,6.335726E-2,6.170103E-1,-4.349231E-2,1.6047449E0,4.6725726E0,-1.2410363E-3,4.6690223E-1,1.192826E0,3.7004986E-1,-8.0182426E-2,5.98268E-1,2.3578E0,1.2723188E0,6.870135E0,2.7717326E0,-7.550596E-3,3.3999398E0,9.678715E-1,2.573264E-1,6.1325854E-1,1.528914E0,6.363895E-1,-9.349216E-2,-3.0718422E-2,-1.3600728E-1,2.186521E0,3.873618E-1,1.6949698E0,2.918832E0,9.6019965E-1,1.7745106E0,6.1862903E0,9.335728E0,2.2808936E0,3.353602E0,3.174999E-2,-1.2944102E-1,4.6936984E0,-2.2775103E-1,1.3770652E0,6.958093E-1,1.3989212E-1,8.0908066E-1,-1.1754522E-2,7.097981E-1,-1.1458709E-2,1.5825157E0,-1.19144535E-2,6.9330704E-1,1.2648302E-1,-1.4897746E-1,1.12372644E-1,-9.236707E-2,-1.3771836E-1,5.3656703E-1,1.8593717E-1,1.1037143E-1,1.8488158E-1,1.2854834E0,-1.1745451E-2,1.7674018E0,2.5997822E0,3.6693907E0,1.2928348E0,5.3694916E-1,2.2544634E0,1.4642742E0,-8.392629E-3,6.3026876E0,5.671607E-1,8.647853E-1,1.848905E-1,8.363543E-2,2.7979532E-1,2.4317575E0,-2.6797934E-2,2.652085E-1,5.072131E-1,-1.3513346E-1,5.7467484E0,-1.3232011E-2,-9.633137E-3,-2.6458297E-2,8.331294E-1,1.6781222E0,6.097907E-1,2.5991776E0,7.173319E-1,5.06062E-2,2.0357392E0,6.227451E-1,1.09998606E-1,6.755226E-1,1.983568E0,1.4783118E0,5.5521764E-2,2.4437923E-2,-1.2082722E-2,6.226436E-1,-1.2034775E-2,8.256718E-3,7.486191E-2,5.6196797E-1,-4.0873382E-2,-1.14848085E-1,-1.3942386E-1,3.8241097E-1,5.0515793E-2,1.5966183E-2,-4.080735E-2,4.788925E-1,1.2146672E-1,2.58387E-1,2.2628942E0,1.4862471E0,3.3221993E0,2.313425E0,5.3018484E0,3.4903326E0,1.4209088E0,8.484989E-1,6.2275016E-1,-1.6292965E-2,-1.2914021E-2,2.2796073E0,1.5366446E0,7.247286E-1,6.6865983E0,3.8317242E0,2.2367708E-1,7.306423E-2,-3.4767713E-2,1.3239646E0,9.8985696E-1,1.9118741E-1,-1.257256E-2,1.0491863E0,-2.7561875E-2,-1.4866047E-1,-8.221577E-3,6.7302322E0,2.36261E0,4.9826548E-1,1.4992745E0,5.690779E0,1.5390716E0,5.048873E-1,1.099181E0,2.7816352E-1,-1.5402697E-3,1.112727E0,-1.9288117E-2,4.8209175E-1,1.2778709E-2,2.1554816E0,3.3491606E-1,1.7337416E0,5.5313732E-2,3.9211757E-2,1.3757454E-1,1.9196662E-1,1.23743646E-1,1.0005949E-1,5.347773E-2,3.186759E-3,-6.6533186E-3,1.2854824E-2,7.413301E-2,2.2512931E-2,-7.81176E-3,3.5998686E-3,-1.0060668E-2,1.9206355E-3,-7.903815E-3,-1.2046701E-2,-8.329407E-3,4.2903442E-2,-4.8508868E-3,6.8149514E-2,-1.0025489E-2,5.007963E-2,4.8187975E-2,-1.0291215E-2,2.2923978E-1,1.7433038E-1,1.2019565E-1,5.866385E-2,2.9081672E-1,2.4210197E-1,-1.1165751E-2,1.8906996E-1,4.5394E-1,1.843992E-1,2.8333214E-1,7.0423126E-2,-1.1635708E-2,1.1629299E-1,5.4176893E-2,1.0962628E-1,-1.1844432E-2,5.30232E-2,5.3108137E-2,-1.1187336E-2,1.0858936E-1,1.8490615E-1,-2.0860018E-2,1.2444954E-1,5.1257905E-2,1.2633528E-1,5.994795E-1,4.2572206E-1,5.3900898E-2,4.0731162E-1,7.951259E-3,-7.082435E-3,3.291457E-1,-9.227672E-3,4.1513104E-2,1.2836665E-1,1.38750635E-2,2.5486946E-1,2.5209393E-2,9.65155E-2,-1.3844266E-2,6.310974E-2,-1.1980462E-2,2.8892627E-2,2.1492389E-1,6.2236965E-1,7.940172E-2,2.7498978E-1,1.7275286E-1,2.2626955E-2,4.606695E-2,1.3218023E-1,6.953447E-1,-1.6601605E-2,6.658213E-2,1.9914642E-1,2.1537444E-2,8.4905565E-2,1.0184719E-1,3.5435148E-2,6.456599E-2,-1.388426E-2,1.1767633E-1,3.7041366E-2,-7.4189063E-3,1.8418835E-2,5.959392E-2,-1.5488959E-2,2.0359243E-1,1.1603786E-1,1.973392E-2,2.1881334E-1,2.0576972E-1,2.007165E-2],"categories":[],"categories_nodes":[],"categories_segments":[],"categories_sizes":[],"default_left":[0,0,0,0,0,0,0,0,0,0,0,0,0,0,0,0,0,0,0,0,0,0,0,0,0,0,0,0,0,0,0,0,0,0,0,0,0,0,0,0,0,0,0,0,0,0,0,0,0,0,0,0,0,0,0,0,0,0,0,0,0,0,0,0,0,0,0,0,0,0,0,0,0,0,0,0,0,0,0,0,0,0,0,0,0,0,0,0,0,0,0,0,0,0,0,0,0,0,0,0,0,0,0,0,0,0,0,0,0,0,0,0,0,0,0,0,0,0,0,0,0,0,0,0,0,0,0,0,0,0,0,0,0,0,0,0,0,0,0,0,0,0,0,0,0,0,0,0,0,0,0,0,0,0,0,0,0,0,0,0,0,0,0,0,0,0,0,0,0,0,0,0,0,0,0,0,0,0,0,0,0,0,0,0,0,0,0,0,0,0,0,0,0,0,0,0,0,0,0,0,0,0,0,0,0,0,0,0,0,0,0,0,0,0,0,0,0,0,0,0,0,0,0,0,0,0,0,0,0,0,0,0,0,0,0,0,0,0,0,0,0,0,0,0,0,0,0,0,0,0,0,0,0,0,0,0,0,0,0,0,0,0,0],"id":2,"left_children":[1,3,5,-1,7,9,11,13,15,17,19,21,23,25,27,29,31,33,35,37,39,41,43,45,47,49,51,53,55,57,59,61,63,65,67,69,71,73,75,77,79,81,83,85,87,89,91,93,95,-1,97,-1,99,-1,101,103,105,107,109,111,113,-1,-1,115,117,-1,119,121,123,125,127,129,131,-1,133,-1,-1,-1,-1,-1,135,137,139,141,143,145,-1,-1,-1,147,149,151,153,155,157,159,161,-1,163,165,167,-1,-1,-1,169,-1,-1,171,173,175,177,179,181,-1,-1,183,185,-1,187,189,191,193,195,197,199,201,203,205,207,-1,209,211,213,215,217,-1,-1,219,221,223,225,-1,227,229,231,-1,233,235,237,239,241,243,245,247,-1,249,251,253,255,-1,257,259,261,-1,-1,-1,-1,-1,-1,-1,-1,-1,-1,-1,-1,-1,-1,-1,-1,-1,-1,-1,-1,-1,-1,-1,-1,-1,-1,-1,-1,-1,-1,-1,-1,-1,-1,-1,-1,-1,-1,-1,-1,-1,-1,-1,-1,-1,-1,-1,-1,-1,-1,-1,-1,-1,-1,-1,-1,-1,-1,-1,-1,-1,-1,-1,-1,-1,-1,-1,-1,-1,-1,-1,-1,-1,-1,-1,-1,-1,-1,-1,-1,-1,-1,-1,-1,-1,-1,-1,-1,-1,-1,-1,-1,-1,-1,-1,-1,-1,-1,-1,-1],"loss_changes":[9.364199E3,8.430083E2,1.3070686E4,0E0,8.540917E2,2.6889004E3,3.755668E2,4.1194934E2,1.4193773E2,1.646709E3,1.2299453E3,2.665583E2,2.084732E2,1.68526E2,2.5080597E2,1.5738113E1,1.0835401E2,7.451123E2,7.152412E2,1.749253E2,3.8618652E1,5.9395054E1,1.09016174E2,6.427893E1,9.0794014E1,2.3661972E1,4.9523193E1,5.7764282E1,9.075242E0,2.6686203E1,3.155819E0,1.0153046E0,5.231752E1,1.2392529E2,2.5171777E2,3.9675024E2,2.5756934E2,8.1944336E1,1.6075195E1,9.833069E-1,1.0420532E0,1.2816309E2,1.1024235E1,8.793735E1,3.754863E-2,3.6756958E1,5.6373734E1,5.9666977E1,5.4960495E1,0E0,5.5690155E0,0E0,1.9342407E1,0E0,1.21520996E-1,2.0747992E1,2.3345089E-1,1.5321629E1,2.4425373E0,2.4235878E0,9.779358E-2,0E0,0E0,1.574568E1,1.2283165E1,0E0,1.2090137E2,1.5139648E2,7.590967E1,8.870874E1,5.906125E1,4.2039062E1,5.5993652E1,0E0,7.777881E1,0E0,0E0,0E0,0E0,0E0,4.6358337E0,8.075336E1,1.0065262E2,9.886799E0,4.356903E0,8.123239E1,0E0,0E0,0E0,4.2357067E1,9.839847E1,3.2367744E1,1.5930038E1,4.4058678E1,3.0288319E1,6.844101E0,6.8171394E1,0E0,4.6572113E-1,7.6200256E0,4.7200317E0,0E0,0E0,0E0,1.415659E0,0E0,0E0,1.1433016E1,6.9014435E0,3.1440547E0,2.2315197E0,1.1929436E0,7.2965E-1,0E0,0E0,2.4412405E0,9.233213E0,0E0,1.5418385E0,9.958618E0,5.874878E0,9.006348E0,6.820923E1,2.0401917E1,3.6262207E1,6.3058594E1,3.0892365E1,3.3337494E1,1.4210045E1,0E0,1.6725342E1,3.352124E1,5.9507294E0,6.256006E1,6.419551E1,0E0,0E0,5.3772438E1,1.771869E2,4.9540543E1,9.017949E1,0E0,1.3513966E0,4.0047977E1,1.5405731E0,0E0,3.0020386E1,1.8676125E1,2.4797161E1,1.93909E1,1.0800955E2,2.0763885E1,3.9972412E1,2.3498154E-1,0E0,7.9292393E0,2.2593292E1,1.5874259E1,2.5007767E1,0E0,4.5450897E0,3.5755424E1,5.4054962E1,0E0,0E0,0E0,0E0,0E0,0E0,0E0,0E0,0E0,0E0,0E0,0E0,0E0,0E0,0E0,0E0,0E0,0E0,0E0,0E0,0E0,0E0,0E0,0E0,0E0,0E0,0E0,0E0,0E0,0E0,0E0,0E0,0E0,0E0,0E0,0E0,0E0,0E0,0E0,0E0,0E0,0E0,0E0,0E0,0E0,0E0,0E0,0E0,0E0,0E0,0E0,0E0,0E0,0E0,0E0,0E0,0E0,0E0,0E0,0E0,0E0,0E0,0E0,0E0,0E0,0E0,0E0,0E0,0E0,0E0,0E0,0E0,0E0,0E0,0E0,0E0,0E0,0E0,0E0,0E0,0E0,0E0,0E0,0E0,0E0,0E0,0E0,0E0,0E0,0E0,0E0,0E0,0E0,0E0,0E0,0E0,0E0,0E0,0E0,0E0],"parents":[2147483647,0,0,1,1,2,2,4,4,5,5,6,6,7,7,8,8,9,9,10,10,11,11,12,12,13,13,14,14,15,15,16,16,17,17,18,18,19,19,20,20,21,21,22,22,23,23,24,24,25,25,26,26,27,27,28,28,29,29,30,30,31,31,32,32,33,33,34,34,35,35,36,36,37,37,38,38,39,39,40,40,41,41,42,42,43,43,44,44,45,45,46,46,47,47,48,48,50,50,52,52,54,54,55,55,56,56,57,57,58,58,59,59,60,60,63,63,64,64,66,66,67,67,68,68,69,69,70,70,71,71,72,72,74,74,80,80,81,81,82,82,83,83,84,84,85,85,89,89,90,90,91,91,92,92,93,93,94,94,95,95,96,96,98,98,99,99,100,100,104,104,107,107,108,108,109,109,110,110,111,111,112,112,115,115,116,116,118,118,119,119,120,120,121,121,122,122,123,123,124,124,125,125,126,126,127,127,128,128,130,130,131,131,132,132,133,133,134,134,137,137,138,138,139,139,140,140,142,142,143,143,144,144,146,146,147,147,148,148,149,149,150,150,151,151,152,152,153,153,155,155,156,156,157,157,158,158,160,160,161,161,162,162],"right_children":[2,4,6,-1,8,10,12,14,16,18,20,22,24,26,28,30,32,34,36,38,40,42,44,46,48,50,52,54,56,58,60,62,64,66,68,70,72,74,76,78,80,82,84,86,88,90,92,94,96,-1,98,-1,100,-1,102,104,106,108,110,112,114,-1,-1,116,118,-1,120,122,124,126,128,130,132,-1,134,-1,-1,-1,-1,-1,136,138,140,142,144,146,-1,-1,-1,148,150,152,154,156,158,160,162,-1,164,166,168,-1,-1,-1,170,-1,-1,172,174,176,178,180,182,-1,-1,184,186,-1,188,190,192,194,196,198,200,202,204,206,208,-1,210,212,214,216,218,-1,-1,220,222,224,226,-1,228,230,232,-1,234,236,238,240,242,244,246,248,-1,250,252,254,256,-1,258,260,262,-1,-1,-1,-1,-1,-1,-1,-1,-1,-1,-1,-1,-1,-1,-1,-1,-1,-1,-1,-1,-1,-1,-1,-1,-1,-1,-1,-1,-1,-1,-1,-1,-1,-1,-1,-1,-1,-1,-1,-1,-1,-1,-1,-1,-1,-1,-1,-1,-1,-1,-1,-1,-1,-1,-1,-1,-1,-1,-1,-1,-1,-1,-1,-1,-1,-1,-1,-1,-1,-1,-1,-1,-1,-1,-1,-1,-1,-1,-1,-1,-1,-1,-1,-1,-1,-1,-1,-1,-1,-1,-1,-1,-1,-1,-1,-1,-1,-1,-1,-1],"split_conditions":[5E1,1E1,1E0,-1.2025089E-2,1E0,1.79E2,8.028E-1,2.5E1,8.07E-1,3.5E1,3.5E1,4.22E2,2.5E1,2.9E1,5.521E-1,5.833E-1,1.2E2,7.2E1,1E2,2.41E2,6.05E2,1.5E1,2.22E2,8.125E-1,1.44E2,1E0,1E0,1E0,4E1,5.172E-1,1E0,8.1E1,4E1,1E0,1E2,5E1,5E1,1E0,1.19E2,1.9E1,4.8E1,1.5E1,2E1,4.9E1,1.305E3,4.067E-1,1.15E2,1.3E1,2.57E2,-1.1754522E-2,1.1E1,-1.1458709E-2,1.8E1,-1.19144535E-2,9E0,3.6E1,8.14E-1,7.8E1,6.296E-1,1E0,1.68E2,1.8593717E-1,1.1037143E-1,2.4E1,2.4E1,-1.1745451E-2,2.4E1,2.4E1,2E1,6E-1,7.175E-1,1E0,6.313E-1,-8.392629E-3,5.9E1,5.671607E-1,8.647853E-1,1.848905E-1,8.363543E-2,2.7979532E-1,5E-2,3.73E2,1E1,2.46E2,4E1,1.124E3,-1.3232011E-2,-9.633137E-3,-2.6458297E-2,9E0,1.63E2,8E0,2.45E2,7.3E1,7.3E1,9.88E2,4.286E-1,1.09998606E-1,1.1E2,3.1E1,7.9E1,5.5521764E-2,2.4437923E-2,-1.2082722E-2,1.99E2,-1.2034775E-2,8.256718E-3,1E0,2.5E1,3.3E1,1.2E1,4E1,1.9E2,5.0515793E-2,1.5966183E-2,2.6E-1,8.158E-1,1.2146672E-1,3.4E1,1.8E1,1.51E2,2E1,1E0,6E0,5E1,1E0,7.9E1,1E0,6.1E1,-1.2914021E-2,1.05E2,1E0,1.7E1,3E1,1E0,2.2367708E-1,7.306423E-2,3.5E-1,1.09E2,7.3E1,2.5E2,-1.257256E-2,6.1E1,3.3E1,2.16E2,-8.221577E-3,7.2E2,3E0,4.3E1,1.1E1,3.4E1,5.6E1,4.781E-1,3.3E2,2.7816352E-1,8.5E1,1.35E2,1.16E2,3.5E1,1.2778709E-2,4.2E1,2.8E2,3.08E2,5.5313732E-2,3.9211757E-2,1.3757454E-1,1.9196662E-1,1.23743646E-1,1.0005949E-1,5.347773E-2,3.186759E-3,-6.6533186E-3,1.2854824E-2,7.413301E-2,2.2512931E-2,-7.81176E-3,3.5998686E-3,-1.0060668E-2,1.9206355E-3,-7.903815E-3,-1.2046701E-2,-8.329407E-3,4.2903442E-2,-4.8508868E-3,6.8149514E-2,-1.0025489E-2,5.007963E-2,4.8187975E-2,-1.0291215E-2,2.2923978E-1,1.7433038E-1,1.2019565E-1,5.866385E-2,2.9081672E-1,2.4210197E-1,-1.1165751E-2,1.8906996E-1,4.5394E-1,1.843992E-1,2.8333214E-1,7.0423126E-2,-1.1635708E-2,1.1629299E-1,5.4176893E-2,1.0962628E-1,-1.1844432E-2,5.30232E-2,5.3108137E-2,-1.1187336E-2,1.0858936E-1,1.8490615E-1,-2.0860018E-2,1.2444954E-1,5.1257905E-2,1.2633528E-1,5.994795E-1,4.2572206E-1,5.3900898E-2,4.0731162E-1,7.951259E-3,-7.082435E-3,3.291457E-1,-9.227672E-3,4.1513104E-2,1.2836665E-1,1.38750635E-2,2.5486946E-1,2.5209393E-2,9.65155E-2,-1.3844266E-2,6.310974E-2,-1.1980462E-2,2.8892627E-2,2.1492389E-1,6.2236965E-1,7.940172E-2,2.7498978E-1,1.7275286E-1,2.2626955E-2,4.606695E-2,1.3218023E-1,6.953447E-1,-1.6601605E-2,6.658213E-2,1.9914642E-1,2.1537444E-2,8.4905565E-2,1.0184719E-1,3.5435148E-2,6.456599E-2,-1.388426E-2,1.1767633E-1,3.7041366E-2,-7.4189063E-3,1.8418835E-2,5.959392E-2,-1.5488959E-2,2.0359243E-1,1.1603786E-1,1.973392E-2,2.1881334E-1,2.0576972E-1,2.007165E-2],"split_indices":[23,23,26,0,26,23,14,28,14,28,28,20,28,23,21,21,19,23,23,23,19,25,23,14,23,2,2,2,28,14,210,20,27,2,23,28,28,2,12,17,8,27,28,8,7,21,23,8,10,0,28,0,28,0,17,23,14,20,14,295,20,0,0,27,28,0,28,28,28,21,21,2,21,0,8,0,0,0,0,0,4,20,8,10,28,7,0,0,0,17,23,8,19,23,12,7,21,0,22,23,22,0,0,0,9,0,0,0,28,20,27,28,9,0,0,4,14,0,8,28,20,28,2,0,8,2,23,2,12,0,23,2,17,28,6,0,0,14,12,23,23,0,23,27,23,0,19,0,20,25,8,23,21,10,0,10,22,23,28,0,28,23,22,0,0,0,0,0,0,0,0,0,0,0,0,0,0,0,0,0,0,0,0,0,0,0,0,0,0,0,0,0,0,0,0,0,0,0,0,0,0,0,0,0,0,0,0,0,0,0,0,0,0,0,0,0,0,0,0,0,0,0,0,0,0,0,0,0,0,0,0,0,0,0,0,0,0,0,0,0,0,0,0,0,0,0,0,0,0,0,0,0,0,0,0,0,0,0,0,0,0,0,0],"split_type":[0,0,0,0,0,0,0,0,0,0,0,0,0,0,0,0,0,0,0,0,0,0,0,0,0,0,0,0,0,0,0,0,0,0,0,0,0,0,0,0,0,0,0,0,0,0,0,0,0,0,0,0,0,0,0,0,0,0,0,0,0,0,0,0,0,0,0,0,0,0,0,0,0,0,0,0,0,0,0,0,0,0,0,0,0,0,0,0,0,0,0,0,0,0,0,0,0,0,0,0,0,0,0,0,0,0,0,0,0,0,0,0,0,0,0,0,0,0,0,0,0,0,0,0,0,0,0,0,0,0,0,0,0,0,0,0,0,0,0,0,0,0,0,0,0,0,0,0,0,0,0,0,0,0,0,0,0,0,0,0,0,0,0,0,0,0,0,0,0,0,0,0,0,0,0,0,0,0,0,0,0,0,0,0,0,0,0,0,0,0,0,0,0,0,0,0,0,0,0,0,0,0,0,0,0,0,0,0,0,0,0,0,0,0,0,0,0,0,0,0,0,0,0,0,0,0,0,0,0,0,0,0,0,0,0,0,0,0,0,0,0,0,0,0,0,0,0,0,0,0,0,0,0,0,0,0,0,0,0,0,0,0,0],"sum_hessian":[1.25332E5,1.04039E5,2.1293E4,9.5115E4,8.924E3,6.887E3,1.4406E4,2.899E3,6.025E3,6.589E3,2.98E2,1.2419E4,1.987E3,8.69E2,2.03E3,5.7E3,3.25E2,2.016E3,4.573E3,1.37E2,1.61E2,1.2397E4,2.2E1,5.85E2,1.402E3,3.2E2,5.49E2,1.289E3,7.41E2,3.023E3,2.677E3,3.7E1,2.88E2,9.26E2,1.09E3,2.822E3,1.751E3,1.1E2,2.7E1,9E1,7.1E1,9.375E3,3.022E3,1.6E1,6E0,2.32E2,3.53E2,1.157E3,2.45E2,3.6E1,2.84E2,1.7E1,5.32E2,8.7E1,1.202E3,1.49E2,5.92E2,9.1E2,2.113E3,2.671E3,6E0,3E1,7E0,2.36E2,5.2E1,3.5E1,8.91E2,7.68E2,3.22E2,1.579E3,1.243E3,6.85E2,1.066E3,2E0,1.08E2,1.3E1,1.4E1,8.7E1,3E0,5.9E1,1.2E1,7.496E3,1.879E3,2.6E1,2.996E3,1.3E1,3E0,4E0,2E0,8.4E1,1.48E2,3.39E2,1.4E1,1.54E2,1.003E3,3.1E1,2.14E2,1.2E1,2.72E2,1.06E2,4.26E2,1.199E3,3E0,9.6E1,5.3E1,5.89E2,3E0,8.41E2,6.9E1,6.43E2,1.47E3,2.663E3,8E0,4E0,2E0,1.34E2,1.02E2,4.2E1,1E1,3.2E2,5.71E2,2.15E2,5.53E2,2.9E1,2.93E2,1.224E3,3.55E2,1.076E3,1.67E2,7E0,6.78E2,9.7E2,9.6E1,9.2E1,1.6E1,9E0,3E0,7.453E3,4.3E1,1.73E2,1.706E3,1.2E1,1.4E1,3.35E2,2.661E3,2E0,1.1E1,1.4E1,7E1,1.43E2,5E0,3.3E1,3.06E2,6E0,8E0,5.5E1,9.9E1,8.64E2,1.39E2,2E0,2.9E1,1.71E2,4.3E1,2.48E2,2.4E1,6.8E1,3.8E1,3.23E2,1.03E2,4.9E1,4E0,2.96E2,5.45E2,2.9E1,4E1,3.87E2,2.56E2,1.363E3,1.07E2,5.76E2,2.087E3,2E0,6E0,1.32E2,2E0,2E1,8.2E1,5E0,5E0,3.5E1,2.85E2,5.58E2,1.3E1,9.9E1,1.16E2,1.1E1,5.42E2,2.5E1,4E0,2.87E2,6E0,2.5E1,1.199E3,2.69E2,8.6E1,5.3E1,1.023E3,2.5E1,1.42E2,2.4E1,6.54E2,1E1,9.6E2,8.9E1,7E0,5.5E1,3.7E1,5E0,1.1E1,2.132E3,5.321E3,1.4E1,2.9E1,9.9E1,7.4E1,1.697E3,9E0,3E0,1.1E1,2.85E2,5E1,2.656E3,5E0,3E0,8E0,7E0,7E0,7E0,6.3E1,2.1E1,1.22E2,3E0,2E0,2E1,1.3E1,2.16E2,9E1,4E0,2E0,9E0,4.6E1,6.3E1,3.6E1,6.68E2,1.96E2,1E2,3.9E1,1.7E1,1.2E1,1.66E2,5E0,2.7E1,1.6E1],"tree_param":{"num_deleted":"0","num_feature":"335","num_nodes":"263","size_leaf_vector":"1"}},{"base_weights":[-5.650058E-4,-1.1301871E-1,5.482655E-1,-1.1063091E-2,1.5673502E-1,1.5840776E0,5.6439225E-2,5.755975E-1,-4.2207282E-2,1.4674997E0,4.3261275E0,-4.8025165E-4,4.1493434E-1,1.1064659E0,3.41737E-1,-7.4985884E-2,5.6132877E-1,2.1558673E0,1.168542E0,6.377001E0,2.5706146E0,-4.624176E-3,2.5770648E0,8.8832986E-1,2.554705E-1,5.722735E-1,1.4083743E0,5.80467E-1,-6.9658525E-2,-3.1164879E-2,-1.24519594E-1,2.019397E0,3.5706627E-1,1.5573361E0,2.677411E0,8.0676645E-1,1.5294932E0,5.405979E0,7.9904313E0,2.087304E0,3.0925982E0,-1.3681675E-2,5.032402E-1,4.7759533E0,3.437965E-1,6.684809E-1,1.4745277E0,8.70025E-2,5.8583075E-1,-1.0831211E-2,6.602722E-1,-1.0592939E-2,1.4569458E0,-1.0962142E-2,6.3052773E-1,3.763869E-1,-9.598541E-2,-5.2785117E-2,2.6642212E-1,-1.2611194E-1,5.031391E-1,1.7154205E-1,1.02645434E-1,1.5725823E-1,1.2490612E0,-1.0855723E-2,1.629694E0,2.3742924E0,3.3886983E0,1.2076443E0,4.990834E-1,2.0405157E0,1.3668705E0,5.7127266E0,5.172649E-1,5.3591126E-1,7.99471E-1,9.291535E-2,2.1323414E0,3.2223096E0,2.1863241E0,-4.010514E-2,1.4373899E-1,1.6275702E0,2.3360692E-1,1.0362205E-1,6.082633E0,-1.1800989E-2,1.3624994E-1,4.4966722E-1,1.2111913E0,2.0463946E0,1.3324448E0,1.0137222E0,3.9334536E-2,1.3183343E0,3.3552656E-1,1.0295823E-1,6.2533087E-1,1.8889287E-1,1.4104935E0,6.3382125E-1,-9.475624E-3,-9.973081E-3,5.212031E-1,5.453718E-2,-1.2452841E-1,2.4556397E-2,-9.4385765E-2,7.663782E-1,1.4133403E-1,-8.676473E-2,-1.3756141E-1,4.728278E-2,1.5114654E-2,-4.852275E-2,4.3936402E-1,2.8328696E-1,1.1197537E-1,2.1084177E0,1.3668065E0,3.0185034E0,2.120562E0,4.2515907E0,3.1108358E0,5.685751E-1,1.285624E0,5.554872E-1,-1.2390215E-2,-9.690897E-3,2.0685024E0,1.2124004E0,1.8044167E0,-8.9381505E-3,5.9471946E0,1.5016195E-1,-5.0549682E-2,1.7325343E-1,7.8617305E-2,2.6604242E0,3.5229993E0,3.0366221E-2,2.0077723E-1,2.495536E-2,-8.110495E-2,1.2726694E-1,1.6438003E0,3.0596087E0,4.2605752E-1,6.2033796E-1,-2.0194459E-1,2.1330506E-1,5.5327183E-1,1.7867296E0,3.3129385E-1,3.216299E0,9.63666E-1,7.8282416E-2,1.7180271E-1,9.1638523E-1,1.14461936E-1,3.8129982E-1,1.2629168E0,1.4054104E0,2.3046786E-2,8.65897E-1,2.7523515E0,2.0614289E-1,1.0984272E0,5.028042E-2,1.0664995E-2,1.14596866E-1,7.799225E-2,5.082306E-2,3.7020622E-3,4.757229E-2,-1.1329121E-2,-1.0949281E-2,5.0143924E-2,6.46148E-3,-1.09295845E-2,-7.708407E-3,7.51068E-3,-8.215859E-3,5.050879E-3,1.3192043E-1,4.783883E-2,-9.4507905E-3,2.9812822E-2,-9.1207335E-3,5.1429767E-2,-1.1038353E-2,1.5771117E-2,-5.5223797E-3,6.795617E-2,-8.941073E-3,4.5572035E-2,4.3176427E-2,-8.64462E-3,1.6995384E-1,-2.0714395E-2,1.1156345E-1,7.67108E-2,3.0801076E-1,2.3076682E-1,-1.0419285E-2,1.7375705E-1,3.4691325E-1,6.388736E-2,2.240797E-1,2.9536873E-1,4.6842784E-2,-1.852002E-2,-1.290374E-2,1.05265215E-1,-1.0987699E-2,4.65635E-2,4.6536636E-2,-8.5532535E-3,1.0670537E-1,1.7185959E-1,1.01605296E-1,4.331734E-2,1.7329484E-1,1.0654207E-1,5.8831465E-1,3.8767582E-1,1.3288745E-1,2.3108613E-1,2.9455033E-1,1.6919613E-1,-2.8905629E-3,2.2731904E-2,-3.1699864E-3,-1.0350416E-2,1.6505506E-2,-9.471391E-3,1.9749403E-1,6.5557286E-2,2.7570593E-1,-1.2131964E-2,9.190096E-2,-1.3777155E-2,2.2400089E-2,2.036096E-1,-2.4361653E-2,-1.3033513E-2,8.539114E-2,2.2577873E-1,2.1961529E-2,1.1947564E-1,4.2293295E-1,-2.6037533E-2,9.9868745E-2,2.444314E-3,4.762234E-2,9.934062E-2,-1.9705534E-2,6.6166505E-2,4.9193483E-2,1.1772794E-1,-1.9228088E-2,1.4382726E-1,-2.035755E-3,3.536603E-2,4.185182E-2,1.5686497E-1,3.0595022E-1,1.4601614E-1,6.6760615E-2,4.679508E-3,2.2068849E-1,1.5336782E-2],"categories":[],"categories_nodes":[],"categories_segments":[],"categories_sizes":[],"default_left":[0,0,0,0,0,0,0,0,0,0,0,0,0,0,0,0,0,0,0,0,0,0,0,0,0,0,0,0,0,0,0,0,0,0,0,0,0,0,0,0,0,0,0,0,0,0,0,0,0,0,0,0,0,0,0,0,0,0,0,0,0,0,0,0,0,0,0,0,0,0,0,0,0,0,0,0,0,0,0,0,0,0,0,0,0,0,0,0,0,0,0,0,0,0,0,0,0,0,0,0,0,0,0,0,0,0,0,0,0,0,0,0,0,0,0,0,0,0,0,0,0,0,0,0,0,0,0,0,0,0,0,0,0,0,0,0,0,0,0,0,0,0,0,0,0,0,0,0,0,0,0,0,0,0,0,0,0,0,0,0,0,0,0,0,0,0,0,0,0,0,0,0,0,0,0,0,0,0,0,0,0,0,0,0,0,0,0,0,0,0,0,0,0,0,0,0,0,0,0,0,0,0,0,0,0,0,0,0,0,0,0,0,0,0,0,0,0,0,0,0,0,0,0,0,0,0,0,0,0,0,0,0,0,0,0,0,0,0,0,0,0,0,0,0,0,0,0,0,0,0,0,0,0,0,0,0,0,0,0,0,0,0,0,0,0,0,0,0,0,0,0,0,0],"id":3,"left_children":[1,3,5,-1,7,9,11,13,15,17,19,21,23,25,27,29,31,33,35,37,39,41,43,45,47,49,51,53,55,57,59,61,63,65,67,69,71,73,75,77,79,81,83,85,87,89,91,93,95,-1,97,-1,99,-1,101,103,105,107,109,111,113,-1,-1,115,117,-1,119,121,123,125,127,129,131,133,135,-1,-1,-1,137,139,141,143,145,147,149,-1,151,-1,-1,153,155,157,159,161,163,165,167,-1,169,-1,171,173,-1,-1,175,177,179,181,183,185,187,189,191,-1,-1,193,195,197,-1,199,201,203,205,207,209,211,213,215,217,-1,219,221,223,-1,225,-1,-1,-1,-1,227,229,-1,-1,231,233,235,237,239,241,243,245,-1,-1,247,249,251,253,-1,-1,255,-1,257,259,261,263,265,267,269,271,-1,-1,-1,-1,-1,-1,-1,-1,-1,-1,-1,-1,-1,-1,-1,-1,-1,-1,-1,-1,-1,-1,-1,-1,-1,-1,-1,-1,-1,-1,-1,-1,-1,-1,-1,-1,-1,-1,-1,-1,-1,-1,-1,-1,-1,-1,-1,-1,-1,-1,-1,-1,-1,-1,-1,-1,-1,-1,-1,-1,-1,-1,-1,-1,-1,-1,-1,-1,-1,-1,-1,-1,-1,-1,-1,-1,-1,-1,-1,-1,-1,-1,-1,-1,-1,-1,-1,-1,-1,-1,-1,-1,-1,-1,-1,-1,-1,-1,-1,-1,-1,-1,-1,-1],"loss_changes":[7.72648E3,7.0827954E2,1.0845369E4,0E0,7.4165674E2,2.1846172E3,2.945719E2,3.554334E2,1.1943291E2,1.3507725E3,9.881006E2,1.330884E2,1.4909119E2,1.4047278E2,1.9558144E2,1.2422905E1,9.190365E1,6.170303E2,5.9775146E2,1.5733838E2,3.1891418E1,5.723066E1,9.657222E1,6.319406E1,8.237428E1,1.9892342E1,4.2027588E1,4.5343384E1,8.631994E0,1.956669E1,2.7489777E0,7.429199E-1,4.8637985E1,1.1402759E2,2.2092578E2,2.822235E2,1.8793457E2,1.2151196E2,5.205298E1,9.4262695E-1,1.3013916E0,5.0848553E1,6.570798E1,3.76026E1,7.597579E0,4.268126E1,8.242401E0,4.333982E1,9.1232025E1,0E0,5.3923264E0,0E0,1.943518E1,0E0,2.9809265E0,3.0399427E0,2.9798765E0,9.120591E0,1.2774628E1,1.1958694E0,8.16555E-2,0E0,0E0,1.3083021E1,6.8772583E0,0E0,1.0925098E2,1.1586426E2,6.230005E1,4.885437E1,3.7481842E1,3.3645264E1,1.156853E2,1.0718506E2,1.056133E1,0E0,0E0,0E0,8.218689E-1,7.6446533E-1,6.0588036E0,2.7922413E1,4.3204678E1,7.096215E1,2.9939384E1,0E0,1.486969E0,0E0,0E0,4.071721E1,4.8517303E1,5.9864044E-1,3.2299652E0,7.083069E0,2.077164E1,8.0014725E1,3.6689945E1,0E0,3.3790588E-1,0E0,3.5600586E0,9.815979E-1,0E0,0E0,1.642108E0,1.2243923E1,1.4557486E0,8.3244295E0,2.4196987E0,5.107668E0,1.0007672E1,1.2139573E1,3.175125E-1,0E0,0E0,2.4709718E0,6.885088E0,8.611032E-1,0E0,1.244751E1,5.2025146E0,1.2170532E1,6.2757812E1,1.821167E1,3.3243164E1,1.6281509E0,3.891626E1,2.1607056E1,7.362657E0,0E0,2.9063965E1,4.9299683E1,7.4572266E1,0E0,8.055078E1,0E0,0E0,0E0,0E0,9.018097E-1,2.6663208E-1,0E0,0E0,6.408826E1,1.2852688E1,3.379552E1,1.0896488E1,2.411766E1,1.0574806E1,6.0864346E1,2.8664827E-1,0E0,0E0,1.2630058E1,1.5491402E1,8.2380844E1,2.4933022E1,0E0,0E0,1.7683048E0,0E0,4.40044E0,3.692768E0,7.5364285E0,1.8807487E1,3.575177E1,2.28376E1,2.9732748E1,8.0758064E1,0E0,0E0,0E0,0E0,0E0,0E0,0E0,0E0,0E0,0E0,0E0,0E0,0E0,0E0,0E0,0E0,0E0,0E0,0E0,0E0,0E0,0E0,0E0,0E0,0E0,0E0,0E0,0E0,0E0,0E0,0E0,0E0,0E0,0E0,0E0,0E0,0E0,0E0,0E0,0E0,0E0,0E0,0E0,0E0,0E0,0E0,0E0,0E0,0E0,0E0,0E0,0E0,0E0,0E0,0E0,0E0,0E0,0E0,0E0,0E0,0E0,0E0,0E0,0E0,0E0,0E0,0E0,0E0,0E0,0E0,0E0,0E0,0E0,0E0,0E0,0E0,0E0,0E0,0E0,0E0,0E0,0E0,0E0,0E0,0E0,0E0,0E0,0E0,0E0,0E0,0E0,0E0,0E0,0E0,0E0,0E0,0E0,0E0,0E0,0E0,0E0,0E0,0E0,0E0],"parents":[2147483647,0,0,1,1,2,2,4,4,5,5,6,6,7,7,8,8,9,9,10,10,11,11,12,12,13,13,14,14,15,15,16,16,17,17,18,18,19,19,20,20,21,21,22,22,23,23,24,24,25,25,26,26,27,27,28,28,29,29,30,30,31,31,32,32,33,33,34,34,35,35,36,36,37,37,38,38,39,39,40,40,41,41,42,42,43,43,44,44,45,45,46,46,47,47,48,48,50,50,52,52,54,54,55,55,56,56,57,57,58,58,59,59,60,60,63,63,64,64,66,66,67,67,68,68,69,69,70,70,71,71,72,72,73,73,74,74,78,78,79,79,80,80,81,81,82,82,83,83,84,84,86,86,89,89,90,90,91,91,92,92,93,93,94,94,95,95,96,96,98,98,100,100,101,101,104,104,105,105,106,106,107,107,108,108,109,109,110,110,111,111,112,112,115,115,116,116,117,117,119,119,120,120,121,121,122,122,123,123,124,124,125,125,126,126,127,127,128,128,130,130,131,131,132,132,134,134,139,139,140,140,143,143,144,144,145,145,146,146,147,147,148,148,149,149,150,150,153,153,154,154,155,155,156,156,159,159,161,161,162,162,163,163,164,164,165,165,166,166,167,167,168,168],"right_children":[2,4,6,-1,8,10,12,14,16,18,20,22,24,26,28,30,32,34,36,38,40,42,44,46,48,50,52,54,56,58,60,62,64,66,68,70,72,74,76,78,80,82,84,86,88,90,92,94,96,-1,98,-1,100,-1,102,104,106,108,110,112,114,-1,-1,116,118,-1,120,122,124,126,128,130,132,134,136,-1,-1,-1,138,140,142,144,146,148,150,-1,152,-1,-1,154,156,158,160,162,164,166,168,-1,170,-1,172,174,-1,-1,176,178,180,182,184,186,188,190,192,-1,-1,194,196,198,-1,200,202,204,206,208,210,212,214,216,218,-1,220,222,224,-1,226,-1,-1,-1,-1,228,230,-1,-1,232,234,236,238,240,242,244,246,-1,-1,248,250,252,254,-1,-1,256,-1,258,260,262,264,266,268,270,272,-1,-1,-1,-1,-1,-1,-1,-1,-1,-1,-1,-1,-1,-1,-1,-1,-1,-1,-1,-1,-1,-1,-1,-1,-1,-1,-1,-1,-1,-1,-1,-1,-1,-1,-1,-1,-1,-1,-1,-1,-1,-1,-1,-1,-1,-1,-1,-1,-1,-1,-1,-1,-1,-1,-1,-1,-1,-1,-1,-1,-1,-1,-1,-1,-1,-1,-1,-1,-1,-1,-1,-1,-1,-1,-1,-1,-1,-1,-1,-1,-1,-1,-1,-1,-1,-1,-1,-1,-1,-1,-1,-1,-1,-1,-1,-1,-1,-1,-1,-1,-1,-1,-1,-1],"split_conditions":[5E1,1E1,1E0,-1.1063091E-2,1E0,1.79E2,8.028E-1,2.5E1,8.07E-1,3.5E1,3.5E1,4.22E2,2.4E1,2.9E1,1.26E2,1.42E2,1.2E2,7.2E1,9E1,2.22E2,6.05E2,2.92E2,3E1,2E1,1.16E2,1E0,1E0,1E0,3.5E1,7E1,1E0,8.1E1,4E1,1E0,1E2,4.5E1,4.5E1,6.3E1,1.19E2,1.03E0,4.8E1,8E-2,2.6E1,2.8E1,1.334E3,8E-2,5.3E1,7E0,1.35E2,-1.0831211E-2,1.1E1,-1.0592939E-2,1.1E1,-1.0962142E-2,5E1,2.5E1,4E1,5.634E-1,1.07E2,4E1,1.68E2,1.7154205E-1,1.02645434E-1,2.4E1,1.98E0,-1.0855723E-2,2.4E1,2.4E1,2.5E1,7E1,1.6E2,1E0,1.35E2,1E0,1E0,5.3591126E-1,7.99471E-1,9.291535E-2,1.9E1,2.35E0,5E1,4.2E1,2.14E2,4E1,4.21E2,1.0362205E-1,1E0,-1.1800989E-2,1.3624994E-1,9E0,8.056E-1,2.9E1,4E1,1E0,3E0,1.3E2,1.81E2,1.0295823E-1,3.05E2,1.8889287E-1,1.41E2,9E0,-9.475624E-3,-9.973081E-3,2.8E1,3.6E1,1.1E2,1E0,1.2E1,1.8E1,8E1,3.5E1,4.55E2,4.728278E-2,1.5114654E-2,1.02E2,8.158E-1,1.73E0,1.1197537E-1,2.184E1,1.27E2,1.8E1,1E0,1.4E1,1.48E2,3.4E1,1E0,1E0,6E1,-9.690897E-3,1.05E2,7E1,6E1,-8.9381505E-3,2.4E1,1.5016195E-1,-5.0549682E-2,1.7325343E-1,7.8617305E-2,1.81E2,1.344E3,3.0366221E-2,2.0077723E-1,1.5E1,1E1,1.5E1,5.59E2,6.34E2,3.16E2,3.73E2,3.4E-1,2.1330506E-1,5.5327183E-1,4E0,6.28E0,4.4E2,6.575E2,7.8282416E-2,1.7180271E-1,5.7E0,1.14461936E-1,8.065E-1,7.1E1,5.6E1,7.3E1,1.5E2,3.5E1,3.9E1,4.51E2,5.028042E-2,1.0664995E-2,1.14596866E-1,7.799225E-2,5.082306E-2,3.7020622E-3,4.757229E-2,-1.1329121E-2,-1.0949281E-2,5.0143924E-2,6.46148E-3,-1.09295845E-2,-7.708407E-3,7.51068E-3,-8.215859E-3,5.050879E-3,1.3192043E-1,4.783883E-2,-9.4507905E-3,2.9812822E-2,-9.1207335E-3,5.1429767E-2,-1.1038353E-2,1.5771117E-2,-5.5223797E-3,6.795617E-2,-8.941073E-3,4.5572035E-2,4.3176427E-2,-8.64462E-3,1.6995384E-1,-2.0714395E-2,1.1156345E-1,7.67108E-2,3.0801076E-1,2.3076682E-1,-1.0419285E-2,1.7375705E-1,3.4691325E-1,6.388736E-2,2.240797E-1,2.9536873E-1,4.6842784E-2,-1.852002E-2,-1.290374E-2,1.05265215E-1,-1.0987699E-2,4.65635E-2,4.6536636E-2,-8.5532535E-3,1.0670537E-1,1.7185959E-1,1.01605296E-1,4.331734E-2,1.7329484E-1,1.0654207E-1,5.8831465E-1,3.8767582E-1,1.3288745E-1,2.3108613E-1,2.9455033E-1,1.6919613E-1,-2.8905629E-3,2.2731904E-2,-3.1699864E-3,-1.0350416E-2,1.6505506E-2,-9.471391E-3,1.9749403E-1,6.5557286E-2,2.7570593E-1,-1.2131964E-2,9.190096E-2,-1.3777155E-2,2.2400089E-2,2.036096E-1,-2.4361653E-2,-1.3033513E-2,8.539114E-2,2.2577873E-1,2.1961529E-2,1.1947564E-1,4.2293295E-1,-2.6037533E-2,9.9868745E-2,2.444314E-3,4.762234E-2,9.934062E-2,-1.9705534E-2,6.6166505E-2,4.9193483E-2,1.1772794E-1,-1.9228088E-2,1.4382726E-1,-2.035755E-3,3.536603E-2,4.185182E-2,1.5686497E-1,3.0595022E-1,1.4601614E-1,6.6760615E-2,4.679508E-3,2.2068849E-1,1.5336782E-2],"split_indices":[23,23,26,0,26,23,14,28,14,28,28,20,28,23,10,10,19,23,23,23,19,20,28,25,23,2,2,2,28,20,210,20,27,2,23,28,28,8,12,3,8,4,8,13,7,4,20,17,9,0,28,0,28,0,28,23,28,14,10,28,20,0,0,27,3,0,28,28,28,23,9,2,23,2,6,0,0,0,17,3,8,28,23,28,22,0,0,0,0,17,14,27,27,0,25,20,23,0,10,0,20,17,0,0,8,23,22,0,27,28,20,27,19,0,0,20,14,3,0,3,22,28,2,25,23,8,2,2,28,0,23,28,28,0,28,0,0,0,0,23,7,0,0,27,25,25,29,29,22,20,14,0,0,0,3,10,30,0,0,3,0,14,23,20,12,23,28,27,10,0,0,0,0,0,0,0,0,0,0,0,0,0,0,0,0,0,0,0,0,0,0,0,0,0,0,0,0,0,0,0,0,0,0,0,0,0,0,0,0,0,0,0,0,0,0,0,0,0,0,0,0,0,0,0,0,0,0,0,0,0,0,0,0,0,0,0,0,0,0,0,0,0,0,0,0,0,0,0,0,0,0,0,0,0,0,0,0,0,0,0,0,0,0,0,0,0,0,0,0,0,0,0,0],"split_type":[0,0,0,0,0,0,0,0,0,0,0,0,0,0,0,0,0,0,0,0,0,0,0,0,0,0,0,0,0,0,0,0,0,0,0,0,0,0,0,0,0,0,0,0,0,0,0,0,0,0,0,0,0,0,0,0,0,0,0,0,0,0,0,0,0,0,0,0,0,0,0,0,0,0,0,0,0,0,0,0,0,0,0,0,0,0,0,0,0,0,0,0,0,0,0,0,0,0,0,0,0,0,0,0,0,0,0,0,0,0,0,0,0,0,0,0,0,0,0,0,0,0,0,0,0,0,0,0,0,0,0,0,0,0,0,0,0,0,0,0,0,0,0,0,0,0,0,0,0,0,0,0,0,0,0,0,0,0,0,0,0,0,0,0,0,0,0,0,0,0,0,0,0,0,0,0,0,0,0,0,0,0,0,0,0,0,0,0,0,0,0,0,0,0,0,0,0,0,0,0,0,0,0,0,0,0,0,0,0,0,0,0,0,0,0,0,0,0,0,0,0,0,0,0,0,0,0,0,0,0,0,0,0,0,0,0,0,0,0,0,0,0,0,0,0,0,0,0,0,0,0,0,0,0,0,0,0,0,0,0,0,0,0,0,0,0,0,0,0,0,0,0,0],"sum_hessian":[1.25188E5,1.039E5,2.1288E4,9.5001E4,8.899E3,6.853E3,1.4435E4,2.865E3,6.034E3,6.575E3,2.78E2,1.2458E4,1.977E3,8.75E2,1.99E3,5.724E3,3.1E2,1.989E3,4.586E3,1.27E2,1.51E2,1.2439E4,1.9E1,4.97E2,1.48E3,3.17E2,5.58E2,1.259E3,7.31E2,3.038E3,2.686E3,3.7E1,2.73E2,9.28E2,1.061E3,2.292E3,2.294E3,8.2E1,4.5E1,8.1E1,7E1,1.2222E4,2.17E2,9E0,1E1,3.63E2,1.34E2,9.81E2,4.99E2,3.5E1,2.82E2,1.7E1,5.41E2,8.2E1,1.177E3,4E1,6.91E2,2.833E3,2.05E2,2.68E3,6E0,3E1,7E0,2.24E2,4.9E1,3.8E1,8.9E2,7.47E2,3.14E2,9.94E2,1.298E3,5.51E2,1.743E3,7.7E1,5E0,3E1,1.5E1,5E0,7.6E1,5.9E1,1.1E1,1.0466E4,1.756E3,4.1E1,1.76E2,3E0,6E0,8E0,2E0,2.6E2,1.03E2,2.4E1,1.1E2,4.7E1,9.34E2,1.26E2,3.73E2,1.3E1,2.69E2,2.4E1,5.17E2,1.172E3,5E0,9E0,3.1E1,1.1E2,5.81E2,9.91E2,1.842E3,4E1,1.65E2,6.06E2,2.074E3,4E0,2E0,1.3E2,9.4E1,7E0,4.2E1,3.13E2,5.77E2,2.08E2,5.39E2,7.3E1,2.41E2,1.09E2,8.85E2,1.169E3,1.29E2,7E0,5.44E2,1.291E3,4.52E2,3E0,7.4E1,2E0,3E0,7.3E1,3E0,2.4E1,3.5E1,2E0,9E0,4.046E3,6.42E3,1.738E3,1.8E1,1.8E1,2.3E1,9.3E1,8.3E1,2E0,4E0,2E1,2.4E2,1E1,9.3E1,3E0,2.1E1,2.3E1,8.7E1,1.4E1,3.3E1,1E1,9.24E2,9.7E1,2.9E1,3.2E2,5.3E1,2.67E2,2E0,4.9E2,2.7E1,1.169E3,3E0,2.8E1,3E0,8.3E1,2.7E1,3.2E1,5.49E2,3.61E2,6.3E2,1.75E3,9.2E1,5E0,3.5E1,7.8E1,8.7E1,5.85E2,2.1E1,2.072E3,2E0,1.28E2,2E0,1.8E1,7.6E1,4E0,3E0,3.11E2,2E0,5.38E2,3.9E1,2.5E1,1.83E2,1.2E1,5.27E2,7.1E1,2E0,1.61E2,8E1,1.07E2,2E0,1.8E1,8.67E2,4.3E1,1.126E3,1.7E1,1.12E2,5.5E1,4.89E2,1.188E3,1.03E2,2.54E2,1.98E2,3E1,4.4E1,6E0,1.8E1,3E1,5E0,3.275E3,7.71E2,3.454E3,2.966E3,1.315E3,4.23E2,8E0,1E1,1.6E1,2E0,1E1,1.3E1,8E1,1.3E1,2.1E1,6.2E1,1.3E1,7E0,2.3E2,1E1,6E0,4E0,7.1E1,2.2E1,1.3E1,1E1,6E0,8E0,9E0,2.4E1,2E0,8E0,8.29E2,9.5E1,7.5E1,2.2E1,1.2E1,1.7E1,6E1,2.6E2,1.8E1,3.5E1],"tree_param":{"num_deleted":"0","num_feature":"335","num_nodes":"273","size_leaf_vector":"1"}},{"base_weights":[-1.9326825E-4,-1.0366056E-1,5.0362134E-1,-1.0178053E-2,1.4857124E-1,1.4619913E0,5.1015723E-2,5.343876E-1,-3.7383698E-2,1.354962E0,3.8795023E0,1.1211302E-4,3.758563E-1,1.0120888E0,3.2072002E-1,-6.8413906E-2,5.1534355E-1,1.985003E0,1.0760456E0,5.8203187E0,2.3528974E0,-4.3503577E-3,2.662077E0,7.28076E-1,1.7174213E-1,5.306771E-1,1.2892812E0,5.358106E-1,-7.224294E-2,1.17723964E-1,-8.002603E-2,1.8615719E0,3.1566358E-1,1.5655131E0,2.6297398E0,8.0778164E-1,1.5031264E0,7.201387E0,4.918924E0,3.0638394E0,2.0411189E0,-1.3907114E-2,4.4837624E-1,4.347572E0,3.732753E-1,5.768193E-1,1.520117E0,1.6922452E-2,3.5771468E-1,-9.980629E-3,6.0690004E-1,-9.874875E-3,1.3412552E0,-1.017119E-2,5.8674276E-1,1.3534948E-1,-1.2641348E-1,2.1998022E-1,-1.1053486E-1,-4.608098E-2,-1.15141876E-1,1.585811E-1,9.69755E-2,1.3546264E-1,1.1382747E0,-1.0072823E-2,1.628797E0,4.2409334E0,2.5061011E0,1.0889478E0,4.5209107E-1,1.914877E0,1.2351984E0,7.6855264E0,2.5314877E0,-7.4683214E-3,5.0486403E0,2.5270712E-1,4.6871956E-2,1.5371807E-1,2.1054977E-1,5.88403E-2,-5.888548E-2,7.455523E-1,-1.9076273E-1,-1.915936E-2,5.2889338E0,-1.2389443E-2,1.325786E-1,2.9134127E-1,1.0370044E0,2.4622154E0,5.8418953E-1,1.2668914E0,-1.5057089E-2,8.439498E-1,2.0345552E-1,9.620892E-2,5.728194E-1,1.7164224E-1,1.3017833E0,4.69894E-2,1.1332911E-2,-1.3118461E-1,5.351153E-1,-1.0227582E-2,8.41709E-3,1.0906848E-1,7.632106E-1,2.3731974E-1,-1.3425371E-1,-5.9085358E-2,3.5305417E-1,-1.16751425E-1,4.265786E-1,-3.295527E-2,3.6672592E-1,3.0566433E-1,1.0316715E-1,2.0189862E0,1.3742073E0,9.508171E-2,4.333694E0,2.106224E0,2.879319E0,1.2023994E0,6.998253E-1,5.275384E-1,-4.128508E-2,-8.583366E-3,1.9297941E0,1.2973329E0,6.0111946E-1,6.2837057E0,7.083901E-1,-4.4462718E-2,4.6432167E-1,4.0367727E0,4.6906653E-1,-7.890297E-3,3.1363174E-1,-9.9758595E-2,6.9538723E-3,4.5206955E-1,2.7927227E0,-3.323257E-1,-1.2972475E-2,9.740473E-2,5.487897E-1,1.4444684E0,1.4201252E-1,5.934189E-1,1.3627301E0,2.0133324E0,4.304724E-1,3.704739E-1,2.8182237E0,1.09414846E-1,2.7249893E-2,-7.668356E-2,4.8575872E-1,5.8026665E-1,2.6555986E0,4.7994995E-1,-3.1370785E-2,4.6081815E-2,6.803605E-3,1.0773812E-1,7.9735816E-2,-1.6451623E-2,-1.0095674E-2,4.5742925E-2,1.9766665E-3,2.551417E-2,-1.4753477E-3,-1.5075996E-2,7.818203E-2,-1.3439053E-2,6.6698104E-2,-1.1571817E-2,1.1693377E-2,-1.1385937E-3,-7.5374087E-3,1.5291551E-2,5.754723E-2,-6.132292E-3,-1.01656895E-2,4.835813E-2,7.8049162E-3,-4.138455E-3,6.433185E-2,-9.0492945E-3,4.0719025E-2,4.2097013E-2,-8.125943E-3,1.8293245E-1,1.4205223E-1,1.00576065E-1,1.5175089E-1,2.9920024E-1,4.1593975E-1,2.0740893E-1,1.514429E-1,-2.7077489E-2,2.3247142E-1,-1.3047744E-2,9.870043E-2,4.448177E-2,9.25714E-2,-1.0036515E-2,4.4712618E-2,4.3664742E-2,-1.1217724E-2,1.6310707E-1,1.32867E-1,-2.7890896E-2,1.0518733E-1,4.2861342E-2,1.0918644E-1,5.5809194E-1,2.9635078E-1,3.599924E-1,-8.198651E-2,-8.750355E-3,8.072076E-3,1.0599396E-1,1.811768E-2,-3.0714592E-3,-9.998246E-3,-3.3919653E-3,1.3912908E-2,1.7530313E-1,2.7460134E-2,3.4186655E-1,-2.6600778E-2,-9.463169E-3,-3.0776605E-2,5.6193016E-2,1.8101694E-1,7.6871375E-3,1.09302424E-1,1.631841E-2,1.0008034E-1,1.5294085E-1,9.844426E-2,2.6055986E-1,7.003425E-2,-2.252955E-2,9.314004E-2,2.8002415E-2,3.4776074E-1,4.7272857E-2,-8.081323E-3,5.0303925E-2,-1.2957487E-2,2.9232481E-2,1.3625509E-1,9.058217E-2,2.2265784E-1,2.3248533E-2,9.955492E-2,5.416901E-2,-1.0164219E-2],"categories":[],"categories_nodes":[],"categories_segments":[],"categories_sizes":[],"default_left":[0,0,0,0,0,0,0,0,0,0,0,0,0,0,0,0,0,0,0,0,0,0,0,0,0,0,0,0,0,0,0,0,0,0,0,0,0,0,0,0,0,0,0,0,0,0,0,0,0,0,0,0,0,0,0,0,0,0,0,0,0,0,0,0,0,0,0,0,0,0,0,0,0,0,0,0,0,0,0,0,0,0,0,0,0,0,0,0,0,0,0,0,0,0,0,0,0,0,0,0,0,0,0,0,0,0,0,0,0,0,0,0,0,0,0,0,0,0,0,0,0,0,0,0,0,0,0,0,0,0,0,0,0,0,0,0,0,0,0,0,0,0,0,0,0,0,0,0,0,0,0,0,0,0,0,0,0,0,0,0,0,0,0,0,0,0,0,0,0,0,0,0,0,0,0,0,0,0,0,0,0,0,0,0,0,0,0,0,0,0,0,0,0,0,0,0,0,0,0,0,0,0,0,0,0,0,0,0,0,0,0,0,0,0,0,0,0,0,0,0,0,0,0,0,0,0,0,0,0,0,0,0,0,0,0,0,0,0,0,0,0,0,0,0,0,0,0,0,0,0,0,0,0,0,0,0,0,0,0,0,0,0,0],"id":4,"left_children":[1,3,5,-1,7,9,11,13,15,17,19,21,23,25,27,29,31,33,35,37,39,41,43,45,47,49,51,53,55,57,59,61,63,65,67,69,71,73,75,77,79,81,83,85,87,89,91,93,95,-1,97,-1,99,-1,101,103,105,107,109,111,113,-1,-1,115,117,-1,119,121,123,125,127,129,131,133,135,-1,137,-1,-1,-1,-1,139,141,143,145,-1,147,-1,-1,149,151,153,155,157,159,161,163,-1,165,-1,167,-1,-1,169,171,-1,-1,173,175,177,179,181,183,185,187,189,191,193,-1,195,197,-1,199,201,203,205,207,209,211,-1,213,215,217,219,-1,-1,-1,221,-1,223,225,227,229,231,233,235,-1,-1,-1,237,239,241,243,245,-1,247,249,-1,-1,251,253,255,257,259,261,-1,-1,-1,-1,-1,-1,-1,-1,-1,-1,-1,-1,-1,-1,-1,-1,-1,-1,-1,-1,-1,-1,-1,-1,-1,-1,-1,-1,-1,-1,-1,-1,-1,-1,-1,-1,-1,-1,-1,-1,-1,-1,-1,-1,-1,-1,-1,-1,-1,-1,-1,-1,-1,-1,-1,-1,-1,-1,-1,-1,-1,-1,-1,-1,-1,-1,-1,-1,-1,-1,-1,-1,-1,-1,-1,-1,-1,-1,-1,-1,-1,-1,-1,-1,-1,-1,-1,-1,-1,-1,-1,-1,-1,-1,-1,-1,-1,-1],"loss_changes":[6.5364756E3,6.18348E2,9.266852E3,0E0,6.377565E2,1.767919E3,2.3996396E2,2.9475763E2,1.02925545E2,1.1513477E3,8.455342E2,1.4905664E2,1.4121667E2,1.1848108E2,1.6899944E2,1.2288654E1,8.51643E1,5.403213E2,5.2031055E2,1.22677734E2,3.0098083E1,5.4205524E1,7.93902E1,8.55E1,3.5869038E1,1.6462334E1,4.1723816E1,4.3699615E1,7.978848E0,7.8201733E0,6.3695602E0,8.104553E-1,4.1203453E1,1.3100781E2,1.4714307E2,2.7933044E2,1.9124536E2,8.906665E1,5.248535E1,9.448578E0,3.2124023E0,4.0148365E1,4.933585E1,5.3083694E1,7.0377865E0,7.944112E1,9.996124E1,2.7240984E1,4.2281807E1,0E0,5.279976E0,0E0,1.4540405E1,0E0,2.505188E-1,1.573323E1,1.9976997E-1,1.3834651E1,8.8993514E-1,1.4144224E1,2.3412209E0,0E0,0E0,8.970327E0,5.9051285E0,0E0,1.1424585E2,1.0422119E1,1.04075195E2,6.811536E1,4.6067795E1,2.1020508E1,4.121875E1,1.4845215E1,6.3844975E1,0E0,4.0631104E1,0E0,0E0,0E0,0E0,7.970965E1,2.0404306E1,1.0508072E2,2.8223348E-1,0E0,5.5606445E1,0E0,0E0,6.454021E1,3.2712387E1,6.384503E1,2.712535E1,1.121294E0,2.0561483E1,6.342643E1,2.79991E1,0E0,3.884964E-1,0E0,5.8288574E0,0E0,0E0,7.108569E-3,1.0901909E0,0E0,0E0,5.170397E0,8.129133E0,1.8321543E0,3.0678296E-1,4.1524277E0,4.96276E0,1.0748177E0,4.0927827E-1,2.1476722E0,6.6791096E0,8.6179197E-1,0E0,2.6096191E1,4.1403442E1,0E0,7.789978E0,3.2421265E1,3.3391357E1,5.192383E1,2.2702698E1,2.2049438E1,9.660566E0,0E0,1.6703857E1,2.8412476E1,4.110096E0,1.5236389E1,0E0,0E0,0E0,9.369104E1,0E0,4.103988E1,8.5465034E1,7.23489E0,2.3944357E1,2.8772116E1,1.0322035E2,1.00243926E-1,0E0,0E0,0E0,2.4519478E1,1.8647003E1,2.5353745E1,7.299179E0,6.9322556E1,0E0,2.8796782E1,1.7345112E1,0E0,0E0,9.692714E0,6.8653812E0,2.8330246E1,1.5364075E-1,2.8298939E1,1.5948675E1,0E0,0E0,0E0,0E0,0E0,0E0,0E0,0E0,0E0,0E0,0E0,0E0,0E0,0E0,0E0,0E0,0E0,0E0,0E0,0E0,0E0,0E0,0E0,0E0,0E0,0E0,0E0,0E0,0E0,0E0,0E0,0E0,0E0,0E0,0E0,0E0,0E0,0E0,0E0,0E0,0E0,0E0,0E0,0E0,0E0,0E0,0E0,0E0,0E0,0E0,0E0,0E0,0E0,0E0,0E0,0E0,0E0,0E0,0E0,0E0,0E0,0E0,0E0,0E0,0E0,0E0,0E0,0E0,0E0,0E0,0E0,0E0,0E0,0E0,0E0,0E0,0E0,0E0,0E0,0E0,0E0,0E0,0E0,0E0,0E0,0E0,0E0,0E0,0E0,0E0,0E0,0E0,0E0,0E0,0E0,0E0,0E0,0E0],"parents":[2147483647,0,0,1,1,2,2,4,4,5,5,6,6,7,7,8,8,9,9,10,10,11,11,12,12,13,13,14,14,15,15,16,16,17,17,18,18,19,19,20,20,21,21,22,22,23,23,24,24,25,25,26,26,27,27,28,28,29,29,30,30,31,31,32,32,33,33,34,34,35,35,36,36,37,37,38,38,39,39,40,40,41,41,42,42,43,43,44,44,45,45,46,46,47,47,48,48,50,50,52,52,54,54,55,55,56,56,57,57,58,58,59,59,60,60,63,63,64,64,66,66,67,67,68,68,69,69,70,70,71,71,72,72,73,73,74,74,76,76,81,81,82,82,83,83,84,84,86,86,89,89,90,90,91,91,92,92,93,93,94,94,95,95,96,96,98,98,100,100,103,103,104,104,107,107,108,108,109,109,110,110,111,111,112,112,113,113,114,114,115,115,116,116,117,117,119,119,120,120,122,122,123,123,124,124,125,125,126,126,127,127,128,128,130,130,131,131,132,132,133,133,137,137,139,139,140,140,141,141,142,142,143,143,144,144,145,145,149,149,150,150,151,151,152,152,153,153,155,155,156,156,159,159,160,160,161,161,162,162,163,163,164,164],"right_children":[2,4,6,-1,8,10,12,14,16,18,20,22,24,26,28,30,32,34,36,38,40,42,44,46,48,50,52,54,56,58,60,62,64,66,68,70,72,74,76,78,80,82,84,86,88,90,92,94,96,-1,98,-1,100,-1,102,104,106,108,110,112,114,-1,-1,116,118,-1,120,122,124,126,128,130,132,134,136,-1,138,-1,-1,-1,-1,140,142,144,146,-1,148,-1,-1,150,152,154,156,158,160,162,164,-1,166,-1,168,-1,-1,170,172,-1,-1,174,176,178,180,182,184,186,188,190,192,194,-1,196,198,-1,200,202,204,206,208,210,212,-1,214,216,218,220,-1,-1,-1,222,-1,224,226,228,230,232,234,236,-1,-1,-1,238,240,242,244,246,-1,248,250,-1,-1,252,254,256,258,260,262,-1,-1,-1,-1,-1,-1,-1,-1,-1,-1,-1,-1,-1,-1,-1,-1,-1,-1,-1,-1,-1,-1,-1,-1,-1,-1,-1,-1,-1,-1,-1,-1,-1,-1,-1,-1,-1,-1,-1,-1,-1,-1,-1,-1,-1,-1,-1,-1,-1,-1,-1,-1,-1,-1,-1,-1,-1,-1,-1,-1,-1,-1,-1,-1,-1,-1,-1,-1,-1,-1,-1,-1,-1,-1,-1,-1,-1,-1,-1,-1,-1,-1,-1,-1,-1,-1,-1,-1,-1,-1,-1,-1,-1,-1,-1,-1,-1,-1],"split_conditions":[5E1,1E1,1E0,-1.0178053E-2,1E0,1.79E2,8.028E-1,2.5E1,8.07E-1,3.5E1,3.5E1,4.22E2,3E1,2.9E1,5.587E-1,1E1,1.2E2,8E1,1E2,2.4E1,5E1,2.8E2,3E1,1.15E2,1.06E2,1E0,1E0,1E0,4E1,3.967E-1,4.611E-1,8.1E1,4E1,1E0,2E1,5E1,5E1,6.3E1,4.833E-1,2.74E2,2.33E2,4.2E1,6.1E2,1.124E3,6.4E-1,4.519E-1,3.1E1,5.2E1,2.54E2,-9.980629E-3,1.1E1,-9.874875E-3,1.1E1,-1.017119E-2,9E0,3.6E1,8.14E-1,6.7E1,5.7E1,7.5E1,1E0,1.585811E-1,9.69755E-2,2.4E1,1.98E0,-1.0072823E-2,2.5E1,3.87E2,9.6E1,6E-1,7.175E-1,5.5E-1,6.313E-1,2.02E2,6.8E1,-7.4683214E-3,2.09E2,2.5270712E-1,4.6871956E-2,1.5371807E-1,2.1054977E-1,1.5E1,3.15E2,3.73E2,3.7E1,-1.915936E-2,2.281E-1,-1.2389443E-2,1.325786E-1,8E0,4.23E0,1.69E2,4.286E-1,1E0,7.3E1,1.25E2,1E0,9.620892E-2,2.7E1,1.7164224E-1,5.317E-1,4.69894E-2,1.1332911E-2,1.26E2,2.9E1,-1.0227582E-2,8.41709E-3,5E0,1.833E-1,1.194E3,1E0,6.25E-1,1.309E3,4E1,4.1E2,1.02E2,8.158E-1,1.73E0,1.0316715E-1,2E1,7.5E1,9.508171E-2,2.02E2,2.4E1,5.6E-1,1E0,7.9E1,1E0,6.1E1,-8.583366E-3,5.182E-1,3.8E1,3.38E2,3.14E2,7.083901E-1,-4.4462718E-2,4.6432167E-1,3.14E2,4.6906653E-1,1.03E2,8E0,1.16E2,2.1E1,1.6E1,3.8E1,3.38E2,-1.2972475E-2,9.740473E-2,5.487897E-1,5.5E1,8.79E0,5.667E-1,5.5E1,1.34E2,4.304724E-1,8.07E-1,1E0,1.09414846E-1,2.7249893E-2,7E0,2.16E2,1.66E2,2.6E2,1.359E3,2.16E2,4.6081815E-2,6.803605E-3,1.0773812E-1,7.9735816E-2,-1.6451623E-2,-1.0095674E-2,4.5742925E-2,1.9766665E-3,2.551417E-2,-1.4753477E-3,-1.5075996E-2,7.818203E-2,-1.3439053E-2,6.6698104E-2,-1.1571817E-2,1.1693377E-2,-1.1385937E-3,-7.5374087E-3,1.5291551E-2,5.754723E-2,-6.132292E-3,-1.01656895E-2,4.835813E-2,7.8049162E-3,-4.138455E-3,6.433185E-2,-9.0492945E-3,4.0719025E-2,4.2097013E-2,-8.125943E-3,1.8293245E-1,1.4205223E-1,1.00576065E-1,1.5175089E-1,2.9920024E-1,4.1593975E-1,2.0740893E-1,1.514429E-1,-2.7077489E-2,2.3247142E-1,-1.3047744E-2,9.870043E-2,4.448177E-2,9.25714E-2,-1.0036515E-2,4.4712618E-2,4.3664742E-2,-1.1217724E-2,1.6310707E-1,1.32867E-1,-2.7890896E-2,1.0518733E-1,4.2861342E-2,1.0918644E-1,5.5809194E-1,2.9635078E-1,3.599924E-1,-8.198651E-2,-8.750355E-3,8.072076E-3,1.0599396E-1,1.811768E-2,-3.0714592E-3,-9.998246E-3,-3.3919653E-3,1.3912908E-2,1.7530313E-1,2.7460134E-2,3.4186655E-1,-2.6600778E-2,-9.463169E-3,-3.0776605E-2,5.6193016E-2,1.8101694E-1,7.6871375E-3,1.09302424E-1,1.631841E-2,1.0008034E-1,1.5294085E-1,9.844426E-2,2.6055986E-1,7.003425E-2,-2.252955E-2,9.314004E-2,2.8002415E-2,3.4776074E-1,4.7272857E-2,-8.081323E-3,5.0303925E-2,-1.2957487E-2,2.9232481E-2,1.3625509E-1,9.058217E-2,2.2265784E-1,2.3248533E-2,9.955492E-2,5.416901E-2,-1.0164219E-2],"split_indices":[23,23,26,0,26,23,14,28,14,28,28,20,28,23,21,13,19,23,23,28,28,20,28,23,23,18,18,18,28,21,21,20,27,18,28,28,28,8,14,9,23,28,10,7,21,21,8,9,10,0,28,0,28,0,17,23,14,20,9,20,295,0,0,27,3,0,28,29,23,21,21,14,21,23,8,0,23,0,0,0,0,27,19,20,8,0,14,0,0,8,3,23,21,202,12,20,11,0,25,0,21,0,0,10,8,0,0,25,21,7,319,14,7,28,29,20,14,3,0,28,23,0,20,28,14,18,23,18,12,0,21,13,20,9,0,0,0,9,0,20,8,9,27,8,13,20,0,0,0,23,3,21,20,9,0,14,11,0,0,17,19,23,19,7,19,0,0,0,0,0,0,0,0,0,0,0,0,0,0,0,0,0,0,0,0,0,0,0,0,0,0,0,0,0,0,0,0,0,0,0,0,0,0,0,0,0,0,0,0,0,0,0,0,0,0,0,0,0,0,0,0,0,0,0,0,0,0,0,0,0,0,0,0,0,0,0,0,0,0,0,0,0,0,0,0,0,0,0,0,0,0,0,0,0,0,0,0,0,0,0,0,0,0],"split_type":[0,0,0,0,0,0,0,0,0,0,0,0,0,0,0,0,0,0,0,0,0,0,0,0,0,0,0,0,0,0,0,0,0,0,0,0,0,0,0,0,0,0,0,0,0,0,0,0,0,0,0,0,0,0,0,0,0,0,0,0,0,0,0,0,0,0,0,0,0,0,0,0,0,0,0,0,0,0,0,0,0,0,0,0,0,0,0,0,0,0,0,0,0,0,0,0,0,0,0,0,0,0,0,0,0,0,0,0,0,0,0,0,0,0,0,0,0,0,0,0,0,0,0,0,0,0,0,0,0,0,0,0,0,0,0,0,0,0,0,0,0,0,0,0,0,0,0,0,0,0,0,0,0,0,0,0,0,0,0,0,0,0,0,0,0,0,0,0,0,0,0,0,0,0,0,0,0,0,0,0,0,0,0,0,0,0,0,0,0,0,0,0,0,0,0,0,0,0,0,0,0,0,0,0,0,0,0,0,0,0,0,0,0,0,0,0,0,0,0,0,0,0,0,0,0,0,0,0,0,0,0,0,0,0,0,0,0,0,0,0,0,0,0,0,0,0,0,0,0,0,0,0,0,0,0,0,0,0,0,0,0,0,0],"sum_hessian":[1.2539E5,1.04027E5,2.1363E4,9.5139E4,8.888E3,6.852E3,1.4511E4,2.89E3,5.998E3,6.563E3,2.89E2,1.2546E4,1.965E3,8.92E2,1.998E3,5.68E3,3.18E2,2.012E3,4.551E3,1.26E2,1.63E2,1.2526E4,2E1,7.2E2,1.245E3,3.27E2,5.65E2,1.291E3,7.07E2,3.33E2,5.347E3,4E1,2.78E2,1.221E3,7.91E2,2.797E3,1.754E3,4.7E1,7.9E1,4.7E1,1.16E2,1.2268E4,2.58E2,1.1E1,9E0,6.06E2,1.14E2,6.8E2,5.65E2,3.4E1,2.93E2,2E1,5.45E2,9.2E1,1.199E3,1.46E2,5.61E2,2.3E2,1.03E2,2.72E3,2.627E3,3.2E1,8E0,2.29E2,4.9E1,4.4E1,1.177E3,5.4E1,7.37E2,1.561E3,1.236E3,6.89E2,1.065E3,4.2E1,5E0,2E0,7.7E1,4.5E1,2E0,1E2,1.6E1,4.687E3,7.581E3,1.76E2,8.2E1,2E0,9E0,7E0,2E0,3.75E2,2.31E2,5.6E1,5.8E1,1.6E1,6.64E2,1.35E2,4.3E2,1.4E1,2.79E2,2.3E1,5.22E2,1.197E3,2E0,8.8E1,5.8E1,5.58E2,3E0,1.92E2,3.8E1,6E0,9.7E1,2.635E3,8.5E1,2.62E3,7E0,1.33E2,9.6E1,8E0,4.1E1,4.62E2,7.15E2,2E0,5.2E1,3.59E2,3.78E2,1.207E3,3.54E2,1.072E3,1.64E2,5E0,6.84E2,9.69E2,9.6E1,2.2E1,2E1,3E0,2E0,3.7E1,4E1,3.715E3,9.72E2,4.677E3,2.904E3,1.55E2,2.1E1,1.2E1,7E1,3E0,6E0,4.2E1,3.33E2,9.9E1,1.32E2,5E1,6E0,5.4E1,4E0,1.4E1,2E0,5.92E2,7.2E1,1.19E2,1.6E1,1.97E2,2.33E2,2.77E2,2E0,4.52E2,7E1,3E0,8.5E1,5.4E1,4E0,7.2E1,1.2E2,7E0,3.1E1,4E0,2E0,9.4E1,3E0,1.158E3,1.477E3,6E1,2.5E1,5.38E2,2.082E3,4E0,3E0,1.31E2,2E0,2.2E1,7.4E1,5E0,3E0,2.16E2,2.46E2,5.87E2,1.28E2,3.4E1,1.8E1,1.06E2,2.53E2,3E0,3.75E2,2.7E1,1.18E3,2.71E2,8.3E1,4.9E1,1.023E3,2.3E1,1.41E2,4.82E2,2.02E2,1E1,9.59E2,9E1,6E0,1.6E1,6E0,3.4E1,3E0,1.922E3,1.793E3,7.6E1,8.96E2,1.363E3,3.314E3,2.242E3,6.62E2,8E0,1.47E2,1.4E1,7E0,3E0,9E0,2.3E1,1.9E1,3.22E2,1.1E1,6.3E1,3.6E1,2.3E1,1.09E2,2.3E1,2.7E1,3E1,2.4E1,2E0,2E0,2E1,5.72E2,5.9E1,1.3E1,1.01E2,1.8E1,2E0,1.4E1,1.59E2,3.8E1,2.7E1,2.06E2],"tree_param":{"num_deleted":"0","num_feature":"335","num_nodes":"263","size_leaf_vector":"1"}},{"base_weights":[4.5515326E-4,-9.547101E-2,4.6635085E-1,-1.1704398E-1,1.3562593E-1,-2.7449096E-2,8.181756E-1,-9.363818E-3,1.0207891E-4,-6.0451914E-2,3.6182937E-1,-3.4892794E-2,2.9803755E0,1.4667183E0,5.625869E-1,-3.0598663E-2,-1.1414868E-1,8.345735E-1,1.4449002E-1,-4.460667E-2,4.884928E-1,4.190672E0,-2.1178433E-1,1.2861212E0,3.7446668E0,1.4243895E-1,8.1984717E-1,-4.4985775E-2,3.9542198E-1,-1.16119444E-1,1.9883126E-1,1.8098382E0,7.7073705E-1,5.109063E-1,-8.876765E-2,4.2258333E-2,-8.3645225E-2,1.0222677E0,-2.2764376E-1,5.1477146E-1,1.1423702E0,-7.3190224E-3,-2.2330785E-2,1.0323595E0,1.5651178E0,2.4573064E0,4.724218E0,5.771312E-1,-2.808679E-2,9.7328097E-1,5.9607476E-1,1.0461206E-1,-6.977337E-2,6.82775E-1,1.5745218E-1,-1.18440464E-1,7.387592E-2,4.80197E-1,-9.253843E-3,9.8379724E-2,1.5885088E-1,4.9883252E-1,9.4046545E-1,5.328442E-1,3.7978455E-1,2.742702E-2,-1.1706226E-1,-8.570621E-2,1.05546005E-1,-4.6744373E-2,-1.0701476E-1,6.379916E-1,2.7026787E0,-2.9082078E-1,-1.6678888E-1,-1.2510628E-2,2.687269E-1,1.4622756E0,8.2703245E-1,1.6538522E0,5.256094E-1,4.2534968E-1,2.0687606E0,3.8781471E0,6.660662E0,2.723483E-1,8.000003E-1,1.7078473E-1,-1.0312318E-1,7.530322E-1,1.2629601E0,3.0133986E-1,7.676384E-1,-4.644133E-2,1.8839233E-1,-1.3999212E-1,-4.5786526E-2,1.04608156E-1,8.6675227E-1,3.833438E-1,1.0964541E-2,-1.8839115E-2,-1.2019022E-1,5.614744E-1,-9.08726E-3,4.5998886E-2,1.5499671E-2,5.312305E-1,3.8636193E-1,1.2017549E0,7.822467E-1,2.4311285E-1,5.350727E-1,1.9203189E-1,4.780904E-1,-1.2965089E-1,3.427302E-1,1.317381E-2,-9.406979E-3,-9.636384E-2,5.9260803E-1,1.8384104E0,5.732371E-2,1.5670063E-2,-1.092792E-1,-8.98204E-2,-1.4702782E-1,3.407665E-1,2.5953233E0,-6.767234E-2,3.8626308E0,-1.6432272E-2,-3.68739E-1,-2.0127666E-1,-1.0604634E-2,1.2371509E0,1.994709E0,1.0495033E0,4.0055558E-1,1.5498462E0,2.7314372E0,-3.3155257E-1,7.564029E-1,7.069036E-1,2.8330963E0,4.154793E0,8.6219764E-1,6.660074E-1,5.129269E0,5.133617E-1,-2.8990754E-3,9.339927E-1,5.74348E-1,-7.656635E-2,3.859661E-1,1.10045E-1,-1.24270864E-1,9.1413635E-1,6.0205277E-2,1.0581841E0,1.7062602E0,4.4506985E-1,-5.6845147E-2,3.9413086E-1,8.805563E-1,3.1056508E-2,-7.21596E-3,7.007974E-2,1.2252158E-2,-1.474266E-2,-1.0460675E-2,2.2396648E-2,-4.309259E-3,6.343175E-2,-1.7033687E-2,-1.6253728E-2,7.814778E-2,9.311991E-3,4.220551E-2,-1.7060805E-2,2.0873882E-2,7.245484E-2,-9.3778E-3,-1.244987E-2,-9.490327E-3,-7.3306146E-3,9.961005E-2,4.2669162E-2,1.6508894E-2,-1.2048123E-2,3.489557E-2,9.696072E-2,1.5092487E-2,2.9241359E-2,6.873579E-2,3.624215E-2,-1.0602913E-2,4.286513E-2,1.8342752E-2,2.619788E-2,-1.4040347E-2,3.935414E-2,-1.2505805E-2,-1.5464526E-2,-1.023483E-2,3.8518574E-2,-4.5759836E-3,-2.004937E-3,-1.1192488E-2,-1.4016965E-2,9.522997E-2,1.8230672E-1,9.1413036E-2,8.38151E-3,-1.0706946E-2,-3.4220063E-3,1.0435936E-2,4.987422E-4,-9.656471E-3,-7.5680753E-3,7.528807E-2,-1.2046595E-2,-1.0780858E-2,4.5620337E-2,-3.0499285E-2,3.0671763E-1,-1.7691191E-2,4.588134E-2,-4.2531684E-2,3.7575138E-1,-1.6462645E-2,-3.644514E-2,-2.0047197E-2,-1.7002761E-2,-6.231602E-3,1.421957E-1,8.8126525E-2,1.11437015E-1,1.748414E-1,5.4687884E-2,1.247151E-1,1.2729092E-1,2.2013096E-2,1.358066E-1,8.115485E-2,1.569772E-1,2.9153514E-1,-4.5229826E-2,-2.130454E-2,5.345505E-2,2.6617116E-1,1.4897603E-1,-3.4077883E-2,6.853267E-2,2.6870805E-1,2.2407636E-1,4.1763586E-1,-4.7721952E-2,3.571779E-1,-1.7016329E-2,4.4824293E-1,4.309437E-2,2.7007245E-2,-8.733923E-3,4.3931086E-2,8.605611E-2,4.473079E-2,2.676208E-2,7.4750766E-2,-1.02022495E-2,4.8265237E-2,1.3618345E-2,4.0038608E-2,-6.5338835E-3,3.542999E-2,-1.6870392E-2,-9.768846E-3,6.339633E-2,1.1426748E-1,-1.5735158E-3,1.11926556E-1,9.5814206E-2,5.1149707E-2,6.586718E-2,1.4896718E-1,4.299005E-2,2.3916528E-2,-1.0975803E-2,2.0808496E-3,9.249402E-2,2.69353E-2,8.143627E-2,4.0387623E-2],"categories":[],"categories_nodes":[],"categories_segments":[],"categories_sizes":[],"default_left":[0,0,0,0,0,0,0,0,0,0,0,0,0,0,0,0,0,0,0,0,0,0,0,0,0,0,0,0,0,0,0,0,0,0,0,0,0,0,0,0,0,0,0,0,0,0,0,0,0,0,0,0,0,0,0,0,0,0,0,0,0,0,0,0,0,0,0,0,0,0,0,0,0,0,0,0,0,0,0,0,0,0,0,0,0,0,0,0,0,0,0,0,0,0,0,0,0,0,0,0,0,0,0,0,0,0,0,0,0,0,0,0,0,0,0,0,0,0,0,0,0,0,0,0,0,0,0,0,0,0,0,0,0,0,0,0,0,0,0,0,0,0,0,0,0,0,0,0,0,0,0,0,0,0,0,0,0,0,0,0,0,0,0,0,0,0,0,0,0,0,0,0,0,0,0,0,0,0,0,0,0,0,0,0,0,0,0,0,0,0,0,0,0,0,0,0,0,0,0,0,0,0,0,0,0,0,0,0,0,0,0,0,0,0,0,0,0,0,0,0,0,0,0,0,0,0,0,0,0,0,0,0,0,0,0,0,0,0,0,0,0,0,0,0,0,0,0,0,0,0,0,0,0,0,0,0,0,0,0,0,0,0,0,0,0,0,0,0,0,0,0,0,0,0,0,0,0,0,0,0,0,0,0,0,0,0,0,0,0,0,0,0,0],"id":5,"left_children":[1,3,5,7,9,11,13,-1,-1,15,17,19,21,23,25,27,29,31,33,35,37,39,41,43,45,47,49,51,53,55,57,59,61,63,65,67,69,71,73,-1,75,-1,-1,77,79,81,83,85,87,89,91,93,95,97,99,101,103,105,-1,-1,-1,107,109,111,113,115,117,119,121,123,125,127,129,131,133,-1,-1,135,137,139,141,-1,143,145,147,149,151,153,155,157,159,161,163,165,167,169,171,173,175,177,179,181,183,185,-1,-1,-1,187,189,191,193,195,197,199,201,203,205,-1,-1,207,209,211,213,215,217,219,221,223,225,227,229,-1,231,233,-1,235,237,239,241,243,245,247,249,251,253,255,257,-1,259,261,263,265,267,269,271,273,275,277,279,281,283,285,287,289,291,-1,-1,-1,-1,-1,-1,-1,-1,-1,-1,-1,-1,-1,-1,-1,-1,-1,-1,-1,-1,-1,-1,-1,-1,-1,-1,-1,-1,-1,-1,-1,-1,-1,-1,-1,-1,-1,-1,-1,-1,-1,-1,-1,-1,-1,-1,-1,-1,-1,-1,-1,-1,-1,-1,-1,-1,-1,-1,-1,-1,-1,-1,-1,-1,-1,-1,-1,-1,-1,-1,-1,-1,-1,-1,-1,-1,-1,-1,-1,-1,-1,-1,-1,-1,-1,-1,-1,-1,-1,-1,-1,-1,-1,-1,-1,-1,-1,-1,-1,-1,-1,-1,-1,-1,-1,-1,-1,-1,-1,-1,-1,-1,-1,-1,-1,-1,-1,-1,-1,-1,-1,-1,-1,-1,-1,-1,-1,-1],"loss_changes":[5.603029E3,5.183279E2,3.7189092E3,4.23584E-2,3.9374774E2,1.9952583E2,2.0711768E3,0E0,0E0,7.6204853E0,4.2339813E2,4.5199123E1,8.588364E1,1.4486274E3,9.692107E2,1.8760904E1,1.0710487E0,7.941516E1,2.4149643E2,2.9590738E1,6.2158134E1,1.02094055E2,3.1176776E-2,2.3025E2,3.1499927E2,2.5256424E2,1.9038696E2,1.0979776E1,6.730631E0,7.5357056E-1,1.0289439E0,5.614502E0,5.583374E1,2.9589539E0,5.681041E0,2.1923796E1,5.1863785E0,5.8329697E1,2.2061849E-1,0E0,2.3557035E1,0E0,0E0,1.5044421E2,1.4284058E2,1.1566284E2,2.1337085E2,6.499176E1,3.6548138E1,2.0946631E2,1.1430017E2,5.3366265E0,4.270095E0,4.695961E0,1.848855E0,2.8860474E-1,1.983356E0,5.1513433E-2,0E0,0E0,0E0,1.510994E0,3.0065674E1,4.761963E-1,2.879797E0,1.6834143E1,2.2480202E-1,6.5344934E0,1.5122664E2,9.119297E0,2.5220718E0,4.3911743E1,5.4890472E1,1.4389348E-1,1.8180013E-2,0E0,0E0,6.393689E1,1.1011334E2,1.5659521E2,2.4781387E1,0E0,1.04170685E2,8.319006E1,6.690088E1,2.7001179E1,1.6214111E1,3.574376E1,8.028923E0,2.0933899E2,1.27370605E2,4.3012695E1,6.0006287E1,2.9069433E0,6.432555E0,2.4009895E-1,4.9996347E0,2.7914462E0,4.203436E0,7.8559136E-1,2.017288E0,2.834903E0,7.2257996E-2,2.793079E0,0E0,0E0,0E0,1.4159393E-1,2.9823513E0,2.6904907E0,1.4757721E1,7.69729E-1,8.822632E-2,2.894916E0,9.9859047E-1,5.7697296E-5,6.2980337E0,0E0,0E0,2.7379036E0,6.6342483E0,1.2410812E1,1.6003805E1,7.854271E0,1.5411186E0,1.2804228E1,2.7935028E-2,1.1484453E1,3.5733887E1,2.0898771E0,4.1695984E1,0E0,4.997325E-2,7.0578456E-3,0E0,2.6754944E1,1.5671082E1,1.4153394E2,5.9427124E1,1.0197754E2,8.0612976E1,2.6134372E-1,2.0000969E1,5.0528E1,6.466547E1,1.2243677E2,5.5214165E1,0E0,6.4463135E1,7.8383636E-1,1.1265497E1,1.777832E1,1.7733467E1,1.0921756E1,8.78405E0,1.0309528E1,2.7697754E-1,9.409949E1,3.7991837E1,5.6253662E1,6.010498E1,7.8776703E0,1.6014068E0,1.4230415E1,5.6166626E1,0E0,0E0,0E0,0E0,0E0,0E0,0E0,0E0,0E0,0E0,0E0,0E0,0E0,0E0,0E0,0E0,0E0,0E0,0E0,0E0,0E0,0E0,0E0,0E0,0E0,0E0,0E0,0E0,0E0,0E0,0E0,0E0,0E0,0E0,0E0,0E0,0E0,0E0,0E0,0E0,0E0,0E0,0E0,0E0,0E0,0E0,0E0,0E0,0E0,0E0,0E0,0E0,0E0,0E0,0E0,0E0,0E0,0E0,0E0,0E0,0E0,0E0,0E0,0E0,0E0,0E0,0E0,0E0,0E0,0E0,0E0,0E0,0E0,0E0,0E0,0E0,0E0,0E0,0E0,0E0,0E0,0E0,0E0,0E0,0E0,0E0,0E0,0E0,0E0,0E0,0E0,0E0,0E0,0E0,0E0,0E0,0E0,0E0,0E0,0E0,0E0,0E0,0E0,0E0,0E0,0E0,0E0,0E0,0E0,0E0,0E0,0E0,0E0,0E0,0E0,0E0,0E0,0E0,0E0,0E0,0E0,0E0,0E0,0E0,0E0,0E0,0E0,0E0],"parents":[2147483647,0,0,1,1,2,2,3,3,4,4,5,5,6,6,9,9,10,10,11,11,12,12,13,13,14,14,15,15,16,16,17,17,18,18,19,19,20,20,21,21,22,22,23,23,24,24,25,25,26,26,27,27,28,28,29,29,30,30,31,31,32,32,33,33,34,34,35,35,36,36,37,37,38,38,40,40,43,43,44,44,45,45,46,46,47,47,48,48,49,49,50,50,51,51,52,52,53,53,54,54,55,55,56,56,57,57,61,61,62,62,63,63,64,64,65,65,66,66,67,67,68,68,69,69,70,70,71,71,72,72,73,73,74,74,77,77,78,78,79,79,80,80,82,82,83,83,84,84,85,85,86,86,87,87,88,88,89,89,90,90,91,91,92,92,93,93,94,94,95,95,96,96,97,97,98,98,99,99,100,100,101,101,102,102,103,103,107,107,108,108,109,109,110,110,111,111,112,112,113,113,114,114,115,115,116,116,119,119,120,120,121,121,122,122,123,123,124,124,125,125,126,126,127,127,128,128,129,129,130,130,132,132,133,133,135,135,136,136,137,137,138,138,139,139,140,140,141,141,142,142,143,143,144,144,145,145,146,146,148,148,149,149,150,150,151,151,152,152,153,153,154,154,155,155,156,156,157,157,158,158,159,159,160,160,161,161,162,162,163,163,164,164],"right_children":[2,4,6,8,10,12,14,-1,-1,16,18,20,22,24,26,28,30,32,34,36,38,40,42,44,46,48,50,52,54,56,58,60,62,64,66,68,70,72,74,-1,76,-1,-1,78,80,82,84,86,88,90,92,94,96,98,100,102,104,106,-1,-1,-1,108,110,112,114,116,118,120,122,124,126,128,130,132,134,-1,-1,136,138,140,142,-1,144,146,148,150,152,154,156,158,160,162,164,166,168,170,172,174,176,178,180,182,184,186,-1,-1,-1,188,190,192,194,196,198,200,202,204,206,-1,-1,208,210,212,214,216,218,220,222,224,226,228,230,-1,232,234,-1,236,238,240,242,244,246,248,250,252,254,256,258,-1,260,262,264,266,268,270,272,274,276,278,280,282,284,286,288,290,292,-1,-1,-1,-1,-1,-1,-1,-1,-1,-1,-1,-1,-1,-1,-1,-1,-1,-1,-1,-1,-1,-1,-1,-1,-1,-1,-1,-1,-1,-1,-1,-1,-1,-1,-1,-1,-1,-1,-1,-1,-1,-1,-1,-1,-1,-1,-1,-1,-1,-1,-1,-1,-1,-1,-1,-1,-1,-1,-1,-1,-1,-1,-1,-1,-1,-1,-1,-1,-1,-1,-1,-1,-1,-1,-1,-1,-1,-1,-1,-1,-1,-1,-1,-1,-1,-1,-1,-1,-1,-1,-1,-1,-1,-1,-1,-1,-1,-1,-1,-1,-1,-1,-1,-1,-1,-1,-1,-1,-1,-1,-1,-1,-1,-1,-1,-1,-1,-1,-1,-1,-1,-1,-1,-1,-1,-1,-1,-1],"split_conditions":[5E1,1.5E1,1E0,1E1,1E0,4.22E2,3.5E1,-9.363818E-3,1.0207891E-4,5.833E-1,3E1,2.92E2,3.455E-1,2.33E2,2.45E2,7.8E1,2.39E2,1.1E1,4.743E-1,3.5E-1,1.81E2,3E1,1.19E2,9.9E1,4.189E-1,2.05E2,5.5E1,3.947E-1,2.5E1,1E0,2.4E1,3E1,2.9E1,8E0,4E1,1E0,4.655E-1,3.73E2,4E1,5.1477146E-1,6.4E-1,-7.3190224E-3,-2.2330785E-2,9E0,2.71E2,1.2E1,2.22E2,7E1,5E1,1.41E2,1.1E2,1E0,2.22E-2,1E0,1.21E2,9.77E2,2.94E2,1.94E2,-9.253843E-3,9.8379724E-2,1.5885088E-1,4.1E1,7E0,4.795E-1,4.5E1,3.6E1,6E-1,1E0,2E0,1.4E1,1.1E1,1.349E3,1.5E1,3.38E2,6.1E2,-1.2510628E-2,2.687269E-1,6.1E1,1.6E2,1.21E2,2.874E-1,4.2534968E-1,1.57E0,6.3E1,2.4E1,7.1E1,1.4E1,1.95E2,2.6E2,1.66E2,1.35E2,3.37E2,1E0,2.031E-1,2E0,5.333E-1,9E0,2.2E1,2E2,2.167E-1,9.3E1,8.6E1,1.12E2,3E0,-9.08726E-3,4.5998886E-2,1.5499671E-2,1E0,3.3E1,1.3E1,1E0,1E1,1E0,6.3E1,9E0,1.26E2,1.7E1,1.317381E-2,-9.406979E-3,1.5E1,9.3E1,4.5E1,3.73E2,1.25E2,1.1E1,1.93E2,6E1,1E0,5.64E2,1.126E3,3E1,-1.6432272E-2,3.14E2,3.14E2,-1.0604634E-2,2.4E1,1E0,7.7E1,1.2E2,2.5E1,1.85E2,1E1,8E1,5.88E2,2.841E-1,1.63E2,5.667E-1,6.660074E-1,3.2E2,1.12E2,1.11E2,6.5E1,9.9E1,4.9E1,5.667E-1,1.31E2,1E1,1.01E2,1.65E2,2.7E1,2.72E-1,1.4E1,8.4E1,1.63E2,6E0,3.1056508E-2,-7.21596E-3,7.007974E-2,1.2252158E-2,-1.474266E-2,-1.0460675E-2,2.2396648E-2,-4.309259E-3,6.343175E-2,-1.7033687E-2,-1.6253728E-2,7.814778E-2,9.311991E-3,4.220551E-2,-1.7060805E-2,2.0873882E-2,7.245484E-2,-9.3778E-3,-1.244987E-2,-9.490327E-3,-7.3306146E-3,9.961005E-2,4.2669162E-2,1.6508894E-2,-1.2048123E-2,3.489557E-2,9.696072E-2,1.5092487E-2,2.9241359E-2,6.873579E-2,3.624215E-2,-1.0602913E-2,4.286513E-2,1.8342752E-2,2.619788E-2,-1.4040347E-2,3.935414E-2,-1.2505805E-2,-1.5464526E-2,-1.023483E-2,3.8518574E-2,-4.5759836E-3,-2.004937E-3,-1.1192488E-2,-1.4016965E-2,9.522997E-2,1.8230672E-1,9.1413036E-2,8.38151E-3,-1.0706946E-2,-3.4220063E-3,1.0435936E-2,4.987422E-4,-9.656471E-3,-7.5680753E-3,7.528807E-2,-1.2046595E-2,-1.0780858E-2,4.5620337E-2,-3.0499285E-2,3.0671763E-1,-1.7691191E-2,4.588134E-2,-4.2531684E-2,3.7575138E-1,-1.6462645E-2,-3.644514E-2,-2.0047197E-2,-1.7002761E-2,-6.231602E-3,1.421957E-1,8.8126525E-2,1.11437015E-1,1.748414E-1,5.4687884E-2,1.247151E-1,1.2729092E-1,2.2013096E-2,1.358066E-1,8.115485E-2,1.569772E-1,2.9153514E-1,-4.5229826E-2,-2.130454E-2,5.345505E-2,2.6617116E-1,1.4897603E-1,-3.4077883E-2,6.853267E-2,2.6870805E-1,2.2407636E-1,4.1763586E-1,-4.7721952E-2,3.571779E-1,-1.7016329E-2,4.4824293E-1,4.309437E-2,2.7007245E-2,-8.733923E-3,4.3931086E-2,8.605611E-2,4.473079E-2,2.676208E-2,7.4750766E-2,-1.02022495E-2,4.8265237E-2,1.3618345E-2,4.0038608E-2,-6.5338835E-3,3.542999E-2,-1.6870392E-2,-9.768846E-3,6.339633E-2,1.1426748E-1,-1.5735158E-3,1.11926556E-1,9.5814206E-2,5.1149707E-2,6.586718E-2,1.4896718E-1,4.299005E-2,2.3916528E-2,-1.0975803E-2,2.0808496E-3,9.249402E-2,2.69353E-2,8.143627E-2,4.0387623E-2],"split_indices":[23,23,2,23,2,20,28,0,0,21,28,20,14,20,19,20,20,28,21,14,23,28,12,20,21,10,28,14,28,135,8,23,23,8,28,0,14,20,8,0,21,0,0,17,22,17,23,23,28,20,23,0,21,0,10,7,10,9,0,0,0,22,17,14,20,23,21,240,0,17,17,7,17,20,10,0,0,23,10,23,21,0,3,8,28,9,8,19,10,22,23,10,0,14,0,14,9,12,19,21,20,9,22,0,0,0,0,202,20,8,0,9,114,22,17,10,17,0,0,8,23,28,10,20,8,20,28,164,30,7,28,0,9,9,0,28,0,20,19,8,20,17,12,30,21,23,21,0,20,10,20,28,20,12,21,20,17,23,23,8,21,8,23,10,0,0,0,0,0,0,0,0,0,0,0,0,0,0,0,0,0,0,0,0,0,0,0,0,0,0,0,0,0,0,0,0,0,0,0,0,0,0,0,0,0,0,0,0,0,0,0,0,0,0,0,0,0,0,0,0,0,0,0,0,0,0,0,0,0,0,0,0,0,0,0,0,0,0,0,0,0,0,0,0,0,0,0,0,0,0,0,0,0,0,0,0,0,0,0,0,0,0,0,0,0,0,0,0,0,0,0,0,0,0,0,0,0,0,0,0,0,0,0,0,0,0,0,0,0,0,0,0,0],"split_type":[0,0,0,0,0,0,0,0,0,0,0,0,0,0,0,0,0,0,0,0,0,0,0,0,0,0,0,0,0,0,0,0,0,0,0,0,0,0,0,0,0,0,0,0,0,0,0,0,0,0,0,0,0,0,0,0,0,0,0,0,0,0,0,0,0,0,0,0,0,0,0,0,0,0,0,0,0,0,0,0,0,0,0,0,0,0,0,0,0,0,0,0,0,0,0,0,0,0,0,0,0,0,0,0,0,0,0,0,0,0,0,0,0,0,0,0,0,0,0,0,0,0,0,0,0,0,0,0,0,0,0,0,0,0,0,0,0,0,0,0,0,0,0,0,0,0,0,0,0,0,0,0,0,0,0,0,0,0,0,0,0,0,0,0,0,0,0,0,0,0,0,0,0,0,0,0,0,0,0,0,0,0,0,0,0,0,0,0,0,0,0,0,0,0,0,0,0,0,0,0,0,0,0,0,0,0,0,0,0,0,0,0,0,0,0,0,0,0,0,0,0,0,0,0,0,0,0,0,0,0,0,0,0,0,0,0,0,0,0,0,0,0,0,0,0,0,0,0,0,0,0,0,0,0,0,0,0,0,0,0,0,0,0,0,0,0,0,0,0,0,0,0,0,0,0,0,0,0,0,0,0,0,0,0,0,0,0,0,0,0,0,0,0],"sum_hessian":[1.25369E5,1.03964E5,2.1405E4,9.5088E4,8.876E3,8.906E3,1.2499E4,9.5085E4,3E0,4.755E3,4.121E3,8.885E3,2.1E1,3.532E3,8.967E3,3.057E3,1.698E3,1.297E3,2.824E3,8.724E3,1.61E2,1.5E1,6E0,3.274E3,2.58E2,3.406E3,5.561E3,2.958E3,9.9E1,1.688E3,1E1,7.8E1,1.219E3,1.098E3,1.726E3,2.705E3,6.019E3,9.2E1,6.9E1,8E0,7E0,3E0,3E0,1.717E3,1.557E3,1.13E2,1.45E2,9.59E2,2.447E3,3.297E3,2.264E3,4.2E2,2.538E3,4.4E1,5.5E1,1.668E3,2E1,5E0,5E0,2E1,5.8E1,4.7E2,7.49E2,9.38E2,1.6E2,3.38E2,1.388E3,8.95E2,1.81E3,2.335E3,3.684E3,7.6E1,1.6E1,3.2E1,3.7E1,5E0,2E0,5.53E2,1.164E3,1.434E3,1.23E2,1.2E1,1.01E2,1.03E2,4.2E1,4.06E2,5.53E2,6.7E2,1.777E3,1.875E3,1.422E3,8.34E2,1.43E3,1.5E2,2.7E2,6.45E2,1.893E3,1.1E1,3.3E1,2.1E1,3.4E1,2.9E1,1.639E3,5E0,1.5E1,3E0,2E0,3.62E2,1.08E2,2.8E2,4.69E2,8E0,9.3E2,5.6E1,1.04E2,2.26E2,1.12E2,2E0,1.386E3,8.82E2,1.3E1,4.8E1,1.762E3,1.169E3,1.166E3,2.579E3,1.105E3,6.7E1,9E0,5E0,1.1E1,1.7E1,1.5E1,1.6E1,2.1E1,3.91E2,1.62E2,7.64E2,4E2,1.31E3,1.24E2,2.6E1,9.7E1,3.7E1,6.4E1,9.4E1,9E0,1.8E1,2.4E1,2.16E2,1.9E2,3.45E2,2.08E2,3.12E2,3.58E2,1.6E2,1.617E3,1.521E3,3.54E2,9.75E2,4.47E2,5.95E2,2.39E2,3.33E2,1.097E3,1.3E1,1.37E2,1.2E1,2.58E2,1.08E2,5.37E2,4.5E1,1.848E3,3E0,8E0,3E0,3E1,8E0,1.3E1,1.8E1,1.6E1,2E0,2.7E1,6.5E1,1.574E3,3E0,2E0,3.59E2,3E0,9E0,9.9E1,2.77E2,3E0,7.4E1,3.95E2,5E0,3E0,9.27E2,3E0,4.1E1,1.5E1,1.02E2,2E0,3E0,2.23E2,8.3E1,2.9E1,3.35E2,5.47E2,6E0,7E0,2.8E1,2E1,1.412E3,3.5E2,7.75E2,3.94E2,1.05E2,1.061E3,2.568E3,1.1E1,8.48E2,2.57E2,5.1E1,1.6E1,6E0,3E0,2E0,3E0,9E0,2E0,7E0,8E0,1.4E1,2E0,7.6E1,3.15E2,4.1E1,1.21E2,4.46E2,3.18E2,3.7E1,3.63E2,1.025E3,2.85E2,6.9E1,5.5E1,4E0,2.2E1,9.5E1,2E0,1.8E1,1.9E1,1.4E1,5E1,4.3E1,5.1E1,7E0,2E0,2E0,2.2E1,1.87E2,2.9E1,1.6E2,3E1,2.49E2,9.6E1,1.26E2,8.2E1,2.91E2,2.1E1,1.25E2,2.33E2,1.02E2,5.8E1,3.7E1,1.58E3,1.232E3,2.89E2,3.35E2,1.9E1,7.3E2,2.45E2,6.8E1,3.79E2,3.63E2,2.32E2,1.21E2,1.18E2,2.2E1,3.11E2,8.02E2,2.95E2],"tree_param":{"num_deleted":"0","num_feature":"335","num_nodes":"293","size_leaf_vector":"1"}},{"base_weights":[3.1924358E-4,-8.043727E-2,4.730516E-1,-1.0768056E-1,1.3720237E-1,1.3447843E0,4.4895716E-2,-8.614721E-3,9.595394E-5,5.052749E-1,-3.385733E-2,2.5012956E0,1.1349468E0,3.4739688E-1,-3.8260573E-3,8.9857787E-1,2.6884592E-1,-6.433409E-2,3.8875622E-1,2.1926274E0,5.644053E0,9.2609006E-1,1.6594012E0,3.2360128E-1,3.669662E0,-3.0964173E-2,1.5627538E-1,4.4227073E-1,1.1323467E0,4.6097282E-1,-3.8556974E-2,5.662142E-2,-7.505408E-2,1.5031269E0,2.509468E-1,1.8596455E0,2.8626819E0,5.070777E0,6.0301673E-1,1.0598412E0,4.041877E-1,2.6238217E0,1.4275777E0,6.9556676E-2,6.4498E-1,4.467144E0,-1.6946554E-2,3.3348247E-2,-7.1356714E-2,-4.451819E-2,3.7956384E-1,-9.185321E-3,5.099065E-1,-9.471535E-3,1.1838976E0,-9.182335E-3,4.990744E-1,1.9393958E-1,-1.08250864E-1,1.1769499E-1,-8.5859634E-2,-3.874824E-2,-9.8241076E-2,9.186851E-2,1.3540986E-1,6.272516E-2,7.376474E-1,-2.0688464E-1,1.9085999E0,2.9288106E0,2.6473323E-1,4.6315187E-1,2.988428E0,-1.8297839E-1,1.0883604E0,4.512867E-1,-1.0883861E-2,2.40185E0,4.269043E0,1.7503327E0,1.1442416E0,2.9393878E-2,1.3838385E0,1.8436223E0,5.6722516E-1,6.067416E-2,4.758598E-1,1.3764393E-2,4.5399648E-1,-1.7315119E-3,-9.8908596E-2,-1.1005243E-1,4.921769E-1,9.098513E-1,1.2338547E-1,8.6056784E-2,4.9108982E-1,1.4041598E0,1.0551387E0,3.9962757E-2,9.918909E-3,-1.10523246E-1,4.2769286E-1,-1.1644819E-1,7.240916E-2,7.545642E-2,1.2138216E0,2.5478297E-1,-1.108165E-1,9.318524E-2,-6.1298363E-2,-1.0185324E-1,-2.092575E-2,-7.1077645E-2,2.984807E-1,8.971961E-2,3.5971248E-1,-8.064991E-3,-4.4976972E-2,2.5079896E0,1.7739884E0,2.5789883E0,3.6152E0,-1.0508309E-1,2.666426E-1,1.7183712E-1,5.0212364E0,-1.2688553E-1,-2.5457278E-1,9.309944E-1,1.2774055E0,-8.631303E-3,4.7402975E-1,-1.658981E-1,3.768392E-2,2.1224966E0,2.9253125E0,-6.54122E-3,3.649458E-1,1.7038951E0,2.44299E0,9.927286E-1,1.8320674E0,5.0483507E-1,-3.1970646E-2,3.8805892E0,-2.1883358E-1,2.002692E0,-2.3001142E-2,3.850328E-1,1.0561591E0,3.071251E-3,5.6840116E-1,1.8313408E-1,3.7756264E-1,-4.8365556E-2,2.8549966E-1,-1.12557165E-1,2.0041903E-2,6.9402695E-2,-1.1398377E-1,9.550953E-1,-1.7171326E-1,7.226188E-1,1.8370867E0,8.9321995E-1,5.6328187E-3,3.988564E-2,2.4620382E-2,9.062308E-2,1.3553943E-1,2.2180755E-2,8.570499E-2,-1.4536655E-2,-8.486566E-3,3.6538217E-2,-8.168967E-3,-8.461549E-3,-1.5510598E-2,3.105208E-2,-1.17948605E-2,-3.8527267E-3,1.5572414E-2,4.8406515E-2,1.528038E-1,-6.320321E-3,6.437144E-2,-9.2885E-3,1.8352116E-2,-4.6960837E-3,1.3875472E-2,-5.4582763E-3,1.13240285E-2,-8.245652E-3,9.309026E-3,-7.684776E-3,3.0839609E-2,4.572234E-3,-2.4832586E-2,-5.3265993E-3,3.287313E-2,3.879488E-2,-1.0541556E-2,2.0470384E-1,8.3282486E-2,1.304793E-1,1.7661217E-1,2.1117967E-1,1.1945712E-1,3.4177697E-1,2.3933406E-1,2.3290989E-1,-1.3465281E-1,4.924878E-1,1.19696416E-1,-8.527207E-3,-1.3093422E-2,-2.1318048E-2,-5.324577E-3,8.220034E-2,3.6121752E-2,1.3216801E-1,8.641066E-2,3.8426585E-2,-1.344987E-2,-1.9915812E-2,-9.354025E-3,1.7891948E-1,3.7852876E-2,2.5031123E-1,1.9117847E-2,-1.5241596E-2,1.3722938E-1,2.0460337E-1,1.05031945E-1,8.532198E-2,5.3689364E-2,1.3533495E-1,1.9441259E-1,2.175987E-2,2.6351842E-1,-3.3477305E-3,2.1214291E-1,3.4344256E-1,1.0797843E-1,-2.7092068E-2,-8.943983E-3,4.9699683E-2,1.7725408E-1,1.2830617E-2,6.1543893E-2,2.0141241E-1,5.679208E-2,-6.921617E-3,3.989408E-3,-2.1538015E-2,5.1620167E-2,1.8580489E-2,7.806663E-2,-6.423572E-3,1.0167516E-2,6.7627385E-2,8.924083E-3,-5.8923215E-3,-1.0100363E-2,5.246581E-2,-2.262131E-3,-1.0625286E-2,1.787814E-3,1.17196985E-1,2.3936825E-2,-1.8509772E-2,-1.0705767E-2,1.19953714E-1,3.656776E-2,8.0234945E-2,1.853313E-1,1.3711661E-1,3.467585E-2,-1.0528371E-2,5.1150326E-2],"categories":[],"categories_nodes":[],"categories_segments":[],"categories_sizes":[],"default_left":[0,0,0,0,0,0,0,0,0,0,0,0,0,0,0,0,0,0,0,0,0,0,0,0,0,0,0,0,0,0,0,0,0,0,0,0,0,0,0,0,0,0,0,0,0,0,0,0,0,0,0,0,0,0,0,0,0,0,0,0,0,0,0,0,0,0,0,0,0,0,0,0,0,0,0,0,0,0,0,0,0,0,0,0,0,0,0,0,0,0,0,0,0,0,0,0,0,0,0,0,0,0,0,0,0,0,0,0,0,0,0,0,0,0,0,0,0,0,0,0,0,0,0,0,0,0,0,0,0,0,0,0,0,0,0,0,0,0,0,0,0,0,0,0,0,0,0,0,0,0,0,0,0,0,0,0,0,0,0,0,0,0,0,0,0,0,0,0,0,0,0,0,0,0,0,0,0,0,0,0,0,0,0,0,0,0,0,0,0,0,0,0,0,0,0,0,0,0,0,0,0,0,0,0,0,0,0,0,0,0,0,0,0,0,0,0,0,0,0,0,0,0,0,0,0,0,0,0,0,0,0,0,0,0,0,0,0,0,0,0,0,0,0,0,0,0,0,0,0,0,0,0,0,0,0,0,0,0,0,0,0,0,0,0,0,0,0,0,0,0,0,0,0,0,0,0,0,0,0,0,0],"id":6,"left_children":[1,3,5,7,9,11,13,-1,-1,15,17,19,21,23,25,27,29,31,33,35,37,39,41,43,45,47,49,51,53,55,57,59,61,63,65,67,69,71,-1,73,75,77,79,81,83,85,-1,87,89,91,93,-1,95,-1,97,-1,99,101,103,105,107,109,111,-1,-1,113,115,117,119,121,123,-1,125,127,129,131,133,135,137,139,141,143,145,147,149,-1,-1,151,153,155,157,159,161,163,165,-1,167,169,171,-1,-1,173,175,177,179,181,183,185,187,189,191,193,195,197,199,-1,201,-1,-1,203,205,207,209,-1,-1,211,213,215,217,219,221,-1,223,225,-1,227,229,-1,-1,231,233,235,237,239,241,243,245,247,-1,249,251,253,255,-1,257,259,261,263,265,-1,267,269,271,273,275,277,279,-1,-1,-1,-1,-1,-1,-1,-1,-1,-1,-1,-1,-1,-1,-1,-1,-1,-1,-1,-1,-1,-1,-1,-1,-1,-1,-1,-1,-1,-1,-1,-1,-1,-1,-1,-1,-1,-1,-1,-1,-1,-1,-1,-1,-1,-1,-1,-1,-1,-1,-1,-1,-1,-1,-1,-1,-1,-1,-1,-1,-1,-1,-1,-1,-1,-1,-1,-1,-1,-1,-1,-1,-1,-1,-1,-1,-1,-1,-1,-1,-1,-1,-1,-1,-1,-1,-1,-1,-1,-1,-1,-1,-1,-1,-1,-1,-1,-1,-1,-1,-1,-1,-1,-1,-1,-1,-1,-1,-1,-1,-1,-1,-1,-1],"loss_changes":[4.783785E3,6.345896E2,6.823841E3,3.5888672E-2,7.4971014E2,1.4585762E3,1.8072351E2,0E0,0E0,3.5106793E2,1.04738525E2,8.8396826E2,5.569863E2,1.3328558E2,4.589516E1,1.5075781E2,1.3945929E2,9.837982E0,8.362602E1,1.8276294E2,5.0796143E1,2.5429004E2,3.2066162E2,1.379344E2,3.809134E1,2.3465187E1,6.86591E1,1.8219818E1,6.055493E1,3.1931824E1,1.4750055E1,5.387834E0,5.8611755E0,2.0899353E0,4.4658234E1,5.7654663E1,4.6985107E1,8.146265E1,0E0,1.0312915E2,1.45887985E1,9.2000244E1,1.0517456E2,4.984137E1,6.84816E1,5.0418625E1,0E0,2.8702883E1,1.0642584E1,2.843789E1,9.837767E1,0E0,4.0497284E0,0E0,2.404309E1,0E0,1.7327881E-1,1.49928E1,1.045083E0,1.99558E1,1.609489E0,8.089104E0,1.1850662E0,0E0,0E0,1.1156511E1,1.9326035E1,4.7098756E-1,4.0169434E1,5.5747314E1,4.3118954E1,0E0,1.07923355E2,2.3274994E-1,8.326904E1,8.571808E0,5.830543E0,3.0202637E1,4.1135498E1,1.3399658E1,6.3523804E1,2.6798996E1,1.1289043E2,1.5830765E1,6.212755E1,0E0,0E0,1.9753778E1,2.087751E1,2.1097147E1,6.4556885E0,2.8660097E0,2.7208778E1,3.964412E1,4.4413494E1,0E0,4.1984558E-1,2.3979736E1,6.899414E0,0E0,0E0,9.809256E-3,1.8771935E0,5.3352165E-1,2.209069E0,6.1685276E0,5.625395E0,2.4495397E0,3.3977747E-1,4.8496566E0,3.2724276E0,1.0908356E0,5.8694086E0,6.9535418E0,5.2811604E0,0E0,4.372056E0,0E0,0E0,4.715027E0,2.4615112E1,8.130615E0,2.3678955E1,0E0,0E0,5.06368E1,3.4793854E1,1.1668563E-2,4.4925928E-2,7.139929E1,9.334668E1,0E0,2.6871796E0,2.1085453E-1,0E0,3.0152954E1,4.5190125E1,0E0,0E0,1.1519287E1,7.847595E-1,1.1530884E1,5.29245E0,6.7292656E1,2.1685837E1,5.6877594E0,1.9297987E-1,1.0981003E1,0E0,4.416153E1,9.436313E1,1.3709769E1,4.2291794E0,0E0,1.281324E1,7.6012716E0,2.133015E1,1.8909149E0,1.2613745E1,0E0,1.8463869E0,1.6951202E1,5.2677393E-2,4.01537E1,1.3277344E1,2.3784973E1,3.7134956E1,0E0,0E0,0E0,0E0,0E0,0E0,0E0,0E0,0E0,0E0,0E0,0E0,0E0,0E0,0E0,0E0,0E0,0E0,0E0,0E0,0E0,0E0,0E0,0E0,0E0,0E0,0E0,0E0,0E0,0E0,0E0,0E0,0E0,0E0,0E0,0E0,0E0,0E0,0E0,0E0,0E0,0E0,0E0,0E0,0E0,0E0,0E0,0E0,0E0,0E0,0E0,0E0,0E0,0E0,0E0,0E0,0E0,0E0,0E0,0E0,0E0,0E0,0E0,0E0,0E0,0E0,0E0,0E0,0E0,0E0,0E0,0E0,0E0,0E0,0E0,0E0,0E0,0E0,0E0,0E0,0E0,0E0,0E0,0E0,0E0,0E0,0E0,0E0,0E0,0E0,0E0,0E0,0E0,0E0,0E0,0E0,0E0,0E0,0E0,0E0,0E0,0E0,0E0,0E0,0E0,0E0,0E0,0E0,0E0,0E0,0E0,0E0,0E0,0E0],"parents":[2147483647,0,0,1,1,2,2,3,3,4,4,5,5,6,6,9,9,10,10,11,11,12,12,13,13,14,14,15,15,16,16,17,17,18,18,19,19,20,20,21,21,22,22,23,23,24,24,25,25,26,26,27,27,28,28,29,29,30,30,31,31,32,32,33,33,34,34,35,35,36,36,37,37,39,39,40,40,41,41,42,42,43,43,44,44,45,45,47,47,48,48,49,49,50,50,52,52,54,54,56,56,57,57,58,58,59,59,60,60,61,61,62,62,65,65,66,66,67,67,68,68,69,69,70,70,72,72,73,73,74,74,75,75,76,76,77,77,78,78,79,79,80,80,81,81,82,82,83,83,84,84,87,87,88,88,89,89,90,90,91,91,92,92,93,93,94,94,96,96,97,97,98,98,101,101,102,102,103,103,104,104,105,105,106,106,107,107,108,108,109,109,110,110,111,111,112,112,113,113,114,114,116,116,119,119,120,120,121,121,122,122,125,125,126,126,127,127,128,128,129,129,130,130,132,132,133,133,135,135,136,136,139,139,140,140,141,141,142,142,143,143,144,144,145,145,146,146,147,147,149,149,150,150,151,151,152,152,154,154,155,155,156,156,157,157,158,158,160,160,161,161,162,162,163,163,164,164,165,165,166,166],"right_children":[2,4,6,8,10,12,14,-1,-1,16,18,20,22,24,26,28,30,32,34,36,38,40,42,44,46,48,50,52,54,56,58,60,62,64,66,68,70,72,-1,74,76,78,80,82,84,86,-1,88,90,92,94,-1,96,-1,98,-1,100,102,104,106,108,110,112,-1,-1,114,116,118,120,122,124,-1,126,128,130,132,134,136,138,140,142,144,146,148,150,-1,-1,152,154,156,158,160,162,164,166,-1,168,170,172,-1,-1,174,176,178,180,182,184,186,188,190,192,194,196,198,200,-1,202,-1,-1,204,206,208,210,-1,-1,212,214,216,218,220,222,-1,224,226,-1,228,230,-1,-1,232,234,236,238,240,242,244,246,248,-1,250,252,254,256,-1,258,260,262,264,266,-1,268,270,272,274,276,278,280,-1,-1,-1,-1,-1,-1,-1,-1,-1,-1,-1,-1,-1,-1,-1,-1,-1,-1,-1,-1,-1,-1,-1,-1,-1,-1,-1,-1,-1,-1,-1,-1,-1,-1,-1,-1,-1,-1,-1,-1,-1,-1,-1,-1,-1,-1,-1,-1,-1,-1,-1,-1,-1,-1,-1,-1,-1,-1,-1,-1,-1,-1,-1,-1,-1,-1,-1,-1,-1,-1,-1,-1,-1,-1,-1,-1,-1,-1,-1,-1,-1,-1,-1,-1,-1,-1,-1,-1,-1,-1,-1,-1,-1,-1,-1,-1,-1,-1,-1,-1,-1,-1,-1,-1,-1,-1,-1,-1,-1,-1,-1,-1,-1,-1],"split_conditions":[6E1,1.5E1,1E0,1E1,1E0,3E1,3E1,-8.614721E-3,9.595394E-5,3E1,8.07E-1,1.76E2,1.2E2,4.22E2,1.35E2,2.9E1,5.111E-1,1.1E1,1.2E2,9E1,2.3E2,6E1,4E1,1E0,3.8E1,4.5E1,7.692E-1,1E0,1E0,1E0,4E1,4.286E-1,6E0,3E1,4E1,1E0,5E1,6.1E2,6.0301673E-1,1E0,7.175E-1,2.09E2,6E1,3.73E2,8E0,2.281E-1,-1.6946554E-2,2.02E2,1E1,2.92E2,2.5E1,-9.185321E-3,1.1E1,-9.471535E-3,2E1,-9.182335E-3,9E0,3.6E1,5.7E1,9.8E1,6E1,4.714E-1,1E0,9.186851E-2,1.3540986E-1,5.521E-1,2.4E1,4.417E-1,2E1,1.01E2,3.38E2,4.6315187E-1,4.857E-1,8.4E1,8.9E1,1E0,6.8E1,1.48E2,1E0,1.66E2,1.79E2,2.545E-1,6.1E2,1.6E1,1.02E2,6.067416E-2,4.758598E-1,5E1,2.82E2,2.3E1,1.93E2,1.818E-1,2.09E2,4.519E-1,3.8E1,8.6056784E-2,1.5E1,3.7E1,4E1,3.9962757E-2,9.918909E-3,1.26E2,3E1,5E1,7.3E1,1.528E-1,2.958E-1,7.7E1,1E0,1E0,1E0,1E0,4.9E1,6.2E1,2.4E1,8.971961E-2,2.16E2,-8.064991E-3,-4.4976972E-2,2.5E1,8E1,2.12E2,3E0,-1.0508309E-1,2.666426E-1,4.37E2,1.5E1,5.833E-1,5.9E1,4.5E1,4E1,-8.631303E-3,1.6E1,1.57E2,3.768392E-2,2.92E2,4.4E1,-6.54122E-3,3.649458E-1,1E0,6E0,2.77E2,2.33E2,2.56E2,3.4E-1,5.82E2,4E1,6.73E-2,-2.3001142E-2,4.333E-1,1.34E2,1E0,2.067E-1,1.8313408E-1,2.4E2,1E2,1.2E1,2.57E2,2.9E2,6.9402695E-2,2.51E2,3.103E-1,2.9E1,2.29E2,2.36E0,4E1,1.96E2,3.988564E-2,2.4620382E-2,9.062308E-2,1.3553943E-1,2.2180755E-2,8.570499E-2,-1.4536655E-2,-8.486566E-3,3.6538217E-2,-8.168967E-3,-8.461549E-3,-1.5510598E-2,3.105208E-2,-1.17948605E-2,-3.8527267E-3,1.5572414E-2,4.8406515E-2,1.528038E-1,-6.320321E-3,6.437144E-2,-9.2885E-3,1.8352116E-2,-4.6960837E-3,1.3875472E-2,-5.4582763E-3,1.13240285E-2,