{"learner":{"attributes":{"best_iteration":"87","best_score":"0.01932324982907584"},"feature_names":[],"feature_types":[],"gradient_booster":{"model":{"gbtree_model_param":{"num_parallel_tree":"1","num_trees":"138"},"iteration_indptr":[0,1,2,3,4,5,6,7,8,9,10,11,12,13,14,15,16,17,18,19,20,21,22,23,24,25,26,27,28,29,30,31,32,33,34,35,36,37,38,39,40,41,42,43,44,45,46,47,48,49,50,51,52,53,54,55,56,57,58,59,60,61,62,63,64,65,66,67,68,69,70,71,72,73,74,75,76,77,78,79,80,81,82,83,84,85,86,87,88,89,90,91,92,93,94,95,96,97,98,99,100,101,102,103,104,105,106,107,108,109,110,111,112,113,114,115,116,117,118,119,120,121,122,123,124,125,126,127,128,129,130,131,132,133,134,135,136,137,138],"tree_info":[0,0,0,0,0,0,0,0,0,0,0,0,0,0,0,0,0,0,0,0,0,0,0,0,0,0,0,0,0,0,0,0,0,0,0,0,0,0,0,0,0,0,0,0,0,0,0,0,0,0,0,0,0,0,0,0,0,0,0,0,0,0,0,0,0,0,0,0,0,0,0,0,0,0,0,0,0,0,0,0,0,0,0,0,0,0,0,0,0,0,0,0,0,0,0,0,0,0,0,0,0,0,0,0,0,0,0,0,0,0,0,0,0,0,0,0,0,0,0,0,0,0,0,0,0,0,0,0,0,0,0,0,0,0,0,0,0,0],"trees":[{"base_weights":[-8.4639236E-4,-1.1901418E-1,6.210199E-1,-1.2164598E-2,1.9645931E-1,1.8572226E0,4.070457E-2,7.105525E-1,-5.4697827E-2,2.8300984E0,1.461696E0,5.6614983E-3,5.6408185E-1,9.802019E-1,2.4703717E-2,4.0222025E-3,-1.2085015E-1,1.9945842E0,3.6393242E0,6.696436E-1,1.7077304E0,5.4306008E-2,-1.4217268E-1,4.6294948E-1,3.3196762E0,-1.2097887E-2,1.0749059E0,9.5517224E-1,-9.333705E-2,-2.7983734E-2,2.1600987E-1,-1.6937995E-2,-1.5158439E-1,2.7182553E0,1.7000275E0,3.1638947E0,4.499917E0,7.622657E-1,-1.2054138E-2,1.458234E0,2.1374931E0,-2.7020028E-2,2.8676125E-1,2.517424E-1,-1.4719017E-1,8.758435E-1,1.889733E-1,4.169945E0,2.1914115E0,1.4921253E0,7.9485846E-1,7.013471E-1,1.5302655E0,-1.28817E-1,6.017424E-1,5.0726414E-2,-8.911095E-2,9.7349316E-1,1.2648302E-1,1.0015881E-1,-9.771152E-2,-9.142439E-2,-1.2159676E-2,-9.731781E-3,2.7629294E0,-1.1678138E-2,1.7712616E0,3.8286045E0,2.8311155E0,-9.123544E-3,4.5425954E0,-1.1888254E-2,8.048155E-1,1.7039783E0,1.1091216E0,2.7037067E0,1.7517085E0,5.2825615E-2,-1.1896264E-1,8.2038754E-1,1.7485376E-1,-1.05976716E-1,6.359557E-2,-1.4814915E-1,4.7835273E-1,7.2511446E-1,2.4049084E0,1.0251596E0,1.0326699E-1,4.9526734E0,1.6319606E-1,-8.109817E-3,2.5519454E0,8.542892E-1,1.8972844E0,2.636183E-1,8.380594E-1,-1.0137272E-2,7.631882E-1,1.404435E-1,1.0272791E0,4.091283E-1,-1.4788416E-1,1.4451657E-1,6.532285E-2,1.4926095E-1,-9.1892004E-2,-4.8638087E-2,-1.19549416E-1,1.3094283E0,1.2474486E-1,6.857905E-2,1.1154218E0,5.340233E-1,5.9615213E-2,3.669483E-1,-1.0635011E-1,1.8556848E-2,-1.14491545E-2,2.7740273E0,7.189018E-2,1.4288092E-1,1.4196762E0,-1.0426909E-2,3.9523556E0,-9.123544E-3,2.853268E0,4.30166E0,4.2689312E-1,8.182747E-1,1.5554388E-1,-1.1696852E-2,1.7408338E0,8.15431E-1,1.5539188E0,-9.731781E-3,2.726193E0,1.6454479E0,2.457756E0,-7.490033E-2,1.19093284E-1,-1.0592607E-1,-1.489007E-1,5.4024297E-1,1.601499E0,1.1159022E-1,1.0519414E0,-1.1635825E-2,1.8556848E-2,-1.4910203E-1,7.3088E-2,-8.109817E-3,7.189018E-2,1.9792767E0,6.1383283E-1,1.4003073E0,3.8935584E-1,4.5402327E-1,1.6275799E0,-4.3437257E-2,3.8096693E-1,9.8556854E-2,4.5140913E-1,7.189018E-2,2.2166842E-1,7.241623E-2,9.23374E-3,2.353207E-1,1.4770174E-1,6.3728735E-2,-3.2246523E-3,6.737491E-2,2.1051746E-2,-8.109817E-3,6.3240714E-2,2.2268219E-2,1.0935587E-1,-1.1058842E-2,5.913908E-2,1.2430235E-2,-1.2041676E-2,-3.7861147E-3,5.0876454E-2,6.9709886E-3,3.5013746E-2,-7.90117E-3,5.4268215E-2,1.0113976E-2,-5.0643417E-3,-9.7801E-3,8.849001E-3,2.4742464E-2,1.2754507E-1,5.4268215E-2,-1.1058842E-2,-8.3283946E-4,5.0124347E-2,1.1985024E-1,5.6463327E-2,-1.0644135E-2,6.406665E-2,-7.96198E-3,8.3668595E-3,-8.109817E-3,4.3196063E-2,-9.088165E-3,6.108401E-4,2.2282405E-1,7.189018E-2,-9.123544E-3,1.2754507E-1,3.0205578E-1,3.8290745E-1,2.3111488E-1,1.0530479E-1,3.9211497E-1,3.028505E-1,6.57131E-2,2.3858806E-2,5.814452E-2,-1.1295817E-2,1.4267091E-1,1.1779125E-1,-1.1150999E-2,6.681699E-2,1.3871084E-1,6.581013E-2,2.0824912E-1,2.5979403E-1,1.3829881E-1,9.980277E-2,2.1948107E-1,1.6145824E-1,-6.5521467E-3,4.584704E-2,1.280692E-1,7.007586E-3,-1.0004562E-2,-5.6712725E-3,-1.2065837E-2,-9.595103E-3,1.0248964E-1,1.788958E-2,2.3859556E-1,1.0877573E-1,1.3300552E-4,2.539474E-2,1.549026E-1,4.7097936E-2,-7.2430787E-3,-1.2080559E-2,7.189018E-2,-1.1150999E-2,1.7384274E-1,-8.109817E-3,2.6226822E-1,4.5022693E-2,2.638588E-1,3.859557E-2,1.038588E-1,9.528154E-3,1.6529394E-2,1.626685E-1,-8.117938E-3,2.924513E-2,1.2161914E-1,1.1313464E-2],"categories":[],"categories_nodes":[],"categories_segments":[],"categories_sizes":[],"default_left":[0,0,0,0,0,0,0,0,0,0,0,0,0,0,0,0,0,0,0,0,0,0,0,0,0,0,0,0,0,0,0,0,0,0,0,0,0,0,0,0,0,0,0,0,0,0,0,0,0,0,0,0,0,0,0,0,0,0,0,0,0,0,0,0,0,0,0,0,0,0,0,0,0,0,0,0,0,0,0,0,0,0,0,0,0,0,0,0,0,0,0,0,0,0,0,0,0,0,0,0,0,0,0,0,0,0,0,0,0,0,0,0,0,0,0,0,0,0,0,0,0,0,0,0,0,0,0,0,0,0,0,0,0,0,0,0,0,0,0,0,0,0,0,0,0,0,0,0,0,0,0,0,0,0,0,0,0,0,0,0,0,0,0,0,0,0,0,0,0,0,0,0,0,0,0,0,0,0,0,0,0,0,0,0,0,0,0,0,0,0,0,0,0,0,0,0,0,0,0,0,0,0,0,0,0,0,0,0,0,0,0,0,0,0,0,0,0,0,0,0,0,0,0,0,0,0,0,0,0,0,0,0,0,0,0,0,0,0,0,0,0,0,0,0,0,0,0,0,0,0,0,0,0,0,0,0,0,0,0,0,0,0,0,0,0,0,0],"id":0,"left_children":[1,3,5,-1,7,9,11,13,15,17,19,21,23,25,27,29,31,33,35,37,39,41,43,45,47,-1,49,51,53,55,57,59,61,63,65,67,69,71,-1,73,75,77,79,81,83,85,87,89,91,93,95,97,99,101,103,105,107,109,111,113,115,117,-1,-1,119,-1,121,123,125,-1,127,-1,129,131,133,135,137,139,141,143,145,147,-1,149,151,153,155,157,159,161,-1,-1,163,165,167,169,171,-1,173,-1,175,177,179,181,-1,183,185,187,189,191,193,195,197,199,201,203,205,-1,-1,207,-1,-1,209,-1,211,-1,213,215,-1,217,219,-1,221,223,225,-1,227,229,231,233,235,237,239,241,243,245,247,-1,-1,249,251,-1,-1,253,255,257,-1,259,261,263,265,-1,-1,-1,-1,-1,-1,-1,-1,-1,-1,-1,-1,-1,-1,-1,-1,-1,-1,-1,-1,-1,-1,-1,-1,-1,-1,-1,-1,-1,-1,-1,-1,-1,-1,-1,-1,-1,-1,-1,-1,-1,-1,-1,-1,-1,-1,-1,-1,-1,-1,-1,-1,-1,-1,-1,-1,-1,-1,-1,-1,-1,-1,-1,-1,-1,-1,-1,-1,-1,-1,-1,-1,-1,-1,-1,-1,-1,-1,-1,-1,-1,-1,-1,-1,-1,-1,-1,-1,-1,-1,-1,-1,-1,-1,-1,-1,-1,-1,-1,-1,-1,-1,-1,-1,-1,-1],"loss_changes":[9.180573E3,1.0944025E3,1.4311086E4,0E0,1.2852812E3,2.4481836E3,2.4900912E2,6.0417053E2,2.5979797E1,1.2374775E3,8.822119E2,9.1524475E1,2.3589828E2,2.5143018E2,1.0146522E2,2.4051601E1,1.00415E1,1.8893042E2,3.6791016E2,8.186905E1,3.6766406E2,1.810388E2,6.2649E0,9.2934814E1,1.9641754E1,0E0,2.5165845E2,1.4107956E1,2.029985E1,1.48234215E1,3.1410881E1,6.81032E0,4.6195984E-2,3.344934E1,8.5469604E1,1.22987305E2,6.550098E1,3.75979E1,0E0,1.8608154E2,2.722412E2,5.2092216E1,1.4807361E2,7.856799E0,1.937706E0,7.385182E1,3.544069E1,1.6572113E1,1.2658096E1,2.2269238E2,2.9545288E1,3.8861198E0,1.7092361E0,8.07129E0,3.810358E0,1.894289E1,2.1303558E0,1.3807751E1,2.3802382E1,5.1397486E0,1.7489905E0,3.5079682E-1,0E0,0E0,2.824463E0,0E0,7.003174E-1,9.8009766E1,2.6878906E1,0E0,3.956787E1,0E0,7.9472656E0,8.7809814E1,1.1734741E2,3.2860107E1,5.275E1,3.215557E1,1.2714043E0,9.322922E1,1.1379878E2,3.6720714E-1,0E0,6.6609955E-1,1.3093154E0,4.0654617E1,6.491246E1,1.508799E1,1.8390182E1,2.1286316E1,0E0,0E0,2.215088E0,1.2648193E1,2.2801392E1,1.6069124E1,2.623169E0,0E0,1.7099533E0,0E0,2.6721525E0,4.980829E0,6.2711334E-1,1.3500056E0,0E0,1.4241806E1,2.983777E0,1.9233611E0,6.2854195E-1,9.479359E0,2.2775927E0,1.7415836E1,2.548298E0,4.5561056E0,1.9426938E0,7.029017E-1,3.4722137E-1,0E0,0E0,2.8883057E0,0E0,0E0,8.217163E0,0E0,1.0363037E1,0E0,1.8344727E1,6.0677246E1,0E0,1.2324219E0,3.492971E0,0E0,1.1755371E1,1.0485718E1,4.5952576E1,0E0,2.413623E1,1.9749512E1,6.645996E0,5.9358273E0,1.16590294E2,1.533392E0,3.7469864E-2,7.430965E1,3.3677277E1,4.335463E1,5.5390656E1,0E0,0E0,3.3161926E-1,2.5809534E0,0E0,0E0,9.895699E0,3.5832985E1,3.67336E1,0E0,6.9139915E0,1.2264908E1,7.0633082E0,4.2359154E1,0E0,0E0,0E0,0E0,0E0,0E0,0E0,0E0,0E0,0E0,0E0,0E0,0E0,0E0,0E0,0E0,0E0,0E0,0E0,0E0,0E0,0E0,0E0,0E0,0E0,0E0,0E0,0E0,0E0,0E0,0E0,0E0,0E0,0E0,0E0,0E0,0E0,0E0,0E0,0E0,0E0,0E0,0E0,0E0,0E0,0E0,0E0,0E0,0E0,0E0,0E0,0E0,0E0,0E0,0E0,0E0,0E0,0E0,0E0,0E0,0E0,0E0,0E0,0E0,0E0,0E0,0E0,0E0,0E0,0E0,0E0,0E0,0E0,0E0,0E0,0E0,0E0,0E0,0E0,0E0,0E0,0E0,0E0,0E0,0E0,0E0,0E0,0E0,0E0,0E0,0E0,0E0,0E0,0E0,0E0,0E0,0E0,0E0,0E0,0E0,0E0,0E0,0E0,0E0,0E0,0E0],"parents":[2147483647,0,0,1,1,2,2,4,4,5,5,6,6,7,7,8,8,9,9,10,10,11,11,12,12,13,13,14,14,15,15,16,16,17,17,18,18,19,19,20,20,21,21,22,22,23,23,24,24,26,26,27,27,28,28,29,29,30,30,31,31,32,32,33,33,34,34,35,35,36,36,37,37,39,39,40,40,41,41,42,42,43,43,44,44,45,45,46,46,47,47,48,48,49,49,50,50,51,51,52,52,53,53,54,54,55,55,56,56,57,57,58,58,59,59,60,60,61,61,64,64,66,66,67,67,68,68,70,70,72,72,73,73,74,74,75,75,76,76,77,77,78,78,79,79,80,80,81,81,83,83,84,84,85,85,86,86,87,87,88,88,89,89,92,92,93,93,94,94,95,95,96,96,98,98,100,100,101,101,102,102,103,103,105,105,106,106,107,107,108,108,109,109,110,110,111,111,112,112,113,113,114,114,115,115,116,116,119,119,122,122,124,124,126,126,127,127,129,129,130,130,132,132,133,133,134,134,136,136,137,137,138,138,139,139,140,140,141,141,142,142,143,143,144,144,145,145,146,146,149,149,150,150,153,153,154,154,155,155,157,157,158,158,159,159,160,160],"right_children":[2,4,6,-1,8,10,12,14,16,18,20,22,24,26,28,30,32,34,36,38,40,42,44,46,48,-1,50,52,54,56,58,60,62,64,66,68,70,72,-1,74,76,78,80,82,84,86,88,90,92,94,96,98,100,102,104,106,108,110,112,114,116,118,-1,-1,120,-1,122,124,126,-1,128,-1,130,132,134,136,138,140,142,144,146,148,-1,150,152,154,156,158,160,162,-1,-1,164,166,168,170,172,-1,174,-1,176,178,180,182,-1,184,186,188,190,192,194,196,198,200,202,204,206,-1,-1,208,-1,-1,210,-1,212,-1,214,216,-1,218,220,-1,222,224,226,-1,228,230,232,234,236,238,240,242,244,246,248,-1,-1,250,252,-1,-1,254,256,258,-1,260,262,264,266,-1,-1,-1,-1,-1,-1,-1,-1,-1,-1,-1,-1,-1,-1,-1,-1,-1,-1,-1,-1,-1,-1,-1,-1,-1,-1,-1,-1,-1,-1,-1,-1,-1,-1,-1,-1,-1,-1,-1,-1,-1,-1,-1,-1,-1,-1,-1,-1,-1,-1,-1,-1,-1,-1,-1,-1,-1,-1,-1,-1,-1,-1,-1,-1,-1,-1,-1,-1,-1,-1,-1,-1,-1,-1,-1,-1,-1,-1,-1,-1,-1,-1,-1,-1,-1,-1,-1,-1,-1,-1,-1,-1,-1,-1,-1,-1,-1,-1,-1,-1,-1,-1,-1,-1,-1,-1],"split_conditions":[5E1,1E1,1E0,-1.2164598E-2,1E0,3.5E1,8.108E-1,8.3E1,4.2E1,6.9E1,7E1,1.5E1,1.57E2,1E0,2.5E1,1E0,7.6E1,2.4E1,9.7E1,6.7E1,1.05E2,1E0,2.5E1,3E1,8E0,-1.2097887E-2,2.5E1,3.5E1,8.14E-1,5.366E-1,4.7E1,2.7E1,1.05E2,1E0,1E0,2.4E1,1E0,1E0,-1.2054138E-2,4.8E1,5.5E1,4.571E-1,1.2E1,1E0,6E2,1.63E2,1.2E1,3.5E1,1.66E2,3E1,1.3E2,1E0,1.62E2,3.1E1,3.7E1,1.1E1,6.579E-1,2.5E1,4.9E1,1E0,9E0,4.3E1,-1.2159676E-2,-9.731781E-3,1.3E2,-1.1678138E-2,1.8E2,1E0,1E0,-9.123544E-3,1.26E2,-1.1888254E-2,1E0,1E0,9.6E1,1E0,1.63E2,1E0,8.1E1,8.7E1,1.64E2,1.1E-1,6.359557E-2,1E0,1E0,9E0,5E-2,8.1E1,1.04E2,1E0,1.6319606E-1,-8.109817E-3,3.9E1,1.3E1,1.1E1,4.1E1,1.55E2,-1.0137272E-2,1E0,1.404435E-1,1.1E1,2.5E1,1.58E2,2.15E2,6.532285E-2,5.8E1,1E0,1E0,1E0,2.5E1,1E0,1E0,1.37E0,4E0,2.4E1,1E0,1E0,1.8556848E-2,-1.14491545E-2,6.94E2,7.189018E-2,1.4288092E-1,1.03E2,-1.0426909E-2,8.1E1,-9.123544E-3,3.46E2,2.5E1,4.2689312E-1,1.8E1,9.8E1,-1.1696852E-2,2.1E1,1E0,5.5E1,-9.731781E-3,1.39E2,2.45E2,6.7E1,1E0,2E0,5.9E1,1E0,9.8E1,2.5E1,1.05E2,3.22E2,-1.1635825E-2,1.8556848E-2,1.2E1,1.3E1,-8.109817E-3,7.189018E-2,1.75E2,3.83E2,3.07E2,3.8935584E-1,1.11E2,1E0,1E0,1.11E2,9.8556854E-2,4.5140913E-1,7.189018E-2,2.2166842E-1,7.241623E-2,9.23374E-3,2.353207E-1,1.4770174E-1,6.3728735E-2,-3.2246523E-3,6.737491E-2,2.1051746E-2,-8.109817E-3,6.3240714E-2,2.2268219E-2,1.0935587E-1,-1.1058842E-2,5.913908E-2,1.2430235E-2,-1.2041676E-2,-3.7861147E-3,5.0876454E-2,6.9709886E-3,3.5013746E-2,-7.90117E-3,5.4268215E-2,1.0113976E-2,-5.0643417E-3,-9.7801E-3,8.849001E-3,2.4742464E-2,1.2754507E-1,5.4268215E-2,-1.1058842E-2,-8.3283946E-4,5.0124347E-2,1.1985024E-1,5.6463327E-2,-1.0644135E-2,6.406665E-2,-7.96198E-3,8.3668595E-3,-8.109817E-3,4.3196063E-2,-9.088165E-3,6.108401E-4,2.2282405E-1,7.189018E-2,-9.123544E-3,1.2754507E-1,3.0205578E-1,3.8290745E-1,2.3111488E-1,1.0530479E-1,3.9211497E-1,3.028505E-1,6.57131E-2,2.3858806E-2,5.814452E-2,-1.1295817E-2,1.4267091E-1,1.1779125E-1,-1.1150999E-2,6.681699E-2,1.3871084E-1,6.581013E-2,2.0824912E-1,2.5979403E-1,1.3829881E-1,9.980277E-2,2.1948107E-1,1.6145824E-1,-6.5521467E-3,4.584704E-2,1.280692E-1,7.007586E-3,-1.0004562E-2,-5.6712725E-3,-1.2065837E-2,-9.595103E-3,1.0248964E-1,1.788958E-2,2.3859556E-1,1.0877573E-1,1.3300552E-4,2.539474E-2,1.549026E-1,4.7097936E-2,-7.2430787E-3,-1.2080559E-2,7.189018E-2,-1.1150999E-2,1.7384274E-1,-8.109817E-3,2.6226822E-1,4.5022693E-2,2.638588E-1,3.859557E-2,1.038588E-1,9.528154E-3,1.6529394E-2,1.626685E-1,-8.117938E-3,2.924513E-2,1.2161914E-1,1.1313464E-2],"split_indices":[23,23,26,0,26,28,14,9,28,23,23,25,23,2,28,2,9,28,23,12,23,2,28,28,25,0,28,23,14,14,10,13,22,2,2,28,2,2,0,28,28,14,8,2,19,20,8,28,23,23,19,2,20,12,23,17,14,28,12,25,10,12,0,0,9,0,10,2,2,0,23,0,156,2,23,2,23,0,23,23,23,4,0,317,0,17,4,23,23,6,0,0,12,25,28,9,10,0,0,0,25,23,10,20,0,20,194,25,212,23,25,254,3,20,20,0,193,0,0,29,0,0,20,0,23,0,10,28,0,25,9,0,8,2,28,0,23,22,12,240,0,12,295,10,28,23,10,0,0,8,8,0,0,10,30,10,0,10,0,135,9,0,0,0,0,0,0,0,0,0,0,0,0,0,0,0,0,0,0,0,0,0,0,0,0,0,0,0,0,0,0,0,0,0,0,0,0,0,0,0,0,0,0,0,0,0,0,0,0,0,0,0,0,0,0,0,0,0,0,0,0,0,0,0,0,0,0,0,0,0,0,0,0,0,0,0,0,0,0,0,0,0,0,0,0,0,0,0,0,0,0,0,0,0,0,0,0,0,0,0,0,0,0,0,0,0,0],"split_type":[0,0,0,0,0,0,0,0,0,0,0,0,0,0,0,0,0,0,0,0,0,0,0,0,0,0,0,0,0,0,0,0,0,0,0,0,0,0,0,0,0,0,0,0,0,0,0,0,0,0,0,0,0,0,0,0,0,0,0,0,0,0,0,0,0,0,0,0,0,0,0,0,0,0,0,0,0,0,0,0,0,0,0,0,0,0,0,0,0,0,0,0,0,0,0,0,0,0,0,0,0,0,0,0,0,0,0,0,0,0,0,0,0,0,0,0,0,0,0,0,0,0,0,0,0,0,0,0,0,0,0,0,0,0,0,0,0,0,0,0,0,0,0,0,0,0,0,0,0,0,0,0,0,0,0,0,0,0,0,0,0,0,0,0,0,0,0,0,0,0,0,0,0,0,0,0,0,0,0,0,0,0,0,0,0,0,0,0,0,0,0,0,0,0,0,0,0,0,0,0,0,0,0,0,0,0,0,0,0,0,0,0,0,0,0,0,0,0,0,0,0,0,0,0,0,0,0,0,0,0,0,0,0,0,0,0,0,0,0,0,0,0,0,0,0,0,0,0,0,0,0,0,0,0,0,0,0,0,0,0,0,0,0,0,0,0,0],"sum_hessian":[1.2493E5,1.04982E5,1.9948E4,9.5029E4,9.953E3,6.372E3,1.3576E4,3.266E3,6.687E3,1.84E3,4.532E3,1.2725E4,8.51E2,2.344E3,9.22E2,3.543E3,3.144E3,9.07E2,9.33E2,1.075E3,3.457E3,9.575E3,3.15E3,8.22E2,2.9E1,1.81E2,2.163E3,1.03E2,8.19E2,3.079E3,4.64E2,7.18E2,2.426E3,2.6E2,6.47E2,6.04E2,3.29E2,9.66E2,1.09E2,2.19E3,1.267E3,7.094E3,2.481E3,3.9E1,3.111E3,3.27E2,4.95E2,1.5E1,1.4E1,8.67E2,1.296E3,7.3E1,3E1,7.8E2,3.9E1,1.346E3,1.733E3,4.8E1,4.16E2,2.93E2,4.25E2,1.8E1,2.408E3,4E0,2.56E2,2.4E1,6.23E2,1.98E2,4.06E2,3E0,3.26E2,4.3E1,9.23E2,1.283E3,9.07E2,5.11E2,7.56E2,3.797E3,3.297E3,4.29E2,2.052E3,2.4E1,1.5E1,3.107E3,4E0,2.99E2,2.8E1,4.5E1,4.5E2,1E1,5E0,2E0,1.2E1,3.38E2,5.29E2,9.8E1,1.198E3,5E0,6.8E1,1.9E1,1.1E1,2.6E1,7.54E2,1.3E1,2.6E1,7.96E2,5.5E2,7.45E2,9.88E2,3.4E1,1.4E1,3.94E2,2.2E1,2.4E1,2.69E2,7E0,4.18E2,2E0,1.6E1,2.54E2,2E0,5.94E2,2.9E1,6E0,1.92E2,3E0,4.03E2,2.55E2,7.1E1,9.04E2,1.9E1,2.5E1,1.258E3,5.48E2,3.59E2,4E0,5.07E2,6.6E2,9.6E1,1.297E3,2.5E3,2.3E3,9.97E2,3.17E2,1.12E2,1.915E3,1.37E2,2.2E1,2E0,3.094E3,1.3E1,2E0,2E0,2.3E1,2.76E2,2.1E1,7E0,2.4E1,2.1E1,2.95E2,1.55E2,2E0,8E0,2E0,1E1,3.16E2,2.2E1,2.2E1,5.07E2,3.5E1,6.3E1,1.189E3,9E0,2E0,6.6E1,4E0,7E0,1E1,1.6E1,6E0,7.48E2,1E1,3E0,6.56E2,1.4E2,5.46E2,4E0,5.7E1,6.88E2,9.77E2,1.1E1,8E0,2.6E1,4E0,1E1,3.46E2,4.8E1,1E1,1.2E1,7E0,1.7E1,5.9E1,2.1E2,2E0,5E0,3.93E2,2.5E1,2.52E2,2E0,3E0,2.6E1,1.63E2,2.9E1,3.93E2,1E1,1.14E2,1.41E2,8.98E2,6E0,6E0,1.3E1,1.081E3,1.77E2,1.1E1,5.37E2,2.87E2,7.2E1,4.15E2,9.2E1,5.43E2,1.17E2,5.5E1,4.1E1,1.284E3,1.3E1,5.1E1,2.449E3,1.486E3,8.14E2,9.31E2,6.6E1,9.4E1,2.23E2,1.5E1,9.7E1,1.249E3,6.66E2,4.6E1,9.1E1,9.9E1,2.995E3,2E0,1.1E1,2.1E1,2E0,4E0,2.72E2,6E0,1.5E1,6E0,1.8E1,5E0,1.6E1,2.59E2,3.6E1,2.6E1,1.29E2],"tree_param":{"num_deleted":"0","num_feature":"335","num_nodes":"267","size_leaf_vector":"1"}},{"base_weights":[8.6520397E-4,-1.0956993E-1,5.791416E-1,-1.1191441E-2,1.7852697E-1,1.7083095E0,4.0183544E-2,6.457207E-1,-5.0431516E-2,2.5993822E0,1.3476853E0,7.91088E-3,5.249881E-1,8.9980894E-1,2.2220232E-2,5.5369467E-2,-8.28127E-2,1.8352613E0,3.3445406E0,6.280516E-1,1.5651048E0,5.4636292E-2,-1.2484922E-1,4.3065158E-1,3.0797312E0,-1.1136043E-2,9.88187E-1,9.0567887E-1,-8.941176E-2,-1.643583E-2,4.0824902E-1,-1.5195056E-2,-1.3594732E-1,2.5108008E0,1.5593818E0,2.9109862E0,4.1263475E0,7.1848565E-1,-8.865292E-2,1.3317364E0,1.9621863E0,-2.447314E-2,2.838836E-1,1.468609E-1,-1.3493018E-1,8.3441573E-1,1.6819142E-1,3.8524282E0,1.9214754E0,1.3761939E0,7.3005104E-1,6.4769876E-1,1.4645524E0,-1.1792902E-1,5.380724E-1,6.079107E-2,-1.11395605E-1,1.248152E0,2.7558774E-1,1.21749535E-1,-6.860084E-2,-1.3850453E-1,5.4291564E-1,-9.108947E-3,2.5513065E0,-1.0814531E-2,1.6293088E0,3.5550807E0,2.5737622E0,-8.576131E-3,4.165042E0,-1.09883305E-2,7.6507866E-1,-1.1382464E-2,5.945252E-1,1.4587872E0,7.561022E-1,2.4954531E0,1.597323E0,4.994841E-2,-1.0969804E-1,1.0845883E0,2.1813671E-1,9.570295E-2,1.274981E-1,-1.357943E-1,2.7800995E-1,3.4409797E-1,1.2341443E0,1.3989031E-1,1.18761286E-1,4.5056295E0,1.5231632E-1,-9.8106265E-3,2.2723794E0,7.838052E-1,1.7442553E0,7.5376743E-1,-1.162205E-2,-9.461453E-3,7.0410025E-1,1.5095826E0,4.0884532E-2,3.2642946E-1,-1.3364854E-1,1.3631885E-1,6.0000714E-2,4.1066717E-2,6.3272995E-1,-1.1462755E-1,3.106538E-2,3.4529865E-1,1.4541752E0,1.0855995E-2,9.2342573E-1,5.223354E-1,7.2786264E-2,-2.397694E-2,-1.0931623E-1,1.1067793E-2,-1.3884284E-1,-9.593297E-3,5.6282848E-2,2.10086E-1,2.1323986E0,1.6364727E0,4.036504E-1,-9.711919E-3,3.6654303E0,-9.147874E-3,2.6009293E0,3.9489787E0,3.9099374E-1,6.135309E-2,4.2064184E-1,1.7125944E-2,5.3811472E-2,-1.6574734E-1,1.4961315E0,-9.863566E-3,7.718392E-1,-9.488486E-3,2.5205748E0,1.5056977E0,2.2123842E0,8.6739E-2,-3.1960897E-2,-9.75479E-2,-1.3701732E-1,5.4469985E-1,1.337078E0,1.6468157E-1,1.0100762E0,-7.981251E-2,2.9869872E-1,-4.8941925E-2,-1.386482E-1,7.018937E-2,-1.0976508E-2,1.664172E0,1.8024084E-1,2.972108E0,9.9381715E-1,7.62833E-1,6.8290755E-2,9.3300484E-2,4.045503E-1,2.0628984E-1,3.9528616E-2,1.13307245E-1,5.7470016E-2,2.1696755E-1,1.3559222E-1,3.432214E-2,6.175342E-2,5.836147E-2,1.8220812E-2,1.2478015E-1,4.1713536E-2,-5.9434623E-3,5.8596704E-2,1.3764537E-2,-1.1186826E-2,-1.0167289E-2,2.7981017E-2,1.9299937E-3,5.4455284E-2,1.94348E-4,1.01026244E-1,-7.0856563E-3,-1.15027735E-2,6.9391906E-2,-1.1315299E-2,1.2572639E-1,4.6105333E-2,3.181322E-2,-1.0299037E-2,6.517699E-2,1.1692962E-1,6.1658137E-3,5.7242572E-2,7.6417774E-3,-1.2337929E-2,2.6185496E-3,-4.5316024E-3,1.5592405E-2,-8.994757E-3,-7.076132E-3,-1.1229678E-2,1.7920494E-1,3.7507012E-2,1.3355136E-1,1.1990695E-1,-1.12677235E-2,6.508777E-2,2.9493856E-1,8.24472E-2,2.1134312E-1,5.9456844E-2,3.622587E-1,2.754701E-1,-9.382286E-3,5.2741256E-2,-1.0906421E-2,-2.0676972E-2,1.2839672E-1,9.057727E-2,6.1944902E-2,1.4993276E-2,1.9891603E-1,3.2234657E-1,1.2718807E-1,9.299538E-2,1.9564666E-1,1.4189443E-1,5.1311604E-3,2.0760681E-2,3.8317775E-3,-8.4743295E-3,-9.519109E-3,-5.6296336E-3,-1.1102231E-2,-8.760239E-3,9.419087E-2,-3.655501E-3,1.2353131E-1,3.6427263E-2,5.922221E-2,8.4658805E-3,2.1384554E-1,5.8334E-2,-1.00735035E-2,3.8416322E-2,5.7253428E-2,9.334251E-4,-6.7623197E-3,5.3237632E-2,4.001432E-3,-1.1117639E-2,1.5514135E-1,-1.3946229E-2,4.1820128E-3,6.4950116E-2,9.272044E-2,2.4815683E-1,5.7629492E-2,1.4421624E-1,1.1342047E-2,1.1931822E-1,-2.6901644E-3,2.141232E-2],"categories":[],"categories_nodes":[],"categories_segments":[],"categories_sizes":[],"default_left":[0,0,0,0,0,0,0,0,0,0,0,0,0,0,0,0,0,0,0,0,0,0,0,0,0,0,0,0,0,0,0,0,0,0,0,0,0,0,0,0,0,0,0,0,0,0,0,0,0,0,0,0,0,0,0,0,0,0,0,0,0,0,0,0,0,0,0,0,0,0,0,0,0,0,0,0,0,0,0,0,0,0,0,0,0,0,0,0,0,0,0,0,0,0,0,0,0,0,0,0,0,0,0,0,0,0,0,0,0,0,0,0,0,0,0,0,0,0,0,0,0,0,0,0,0,0,0,0,0,0,0,0,0,0,0,0,0,0,0,0,0,0,0,0,0,0,0,0,0,0,0,0,0,0,0,0,0,0,0,0,0,0,0,0,0,0,0,0,0,0,0,0,0,0,0,0,0,0,0,0,0,0,0,0,0,0,0,0,0,0,0,0,0,0,0,0,0,0,0,0,0,0,0,0,0,0,0,0,0,0,0,0,0,0,0,0,0,0,0,0,0,0,0,0,0,0,0,0,0,0,0,0,0,0,0,0,0,0,0,0,0,0,0,0,0,0,0,0,0,0,0,0,0,0,0,0,0,0,0,0,0,0,0,0,0,0,0,0,0,0,0],"id":1,"left_children":[1,3,5,-1,7,9,11,13,15,17,19,21,23,25,27,29,31,33,35,37,39,41,43,45,47,-1,49,51,53,55,57,59,61,63,65,67,69,71,73,75,77,79,81,83,85,87,89,91,93,95,97,99,101,103,105,107,109,111,113,115,117,119,121,-1,123,-1,125,127,129,-1,131,-1,133,-1,135,137,139,141,143,145,147,149,151,153,-1,155,157,159,161,-1,163,165,-1,-1,167,169,171,173,-1,-1,175,177,-1,179,181,183,-1,185,187,189,-1,191,193,195,197,199,201,203,205,-1,207,-1,-1,-1,209,211,213,-1,215,-1,217,219,-1,-1,221,-1,-1,223,225,-1,227,-1,229,231,233,235,237,239,241,243,245,247,249,251,253,255,257,-1,-1,259,261,263,265,267,269,-1,-1,-1,-1,-1,-1,-1,-1,-1,-1,-1,-1,-1,-1,-1,-1,-1,-1,-1,-1,-1,-1,-1,-1,-1,-1,-1,-1,-1,-1,-1,-1,-1,-1,-1,-1,-1,-1,-1,-1,-1,-1,-1,-1,-1,-1,-1,-1,-1,-1,-1,-1,-1,-1,-1,-1,-1,-1,-1,-1,-1,-1,-1,-1,-1,-1,-1,-1,-1,-1,-1,-1,-1,-1,-1,-1,-1,-1,-1,-1,-1,-1,-1,-1,-1,-1,-1,-1,-1,-1,-1,-1,-1,-1,-1,-1,-1,-1,-1,-1,-1,-1,-1,-1,-1,-1],"loss_changes":[7.984031E3,9.1706775E2,1.2200018E4,0E0,1.0693914E3,2.07783E3,2.1232683E2,5.2087866E2,2.299278E1,1.0557764E3,7.207783E2,7.8943436E1,2.0280547E2,2.1464246E2,9.406797E1,3.986436E1,1.8457935E1,1.6810205E2,3.0762207E2,6.954483E1,3.2561035E2,1.7071759E2,9.094452E0,8.654477E1,1.9447083E1,0E0,2.1463647E2,1.4478485E1,1.5219784E1,9.598924E0,2.9294441E1,1.6551792E1,5.0696716E0,2.8569946E1,7.819043E1,1.2334473E2,5.5160645E1,3.806717E1,4.5177145E0,1.6228027E2,2.5070508E2,4.439712E1,1.268983E2,8.655697E0,1.1778069E0,6.2685394E1,3.861859E1,1.3058182E1,1.0320675E1,1.859253E2,2.6993164E1,3.3233967E0,6.4540863E-1,5.7085466E0,3.048172E0,8.118988E0,9.9254274E-1,6.194191E0,3.9607235E1,1.241687E1,2.9552588E0,2.8773117E-1,1.2554698E0,0E0,2.6063232E0,0E0,4.888916E0,8.4424805E1,2.9800537E1,0E0,3.2361816E1,0E0,2.4816895E-1,0E0,1.234858E-1,1.1120825E2,5.7138367E0,3.510376E1,4.0625732E1,1.1264193E1,1.0697289E0,2.421759E1,9.436376E1,4.1567917E0,0E0,7.836647E-1,1.8624206E0,3.1280365E1,7.097565E1,0E0,1.5648615E1,1.6192322E1,0E0,0E0,5.260891E0,1.268158E1,2.0671265E1,7.1013794E0,0E0,0E0,6.813812E-1,7.235565E-1,0E0,4.6101627E0,1.5068645E0,8.3157694E-1,0E0,7.5582123E0,9.528561E0,4.3095398E-1,0E0,2.1557016E0,2.0831528E0,8.960574E0,2.7292976E0,5.880459E0,2.9411874E0,1.4431522E0,8.292017E-1,0E0,2.0812988E-1,0E0,0E0,0E0,7.0094604E0,3.4313965E-1,1.2306663E0,0E0,7.4819336E0,0E0,2.8399414E1,6.0554443E1,0E0,0E0,9.7584224E-1,0E0,0E0,7.931459E-2,6.899487E1,0E0,4.3133545E-1,0E0,1.701123E1,1.7852295E1,5.7905273E0,1.0053076E1,6.851244E0,1.309721E0,3.334236E-2,2.2465828E1,2.1936249E1,7.08293E1,6.391713E1,1.6871443E0,6.454534E0,2.674907E0,1.9466782E-1,0E0,0E0,8.430256E0,1.0545984E1,1.3489532E0,3.342801E1,1.5627104E1,9.132081E0,0E0,0E0,0E0,0E0,0E0,0E0,0E0,0E0,0E0,0E0,0E0,0E0,0E0,0E0,0E0,0E0,0E0,0E0,0E0,0E0,0E0,0E0,0E0,0E0,0E0,0E0,0E0,0E0,0E0,0E0,0E0,0E0,0E0,0E0,0E0,0E0,0E0,0E0,0E0,0E0,0E0,0E0,0E0,0E0,0E0,0E0,0E0,0E0,0E0,0E0,0E0,0E0,0E0,0E0,0E0,0E0,0E0,0E0,0E0,0E0,0E0,0E0,0E0,0E0,0E0,0E0,0E0,0E0,0E0,0E0,0E0,0E0,0E0,0E0,0E0,0E0,0E0,0E0,0E0,0E0,0E0,0E0,0E0,0E0,0E0,0E0,0E0,0E0,0E0,0E0,0E0,0E0,0E0,0E0,0E0,0E0,0E0,0E0,0E0,0E0,0E0,0E0,0E0,0E0,0E0,0E0],"parents":[2147483647,0,0,1,1,2,2,4,4,5,5,6,6,7,7,8,8,9,9,10,10,11,11,12,12,13,13,14,14,15,15,16,16,17,17,18,18,19,19,20,20,21,21,22,22,23,23,24,24,26,26,27,27,28,28,29,29,30,30,31,31,32,32,33,33,34,34,35,35,36,36,37,37,38,38,39,39,40,40,41,41,42,42,43,43,44,44,45,45,46,46,47,47,48,48,49,49,50,50,51,51,52,52,53,53,54,54,55,55,56,56,57,57,58,58,59,59,60,60,61,61,62,62,64,64,66,66,67,67,68,68,70,70,72,72,74,74,75,75,76,76,77,77,78,78,79,79,80,80,81,81,82,82,83,83,85,85,86,86,87,87,88,88,90,90,91,91,94,94,95,95,96,96,97,97,100,100,101,101,103,103,104,104,105,105,107,107,108,108,109,109,111,111,112,112,113,113,114,114,115,115,116,116,117,117,118,118,120,120,124,124,125,125,126,126,128,128,130,130,131,131,134,134,137,137,138,138,140,140,142,142,143,143,144,144,145,145,146,146,147,147,148,148,149,149,150,150,151,151,152,152,153,153,154,154,155,155,156,156,159,159,160,160,161,161,162,162,163,163,164,164],"right_children":[2,4,6,-1,8,10,12,14,16,18,20,22,24,26,28,30,32,34,36,38,40,42,44,46,48,-1,50,52,54,56,58,60,62,64,66,68,70,72,74,76,78,80,82,84,86,88,90,92,94,96,98,100,102,104,106,108,110,112,114,116,118,120,122,-1,124,-1,126,128,130,-1,132,-1,134,-1,136,138,140,142,144,146,148,150,152,154,-1,156,158,160,162,-1,164,166,-1,-1,168,170,172,174,-1,-1,176,178,-1,180,182,184,-1,186,188,190,-1,192,194,196,198,200,202,204,206,-1,208,-1,-1,-1,210,212,214,-1,216,-1,218,220,-1,-1,222,-1,-1,224,226,-1,228,-1,230,232,234,236,238,240,242,244,246,248,250,252,254,256,258,-1,-1,260,262,264,266,268,270,-1,-1,-1,-1,-1,-1,-1,-1,-1,-1,-1,-1,-1,-1,-1,-1,-1,-1,-1,-1,-1,-1,-1,-1,-1,-1,-1,-1,-1,-1,-1,-1,-1,-1,-1,-1,-1,-1,-1,-1,-1,-1,-1,-1,-1,-1,-1,-1,-1,-1,-1,-1,-1,-1,-1,-1,-1,-1,-1,-1,-1,-1,-1,-1,-1,-1,-1,-1,-1,-1,-1,-1,-1,-1,-1,-1,-1,-1,-1,-1,-1,-1,-1,-1,-1,-1,-1,-1,-1,-1,-1,-1,-1,-1,-1,-1,-1,-1,-1,-1,-1,-1,-1,-1,-1,-1],"split_conditions":[5E1,1E1,1E0,-1.1191441E-2,1E0,3.5E1,8.108E-1,8.3E1,2.5E1,7.2E1,7E1,1.4E1,1.57E2,1E0,2.5E1,1E0,1.37E2,2.4E1,9.7E1,4.9E1,1.05E2,1.4E1,3.5E1,3E1,8E0,-1.1136043E-2,2.5E1,3.5E1,8.14E-1,5.926E-1,4.7E1,5.224E-1,8.14E-1,1E0,1E0,2.4E1,1E0,1E0,6.5E1,5.5E1,5.5E1,4.571E-1,7E0,5.4E1,4.55E2,7.3E1,1.09E2,3.5E1,9E0,3E1,5E1,1E0,6.24E2,3.1E1,3.7E1,1E0,1E0,2.5E1,1.2E2,1E0,6.735E-1,2.6E1,1.7E1,-9.108947E-3,1.5E1,-1.0814531E-2,1.08E2,1E0,1E0,-8.576131E-3,1.26E2,-1.09883305E-2,1.8E1,-1.1382464E-2,2.69E0,1E0,1E0,1E0,1.63E2,1.5E1,8.1E1,7.1E1,1.64E2,1E0,1.274981E-1,1.2E1,2E1,7.3E1,1.53E2,1.3989031E-1,1.2E1,1E0,1.5231632E-1,-9.8106265E-3,1.4E1,1.1E1,1.1E1,1.3E2,-1.162205E-2,-9.461453E-3,2.38E2,5E1,4.0884532E-2,3.7E1,1.65E2,1.5E1,6.0000714E-2,1E0,6E0,2.5E1,3.106538E-2,1E1,7E0,8.3E1,3.5E1,1.2E1,7.05E2,3E0,4E0,1.1067793E-2,8.3E1,-9.593297E-3,5.6282848E-2,2.10086E-1,1.9E-1,1.3E1,2.11E0,-9.711919E-3,1.449E3,-9.147874E-3,3E1,2.5E1,3.9099374E-1,6.135309E-2,4.97E2,1.7125944E-2,5.3811472E-2,9.1E1,1.72E2,-9.863566E-3,6.3E1,-9.488486E-3,1.79E2,1.74E2,5.5E1,4.68E2,3.125E-1,5.5E1,1E0,3E1,7.7E1,2.5E1,3.6E1,6.71E2,3E1,2.45E2,3.65E2,7.018937E-2,-1.0976508E-2,1.2E1,1.7E1,1.65E2,1.324E3,8.1E1,1.04E2,9.3300484E-2,4.045503E-1,2.0628984E-1,3.9528616E-2,1.13307245E-1,5.7470016E-2,2.1696755E-1,1.3559222E-1,3.432214E-2,6.175342E-2,5.836147E-2,1.8220812E-2,1.2478015E-1,4.1713536E-2,-5.9434623E-3,5.8596704E-2,1.3764537E-2,-1.1186826E-2,-1.0167289E-2,2.7981017E-2,1.9299937E-3,5.4455284E-2,1.94348E-4,1.01026244E-1,-7.0856563E-3,-1.15027735E-2,6.9391906E-2,-1.1315299E-2,1.2572639E-1,4.6105333E-2,3.181322E-2,-1.0299037E-2,6.517699E-2,1.1692962E-1,6.1658137E-3,5.7242572E-2,7.6417774E-3,-1.2337929E-2,2.6185496E-3,-4.5316024E-3,1.5592405E-2,-8.994757E-3,-7.076132E-3,-1.1229678E-2,1.7920494E-1,3.7507012E-2,1.3355136E-1,1.1990695E-1,-1.12677235E-2,6.508777E-2,2.9493856E-1,8.24472E-2,2.1134312E-1,5.9456844E-2,3.622587E-1,2.754701E-1,-9.382286E-3,5.2741256E-2,-1.0906421E-2,-2.0676972E-2,1.2839672E-1,9.057727E-2,6.1944902E-2,1.4993276E-2,1.9891603E-1,3.2234657E-1,1.2718807E-1,9.299538E-2,1.9564666E-1,1.4189443E-1,5.1311604E-3,2.0760681E-2,3.8317775E-3,-8.4743295E-3,-9.519109E-3,-5.6296336E-3,-1.1102231E-2,-8.760239E-3,9.419087E-2,-3.655501E-3,1.2353131E-1,3.6427263E-2,5.922221E-2,8.4658805E-3,2.1384554E-1,5.8334E-2,-1.00735035E-2,3.8416322E-2,5.7253428E-2,9.334251E-4,-6.7623197E-3,5.3237632E-2,4.001432E-3,-1.1117639E-2,1.5514135E-1,-1.3946229E-2,4.1820128E-3,6.4950116E-2,9.272044E-2,2.4815683E-1,5.7629492E-2,1.4421624E-1,1.1342047E-2,1.1931822E-1,-2.6901644E-3,2.141232E-2],"split_indices":[23,23,26,0,26,28,14,9,28,23,23,25,23,2,28,2,10,28,23,27,23,27,28,28,25,0,28,23,14,14,10,14,14,2,2,28,2,2,23,28,28,14,17,12,19,23,10,28,25,23,28,2,29,12,23,277,187,23,22,25,14,12,8,0,17,0,9,2,2,0,23,0,25,0,3,2,2,2,23,17,23,23,23,2,0,8,8,22,10,0,8,6,0,0,25,28,28,19,0,0,10,12,0,23,10,25,0,139,17,23,0,9,25,10,27,22,29,25,9,0,9,0,0,0,4,8,3,0,7,0,8,28,0,0,30,0,0,23,22,0,27,0,23,9,27,19,14,12,295,13,9,28,28,29,28,19,30,0,0,8,25,19,7,23,23,0,0,0,0,0,0,0,0,0,0,0,0,0,0,0,0,0,0,0,0,0,0,0,0,0,0,0,0,0,0,0,0,0,0,0,0,0,0,0,0,0,0,0,0,0,0,0,0,0,0,0,0,0,0,0,0,0,0,0,0,0,0,0,0,0,0,0,0,0,0,0,0,0,0,0,0,0,0,0,0,0,0,0,0,0,0,0,0,0,0,0,0,0,0,0,0,0,0,0,0,0,0,0,0,0,0],"split_type":[0,0,0,0,0,0,0,0,0,0,0,0,0,0,0,0,0,0,0,0,0,0,0,0,0,0,0,0,0,0,0,0,0,0,0,0,0,0,0,0,0,0,0,0,0,0,0,0,0,0,0,0,0,0,0,0,0,0,0,0,0,0,0,0,0,0,0,0,0,0,0,0,0,0,0,0,0,0,0,0,0,0,0,0,0,0,0,0,0,0,0,0,0,0,0,0,0,0,0,0,0,0,0,0,0,0,0,0,0,0,0,0,0,0,0,0,0,0,0,0,0,0,0,0,0,0,0,0,0,0,0,0,0,0,0,0,0,0,0,0,0,0,0,0,0,0,0,0,0,0,0,0,0,0,0,0,0,0,0,0,0,0,0,0,0,0,0,0,0,0,0,0,0,0,0,0,0,0,0,0,0,0,0,0,0,0,0,0,0,0,0,0,0,0,0,0,0,0,0,0,0,0,0,0,0,0,0,0,0,0,0,0,0,0,0,0,0,0,0,0,0,0,0,0,0,0,0,0,0,0,0,0,0,0,0,0,0,0,0,0,0,0,0,0,0,0,0,0,0,0,0,0,0,0,0,0,0,0,0,0,0,0,0,0,0,0,0,0,0,0,0],"sum_hessian":[1.25018E5,1.04972E5,2.0046E4,9.4976E4,9.996E3,6.476E3,1.357E4,3.287E3,6.709E3,1.864E3,4.612E3,1.2724E4,8.46E2,2.335E3,9.52E2,1.572E3,5.137E3,9.22E2,9.42E2,1.071E3,3.541E3,9.412E3,3.312E3,8.17E2,2.9E1,1.83E2,2.152E3,1.06E2,8.46E2,1.307E3,2.65E2,2.261E3,2.876E3,2.65E2,6.57E2,6.09E2,3.33E2,9.51E2,1.2E2,2.233E3,1.308E3,6.998E3,2.414E3,1.18E2,3.194E3,3.21E2,4.96E2,1.6E1,1.3E1,8.58E2,1.294E3,7.4E1,3.2E1,8.1E2,3.6E1,7.21E2,5.86E2,3.5E1,2.3E2,6.34E2,1.627E3,2.866E3,1E1,4E0,2.61E2,2.6E1,6.31E2,2.06E2,4.03E2,3E0,3.3E2,4.9E1,9.02E2,1.12E2,8E0,1.828E3,4.05E2,5.29E2,7.79E2,3.736E3,3.262E3,1.82E2,2.232E3,1.15E2,3E0,3.188E3,6E0,1.45E2,1.76E2,1.4E1,4.82E2,1.1E1,5E0,2E0,1.1E1,3.3E2,5.28E2,1.26E3,3.4E1,5E0,6.9E1,3E1,2E0,2.7E1,7.83E2,1.3E1,2.3E1,6.98E2,2.3E1,5.83E2,3E0,7E0,2.8E1,1.64E2,6.6E1,6.8E1,5.66E2,7.77E2,8.5E2,3E0,2.863E3,2E0,8E0,2.17E2,4.4E1,6.27E2,4E0,6E0,2E2,4E0,3.99E2,2.59E2,7.1E1,8.96E2,6E0,2E0,6E0,4.1E1,1.787E3,7E0,3.98E2,5E0,5.24E2,6.81E2,9.8E1,2.578E3,1.158E3,2.261E3,1.001E3,5.9E1,1.23E2,2.092E3,1.4E2,6.2E1,5.3E1,1.02E2,3.086E3,2E0,4E0,1.5E1,1.3E2,2E1,1.56E2,3.4E1,4.48E2,2E0,9E0,9E0,2E0,2.9E1,3.01E2,2.3E1,5.05E2,6.8E1,1.192E3,6.5E1,4E0,2.8E1,2E0,1.4E1,1.3E1,1.5E1,7.68E2,6E0,7E0,6.81E2,1.7E1,1.2E1,1.1E1,3.1E2,2.73E2,3E0,4E0,2.4E1,4E0,4.3E1,1.21E2,5.7E1,9E0,2.1E1,4.7E1,5.15E2,5.1E1,2.84E2,4.93E2,8E0,8.42E2,8.6E1,2.777E3,4.1E1,3E0,4.97E2,1.3E2,2E0,2E0,1.98E2,2E0,3.9E2,9E0,1.17E2,1.42E2,2E0,4E0,3.3E1,8E0,1.373E3,4.14E2,3.96E2,2E0,5.15E2,9E0,5.44E2,1.37E2,6.1E1,3.7E1,2.281E3,2.97E2,5.57E2,6.01E2,1.262E3,9.99E2,9.37E2,6.4E1,2.8E1,3.1E1,9.9E1,2.4E1,1.93E2,1.899E3,1.9E1,1.21E2,5.8E1,4E0,2.1E1,3.2E1,9.8E1,4E0,5E0,3.081E3,1.3E1,2E0,1.09E2,2.1E1,2E0,1.8E1,1.18E2,3.8E1,1.9E1,1.5E1,2.97E2,1.51E2],"tree_param":{"num_deleted":"0","num_feature":"335","num_nodes":"271","size_leaf_vector":"1"}},{"base_weights":[7.206195E-4,-1.00796506E-1,5.32462E-1,-1.0296134E-2,1.6605537E-1,1.5737649E0,3.986301E-2,6.001757E-1,-4.5121018E-2,2.3965628E0,1.2412518E0,3.5144752E-3,4.0982667E-1,8.62437E-1,4.3897867E-2,5.4999948E-2,-7.598495E-2,1.6837063E0,3.0946414E0,8.0077744E-1,1.5518095E0,1.2595478E-1,-3.7049353E-2,3.2166457E-1,2.5502396E0,-1.0247456E-2,9.476807E-1,5.659893E-1,-1.2753151E-1,-9.914887E-3,3.9609978E-1,-8.957908E-3,-1.2500338E-1,2.301611E0,1.4253985E0,2.670225E0,3.8597565E0,1.3424995E0,5.899184E-1,1.3114088E0,1.8059531E0,3.0045584E-2,4.2743537E-1,8.192308E-3,-1.2179444E-1,9.628938E-1,2.048705E-1,2.9735599E0,-2.8320173E-2,1.2978493E0,7.117319E-1,2.8256306E-1,9.762908E-1,-1.308997E-1,3.3214843E-1,-6.0210224E-2,1.1718747E-1,1.1852865E0,2.7176896E-1,1.4019677E-1,-5.0408967E-2,-1.2760495E-1,5.2301586E-1,-8.525974E-3,2.3383632E0,-1.0007888E-2,1.4953969E0,3.2475474E0,2.3587837E0,3.7459111E0,4.2895648E-1,6.7078954E-1,1.4708056E0,6.5127975E-1,1.1587703E-1,1.4458148E0,7.1013504E-1,2.291581E0,1.4746785E0,-1.1842023E-1,1.3580686E-1,2.8591502E-1,1.8077298E0,-4.4320926E-2,1.8364376E-1,-1.2402623E-1,4.41574E-1,8.2078105E-1,3.0716457E0,5.724923E-1,6.358617E-2,2.5349097E0,4.5700705E-1,7.745103E-1,1.6173441E0,7.125171E-1,1.2498737E-2,4.9077064E-1,-1.0822564E-2,1.395317E0,6.860504E-1,-1.2219254E-2,-1.0312268E-2,4.6145003E-2,-8.382924E-3,1.1613805E-1,-8.560322E-2,4.232327E-1,-3.327419E-2,3.2493433E-1,1.3963063E0,1.6179608E-2,8.390897E-1,5.757941E-1,8.928571E-2,-7.2433025E-2,5.4489158E-2,-2.3375617E-3,-1.2872146E-1,-9.081655E-3,5.293402E-2,2.4042306E0,1.9198627E0,1.5143114E0,1.0564073E0,-9.045959E-3,3.347433E0,2.3947244E0,3.1632936E-1,3.432195E-1,3.3955133E0,7.0226544E-1,2.107416E-1,-9.414968E-3,1.5075933E0,-1.0154201E-2,6.8560344E-1,5.6446012E-2,-1.0609616E-2,-1.6510373E-1,1.4794035E0,-6.9890404E-3,5.734277E-2,-8.855921E-3,2.3148031E0,1.5300102E0,5.1075883E-2,-1.2314258E-1,1.1299321E-1,8.157077E-1,9.737553E-2,1.3650193E0,1.9940606E-1,1.2018119E0,3.1354563E0,1.948643E-2,-9.3932E-2,6.6705734E-1,7.830256E-2,-1.2492316E-1,9.074168E-2,1.4192365E0,-1.205085E-2,1.6576571E0,5.062444E-1,3.7225745E0,8.0150105E-2,4.7457007E-1,3.4139094E0,-4.183931E-2,3.0194208E-1,3.9673097E-2,2.6955118E0,1.03821844E-1,5.697323E-2,2.007108E-1,1.2573841E-1,2.4993405E-2,5.7059925E-2,-1.6407212E-2,4.8937105E-2,1.22418575E-1,7.007914E-2,5.3094453E-3,5.8100514E-2,5.9198167E-2,5.1976936E-3,-2.8636553E-3,-1.0759457E-2,1.3789301E-2,6.644475E-2,-9.138564E-3,8.771498E-3,6.5228395E-2,-1.05911195E-2,1.1972087E-1,3.5680167E-2,3.1419776E-2,-1.0116096E-2,5.8941755E-2,1.00413986E-1,-5.8284327E-3,5.95186E-2,-1.2185703E-2,9.597865E-3,-9.478298E-3,-3.9663007E-3,1.1029445E-2,-6.5786014E-3,-8.326954E-3,2.4259558E-2,-6.9671962E-3,-1.036646E-2,1.9329862E-1,5.6851454E-2,5.840658E-2,1.6518638E-1,1.2160824E-1,-1.0666779E-2,1.17976926E-1,5.750788E-2,2.545431E-1,3.2834673E-1,-8.56241E-3,1.9367956E-1,-2.4476316E-2,1.1643623E-1,-7.165835E-3,2.7458262E-1,5.6930616E-2,2.7522922E-2,-1.3748661E-2,4.3252483E-2,1.2127587E-1,6.241417E-2,5.4960772E-2,-6.859865E-3,-9.749829E-3,-1.8906508E-2,1.2178762E-1,9.7389184E-2,1.76746E-1,2.1819718E-1,1.15915075E-1,1.6346341E-1,-1.0015062E-2,4.5420446E-2,1.24937706E-1,-1.077911E-2,1.13413356E-1,3.78122E-2,1.8943543E-2,-1.7174962E-3,1.2606211E-1,2.9153027E-2,-1.9629572E-3,3.9802637E-2,2.1529402E-1,4.713851E-2,1.8164928E-1,3.9352962E-1,-7.0417337E-3,6.072932E-3,-6.3566365E-3,-1.0751234E-2,3.01389E-2,1.2483206E-1,1.16398274E-4,5.24402E-2,-3.892705E-3,-1.0194601E-2,7.167608E-2,-9.449798E-3,4.394167E-2,1.4528987E-1,-1.626491E-2,1.397494E-1,-4.838367E-3,7.181134E-2,1.1457743E-1,3.397859E-1,2.6216298E-2,1.0209064E-1,-1.4567603E-2,3.5738823E-1,1.2148028E-1,-4.095401E-3,1.3876458E-1,1.2000622E-2,2.3479913E-1,8.390987E-2],"categories":[],"categories_nodes":[],"categories_segments":[],"categories_sizes":[],"default_left":[0,0,0,0,0,0,0,0,0,0,0,0,0,0,0,0,0,0,0,0,0,0,0,0,0,0,0,0,0,0,0,0,0,0,0,0,0,0,0,0,0,0,0,0,0,0,0,0,0,0,0,0,0,0,0,0,0,0,0,0,0,0,0,0,0,0,0,0,0,0,0,0,0,0,0,0,0,0,0,0,0,0,0,0,0,0,0,0,0,0,0,0,0,0,0,0,0,0,0,0,0,0,0,0,0,0,0,0,0,0,0,0,0,0,0,0,0,0,0,0,0,0,0,0,0,0,0,0,0,0,0,0,0,0,0,0,0,0,0,0,0,0,0,0,0,0,0,0,0,0,0,0,0,0,0,0,0,0,0,0,0,0,0,0,0,0,0,0,0,0,0,0,0,0,0,0,0,0,0,0,0,0,0,0,0,0,0,0,0,0,0,0,0,0,0,0,0,0,0,0,0,0,0,0,0,0,0,0,0,0,0,0,0,0,0,0,0,0,0,0,0,0,0,0,0,0,0,0,0,0,0,0,0,0,0,0,0,0,0,0,0,0,0,0,0,0,0,0,0,0,0,0,0,0,0,0,0,0,0,0,0,0,0,0,0,0,0,0,0,0,0,0,0,0,0,0,0,0,0,0,0,0,0,0,0,0,0,0,0,0,0],"id":2,"left_children":[1,3,5,-1,7,9,11,13,15,17,19,21,23,25,27,29,31,33,35,37,39,41,43,45,47,-1,49,51,53,55,57,59,61,63,65,67,69,71,73,75,77,79,81,83,85,87,89,91,-1,93,95,97,99,101,103,105,107,109,111,113,115,117,119,-1,121,-1,123,125,127,129,-1,131,133,135,137,139,141,143,145,147,149,151,153,155,157,159,161,163,165,167,169,171,-1,173,175,177,-1,179,-1,181,183,-1,-1,-1,-1,185,187,189,191,193,195,197,199,201,203,205,207,209,211,-1,-1,213,215,217,219,-1,221,223,225,-1,227,229,231,-1,233,-1,235,-1,-1,237,239,-1,-1,-1,241,243,-1,245,247,249,251,253,255,257,259,261,263,265,267,269,271,273,-1,275,277,279,-1,281,283,285,287,-1,289,-1,-1,-1,-1,-1,-1,-1,-1,-1,-1,-1,-1,-1,-1,-1,-1,-1,-1,-1,-1,-1,-1,-1,-1,-1,-1,-1,-1,-1,-1,-1,-1,-1,-1,-1,-1,-1,-1,-1,-1,-1,-1,-1,-1,-1,-1,-1,-1,-1,-1,-1,-1,-1,-1,-1,-1,-1,-1,-1,-1,-1,-1,-1,-1,-1,-1,-1,-1,-1,-1,-1,-1,-1,-1,-1,-1,-1,-1,-1,-1,-1,-1,-1,-1,-1,-1,-1,-1,-1,-1,-1,-1,-1,-1,-1,-1,-1,-1,-1,-1,-1,-1,-1,-1,-1,-1,-1,-1,-1,-1,-1,-1,-1,-1,-1,-1,-1,-1],"loss_changes":[6.747391E3,7.8159644E2,1.0278324E4,0E0,9.1101105E2,1.757582E3,1.829402E2,4.7439685E2,2.0664764E1,9.1590234E2,6.2595215E2,6.1531494E1,2.2883154E2,1.8672607E2,9.342258E1,3.490041E1,1.6791382E1,1.4324072E2,2.9298926E2,2.1601086E2,1.618584E2,8.913136E1,3.568028E1,8.74261E1,6.0065063E1,0E0,1.6721167E2,2.9727005E1,1.2604303E0,8.4773245E0,2.4404179E1,1.3361524E1,5.0434227E0,2.4057373E1,7.073303E1,1.0094043E2,3.6521973E1,4.4777405E1,3.9716675E1,1.109021E2,2.0640332E2,3.6758606E1,1.4481595E2,5.5915802E1,4.1272316E0,5.142134E1,5.143535E1,3.598105E1,0E0,1.3552039E2,4.199829E-1,1.3464167E1,1.1812668E1,1.4365196E-2,7.018561E-1,4.264053E0,1.732816E1,5.7190323E0,3.1741674E1,1.037165E1,3.910635E0,4.1103363E-1,1.1342556E0,0E0,2.689087E0,0E0,3.5649414E0,7.05354E1,2.8311523E1,4.475E1,0E0,1.1117973E0,2.6181824E1,3.243396E1,2.3246635E1,6.1440918E1,1.414917E0,2.9656006E1,3.5021362E1,1.0783176E0,3.5639587E1,6.2833893E1,5.1741806E1,1.4788124E1,7.113864E1,6.3295746E-1,7.740543E0,4.3909622E1,1.1090431E1,7.489531E1,1.8029972E1,1.110701E1,0E0,9.254059E0,1.6674805E1,1.3330078E-1,0E0,8.7939E0,0E0,1.602272E0,1.5463581E0,0E0,0E0,0E0,0E0,3.7823095E0,2.0187454E0,1.2527727E1,2.9398177E0,1.9021902E0,1.9036255E0,8.213605E0,1.9701805E0,5.3998775E0,3.1471252E0,1.4652982E0,3.3628502E0,8.7106884E-1,9.299469E-2,0E0,0E0,2.8565674E0,5.564148E0,5.8710938E0,3.034771E0,0E0,1.2392334E1,2.5824951E1,6.1161623E0,0E0,2.5167725E1,2.6981354E-2,9.7649276E-1,0E0,1.4611206E0,0E0,1.3171997E0,0E0,0E0,4.509914E-2,1.0614502E1,0E0,0E0,0E0,1.6695068E1,2.7375122E1,0E0,1.4208441E0,7.388354E0,1.44048195E1,2.1462084E1,9.970009E0,4.187288E1,4.3119667E1,2.1224838E1,1.2405928E1,1.5282707E0,6.425125E1,5.0964573E1,6.088753E-1,2.460343E0,7.288456E-1,0E0,7.991951E0,2.778107E1,3.5318146E0,0E0,3.1013737E1,3.4907173E1,7.34565E0,4.7625748E1,0E0,1.0723175E1,0E0,0E0,0E0,0E0,0E0,0E0,0E0,0E0,0E0,0E0,0E0,0E0,0E0,0E0,0E0,0E0,0E0,0E0,0E0,0E0,0E0,0E0,0E0,0E0,0E0,0E0,0E0,0E0,0E0,0E0,0E0,0E0,0E0,0E0,0E0,0E0,0E0,0E0,0E0,0E0,0E0,0E0,0E0,0E0,0E0,0E0,0E0,0E0,0E0,0E0,0E0,0E0,0E0,0E0,0E0,0E0,0E0,0E0,0E0,0E0,0E0,0E0,0E0,0E0,0E0,0E0,0E0,0E0,0E0,0E0,0E0,0E0,0E0,0E0,0E0,0E0,0E0,0E0,0E0,0E0,0E0,0E0,0E0,0E0,0E0,0E0,0E0,0E0,0E0,0E0,0E0,0E0,0E0,0E0,0E0,0E0,0E0,0E0,0E0,0E0,0E0,0E0,0E0,0E0,0E0,0E0,0E0,0E0,0E0,0E0,0E0,0E0,0E0,0E0,0E0,0E0,0E0,0E0],"parents":[2147483647,0,0,1,1,2,2,4,4,5,5,6,6,7,7,8,8,9,9,10,10,11,11,12,12,13,13,14,14,15,15,16,16,17,17,18,18,19,19,20,20,21,21,22,22,23,23,24,24,26,26,27,27,28,28,29,29,30,30,31,31,32,32,33,33,34,34,35,35,36,36,37,37,38,38,39,39,40,40,41,41,42,42,43,43,44,44,45,45,46,46,47,47,49,49,50,50,51,51,52,52,53,53,54,54,55,55,56,56,57,57,58,58,59,59,60,60,61,61,62,62,64,64,66,66,67,67,68,68,69,69,71,71,72,72,73,73,74,74,75,75,76,76,77,77,78,78,79,79,80,80,81,81,82,82,83,83,84,84,85,85,86,86,87,87,88,88,89,89,90,90,91,91,93,93,94,94,95,95,97,97,99,99,100,100,105,105,106,106,107,107,108,108,109,109,110,110,111,111,112,112,113,113,114,114,115,115,116,116,117,117,118,118,121,121,122,122,123,123,124,124,126,126,127,127,128,128,130,130,131,131,132,132,134,134,136,136,139,139,140,140,144,144,145,145,147,147,148,148,149,149,150,150,151,151,152,152,153,153,154,154,155,155,156,156,157,157,158,158,159,159,160,160,161,161,163,163,164,164,165,165,167,167,168,168,169,169,170,170,172,172],"right_children":[2,4,6,-1,8,10,12,14,16,18,20,22,24,26,28,30,32,34,36,38,40,42,44,46,48,-1,50,52,54,56,58,60,62,64,66,68,70,72,74,76,78,80,82,84,86,88,90,92,-1,94,96,98,100,102,104,106,108,110,112,114,116,118,120,-1,122,-1,124,126,128,130,-1,132,134,136,138,140,142,144,146,148,150,152,154,156,158,160,162,164,166,168,170,172,-1,174,176,178,-1,180,-1,182,184,-1,-1,-1,-1,186,188,190,192,194,196,198,200,202,204,206,208,210,212,-1,-1,214,216,218,220,-1,222,224,226,-1,228,230,232,-1,234,-1,236,-1,-1,238,240,-1,-1,-1,242,244,-1,246,248,250,252,254,256,258,260,262,264,266,268,270,272,274,-1,276,278,280,-1,282,284,286,288,-1,290,-1,-1,-1,-1,-1,-1,-1,-1,-1,-1,-1,-1,-1,-1,-1,-1,-1,-1,-1,-1,-1,-1,-1,-1,-1,-1,-1,-1,-1,-1,-1,-1,-1,-1,-1,-1,-1,-1,-1,-1,-1,-1,-1,-1,-1,-1,-1,-1,-1,-1,-1,-1,-1,-1,-1,-1,-1,-1,-1,-1,-1,-1,-1,-1,-1,-1,-1,-1,-1,-1,-1,-1,-1,-1,-1,-1,-1,-1,-1,-1,-1,-1,-1,-1,-1,-1,-1,-1,-1,-1,-1,-1,-1,-1,-1,-1,-1,-1,-1,-1,-1,-1,-1,-1,-1,-1,-1,-1,-1,-1,-1,-1,-1,-1,-1,-1,-1,-1],"split_conditions":[5E1,1E1,1E0,-1.0296134E-2,1E0,3.5E1,8.065E-1,5.938E-1,2.5E1,7.2E1,8E1,3.6E1,1.51E2,1E0,3.6E1,7E0,5.075E-1,2.4E1,9.7E1,4E1,1.05E2,1.4E1,1.3E1,1.2E1,5.7E1,-1.0247456E-2,2.5E1,3.4E1,1E0,5.1E1,4.7E1,4.8E-1,8.14E-1,1E0,1E0,2.4E1,1.51E2,7E1,5.2E1,5.5E1,5.5E1,8.2E1,1.06E2,2.4E1,4.32E2,1.09E2,3E1,5.7E2,-2.8320173E-2,3E1,1.2E1,2.5E1,2.4E1,1.65E2,5E-2,3.774E-1,1.1E1,2.5E1,8.1E1,1E0,1.629E-1,2.7E1,1.7E1,-8.525974E-3,1.5E1,-1.0007888E-2,6.222E-1,1E0,3E1,2.5E1,4.2895648E-1,1E0,1E0,1E0,5.567E-1,1E0,1E0,1E0,6.429E-1,9.7E1,1.32E2,9.8E1,1E-1,4.286E-1,1.4E1,2.62E2,4.15E2,1.09E2,4.733E-1,1.87E2,1.04E2,2.94E2,4.5700705E-1,1.1E1,1.1E1,9E1,1.2498737E-2,1.8E1,-1.0822564E-2,1.62E2,2.1E1,-1.2219254E-2,-1.0312268E-2,4.6145003E-2,-8.382924E-3,1E0,2.5E1,2.476E-1,2E2,1E1,1E0,8.3E1,1.75E2,4E0,1.5E1,1.1E1,6.5E-1,1.7E1,3.1E1,-9.081655E-3,5.293402E-2,6.94E2,3.81E2,1.08E2,3E1,-9.045959E-3,8.1E1,1E0,1.321E3,3.432195E-1,1E0,1.8E1,1.08E2,-9.414968E-3,6.91E2,-1.0154201E-2,8E1,5.6446012E-2,-1.0609616E-2,9.1E1,2.2E1,-6.9890404E-3,5.734277E-2,-8.855921E-3,1.39E2,1.63E2,5.1075883E-2,1.451E3,1.21E2,1.2E1,3.556E-1,1E1,7.3E1,1.32E2,1.52E2,1E0,2.03E2,1.01E2,1.55E2,1.2E1,3.88E2,1.66E2,-1.205085E-2,1E0,7.2E1,2.6E2,8.0150105E-2,5.85E-1,8.125E-1,6E1,2.08E2,3.9673097E-2,2.2E2,1.03821844E-1,5.697323E-2,2.007108E-1,1.2573841E-1,2.4993405E-2,5.7059925E-2,-1.6407212E-2,4.8937105E-2,1.22418575E-1,7.007914E-2,5.3094453E-3,5.8100514E-2,5.9198167E-2,5.1976936E-3,-2.8636553E-3,-1.0759457E-2,1.3789301E-2,6.644475E-2,-9.138564E-3,8.771498E-3,6.5228395E-2,-1.05911195E-2,1.1972087E-1,3.5680167E-2,3.1419776E-2,-1.0116096E-2,5.8941755E-2,1.00413986E-1,-5.8284327E-3,5.95186E-2,-1.2185703E-2,9.597865E-3,-9.478298E-3,-3.9663007E-3,1.1029445E-2,-6.5786014E-3,-8.326954E-3,2.4259558E-2,-6.9671962E-3,-1.036646E-2,1.9329862E-1,5.6851454E-2,5.840658E-2,1.6518638E-1,1.2160824E-1,-1.0666779E-2,1.17976926E-1,5.750788E-2,2.545431E-1,3.2834673E-1,-8.56241E-3,1.9367956E-1,-2.4476316E-2,1.1643623E-1,-7.165835E-3,2.7458262E-1,5.6930616E-2,2.7522922E-2,-1.3748661E-2,4.3252483E-2,1.2127587E-1,6.241417E-2,5.4960772E-2,-6.859865E-3,-9.749829E-3,-1.8906508E-2,1.2178762E-1,9.7389184E-2,1.76746E-1,2.1819718E-1,1.15915075E-1,1.6346341E-1,-1.0015062E-2,4.5420446E-2,1.24937706E-1,-1.077911E-2,1.13413356E-1,3.78122E-2,1.8943543E-2,-1.7174962E-3,1.2606211E-1,2.9153027E-2,-1.9629572E-3,3.9802637E-2,2.1529402E-1,4.713851E-2,1.8164928E-1,3.9352962E-1,-7.0417337E-3,6.072932E-3,-6.3566365E-3,-1.0751234E-2,3.01389E-2,1.2483206E-1,1.16398274E-4,5.24402E-2,-3.892705E-3,-1.0194601E-2,7.167608E-2,-9.449798E-3,4.394167E-2,1.4528987E-1,-1.626491E-2,1.397494E-1,-4.838367E-3,7.181134E-2,1.1457743E-1,3.397859E-1,2.6216298E-2,1.0209064E-1,-1.4567603E-2,3.5738823E-1,1.2148028E-1,-4.095401E-3,1.3876458E-1,1.2000622E-2,2.3479913E-1,8.390987E-2],"split_indices":[23,23,26,0,26,28,14,21,28,23,23,28,23,2,28,27,21,28,23,28,23,27,25,8,27,0,28,23,295,20,10,14,14,2,2,28,23,23,27,28,28,20,23,27,19,23,28,19,0,23,25,28,28,10,4,14,17,23,20,25,21,12,8,0,17,0,21,2,8,28,0,187,2,2,21,2,2,2,21,23,10,10,4,14,8,20,29,10,21,20,23,19,0,28,28,19,0,23,0,20,13,0,0,0,0,25,23,21,19,9,37,10,19,20,20,20,14,27,12,0,0,29,29,9,28,0,23,2,7,0,2,25,9,0,29,0,12,0,0,23,8,0,0,0,23,23,0,7,10,17,14,8,23,9,20,0,10,23,23,8,10,9,0,2,23,19,0,21,14,9,10,0,9,0,0,0,0,0,0,0,0,0,0,0,0,0,0,0,0,0,0,0,0,0,0,0,0,0,0,0,0,0,0,0,0,0,0,0,0,0,0,0,0,0,0,0,0,0,0,0,0,0,0,0,0,0,0,0,0,0,0,0,0,0,0,0,0,0,0,0,0,0,0,0,0,0,0,0,0,0,0,0,0,0,0,0,0,0,0,0,0,0,0,0,0,0,0,0,0,0,0,0,0,0,0,0,0,0,0,0,0,0,0,0,0,0,0,0,0,0,0],"split_type":[0,0,0,0,0,0,0,0,0,0,0,0,0,0,0,0,0,0,0,0,0,0,0,0,0,0,0,0,0,0,0,0,0,0,0,0,0,0,0,0,0,0,0,0,0,0,0,0,0,0,0,0,0,0,0,0,0,0,0,0,0,0,0,0,0,0,0,0,0,0,0,0,0,0,0,0,0,0,0,0,0,0,0,0,0,0,0,0,0,0,0,0,0,0,0,0,0,0,0,0,0,0,0,0,0,0,0,0,0,0,0,0,0,0,0,0,0,0,0,0,0,0,0,0,0,0,0,0,0,0,0,0,0,0,0,0,0,0,0,0,0,0,0,0,0,0,0,0,0,0,0,0,0,0,0,0,0,0,0,0,0,0,0,0,0,0,0,0,0,0,0,0,0,0,0,0,0,0,0,0,0,0,0,0,0,0,0,0,0,0,0,0,0,0,0,0,0,0,0,0,0,0,0,0,0,0,0,0,0,0,0,0,0,0,0,0,0,0,0,0,0,0,0,0,0,0,0,0,0,0,0,0,0,0,0,0,0,0,0,0,0,0,0,0,0,0,0,0,0,0,0,0,0,0,0,0,0,0,0,0,0,0,0,0,0,0,0,0,0,0,0,0,0,0,0,0,0,0,0,0,0,0,0,0,0,0,0,0,0,0,0],"sum_hessian":[1.24994E5,1.04957E5,2.0037E4,9.5021E4,9.936E3,6.434E3,1.3603E4,3.251E3,6.685E3,1.85E3,4.584E3,1.2387E4,1.216E3,2.209E3,1.042E3,1.575E3,5.11E3,9.17E2,9.33E2,1.897E3,2.687E3,3.082E3,9.305E3,1.169E3,4.7E1,1.75E2,2.034E3,2.57E2,7.85E2,1.324E3,2.51E2,2.159E3,2.951E3,2.68E2,6.49E2,6.03E2,3.3E2,5.3E2,1.367E3,1.384E3,1.303E3,2.339E3,7.43E2,6.067E3,3.238E3,1.79E2,9.9E2,4.1E1,6E0,8.17E2,1.217E3,1.53E2,1.04E2,7.8E2,5E0,9.49E2,3.75E2,3.3E1,2.18E2,4.69E2,1.69E3,2.94E3,1.1E1,4E0,2.64E2,2.8E1,6.21E2,2.08E2,3.95E2,3.1E2,2E1,8.6E1,4.44E2,1.21E3,1.57E2,1.13E3,2.54E2,5.26E2,7.77E2,9.73E2,1.366E3,6.75E2,6.8E1,4.67E3,1.397E3,3.226E3,1.2E1,1.69E2,1E1,2.74E2,7.16E2,3.7E1,4E0,3.11E2,5.06E2,1.215E3,2E0,1.02E2,5.1E1,4.1E1,6.3E1,5.9E1,7.21E2,3E0,2E0,1.19E2,8.3E2,1.23E2,2.52E2,7E0,2.6E1,1.51E2,6.7E1,4.8E1,4.21E2,1.397E3,2.93E2,2.6E1,2.914E3,2E0,9E0,2.24E2,4E1,5.93E2,2.8E1,6E0,2.02E2,3.88E2,7E0,1.17E2,1.93E2,8E1,6E0,1E1,4.34E2,5.1E1,1.159E3,4.6E1,1.11E2,2.3E1,1.107E3,2E0,2.52E2,5E0,5.21E2,7.28E2,4.9E1,9.54E2,1.9E1,7.2E1,1.294E3,4.9E1,6.26E2,4.8E1,2E1,2.043E3,2.627E3,2.49E2,1.148E3,3.213E3,1.3E1,4E0,8E0,4.5E1,1.24E2,7E0,3E0,2.66E2,8E0,4.97E2,2.19E2,3E0,3.4E1,3.1E1,2.8E2,2.2E1,4.84E2,3E0,1.212E3,1.5E1,8.7E1,3.1E1,1E1,4E0,5.9E1,8E0,1.11E2,4.12E2,4.18E2,7.7E1,4.6E1,1.61E2,9.1E1,3E0,4E0,2.3E1,3E0,4.1E1,1.1E2,5.6E1,1.1E1,1E1,3.8E1,4.7E1,3.74E2,4.62E2,9.35E2,1.82E2,1.11E2,2E1,6E0,6.1E1,2.853E3,2.22E2,2E0,5E0,3.5E1,5.91E2,2E0,1.1E1,1.7E1,1.7E2,3.2E1,4E0,3.84E2,5E0,2E0,2E0,1.91E2,7.7E1,3E0,3E0,3E0,4.28E2,6E0,1.157E3,2E0,1.6E1,7E0,9.47E2,1.6E2,4.2E2,1.01E2,6.32E2,9.6E1,9.52E2,2E0,2E0,1.7E1,2.5E1,4.7E1,5.95E2,6.99E2,4E1,9E0,3.58E2,2.68E2,1.3E1,3.5E1,1.5E1,5E0,7.03E2,1.34E3,1.937E3,6.9E2,1.89E2,6E1,1.014E3,1.34E2,1.03E2,3.11E3,2E0,1.1E1,2E0,2E0,2E0,4.3E1,5.1E1,7.3E1,2E0,5E0,2.26E2,4E1,2E0,6E0,2E0,4.95E2,2E1,1.99E2,2.9E1,5E0],"tree_param":{"num_deleted":"0","num_feature":"335","num_nodes":"291","size_leaf_vector":"1"}},{"base_weights":[-5.3699096E-5,-9.281768E-2,4.8669145E-1,-9.472453E-3,1.5133464E-1,1.4453198E0,3.257593E-2,5.5221075E-1,-4.424024E-2,2.2024312E0,1.1393142E0,3.978332E-4,3.6135644E-1,1.0513718E0,3.2529578E-1,4.3089584E-2,-7.117722E-2,1.5500259E0,2.8461452E0,5.318396E-1,1.3279104E0,1.17488824E-1,-3.8552552E-2,3.010316E-1,2.1168246E0,5.8515537E-1,1.3467755E0,5.7927E-1,-4.972385E-2,1.3205419E-2,5.9486127E-1,-1.4526834E-2,-1.1526643E-1,2.1131403E0,1.3213924E0,2.4844775E0,3.513813E0,6.103627E-1,-6.590883E-2,1.1334606E0,1.6638873E0,2.687825E-2,3.999305E-1,2.4074975E-3,-1.14292875E-1,1.456241E0,2.4599837E-1,2.6474473E0,-2.6927765E-2,-9.373639E-3,6.707971E-1,-9.828671E-3,1.4213318E0,-9.3971295E-3,6.393116E-1,2.7219313E-1,-9.175568E-2,-1.2305931E-2,2.0475543E-1,1.3673404E-1,7.969407E-1,9.856419E-2,-5.850546E-2,-1.1774141E-1,4.84829E-1,-7.980312E-3,2.1475685E0,-9.196809E-3,1.3783921E0,3.2463355E0,2.3108582E0,-7.631614E-3,3.547841E0,-9.312415E-3,6.47067E-1,-9.812167E-3,4.882021E-2,1.3282667E0,8.500086E-1,2.116966E0,1.3602582E0,1.17878795E-1,-1.10090286E-1,2.6326585E-1,1.7012738E0,-4.318105E-2,1.5754686E-1,-1.16304904E-1,2.168678E-1,-1.6342368E-2,1.5599579E0,1.281804E-1,7.290585E-1,1.9480989E0,3.356792E0,1.2178022E0,6.163898E-1,1.4854321E0,8.7778664E-1,3.059445E-1,5.2561264E-2,-9.7477455E-3,6.326267E-1,1.6151267E-1,-1.1540706E-1,-6.388448E-2,9.087908E-2,1.0154176E0,5.1042024E-2,8.920464E-1,-1.0756958E-2,5.4319356E-2,1.2177315E0,4.4440418E-1,5.9145182E-2,-2.2860963E-2,-9.003765E-2,1.02516115E-2,-1.1804414E-1,-8.597299E-3,4.912277E-2,2.681155E-1,2.1108203E0,1.1251675E-1,1.2130753E0,2.7173467E0,3.0614203E-1,-8.821317E-3,2.350693E0,3.3252287E0,3.386939E-1,5.199711E-2,3.962925E-1,-9.244985E-3,1.3587176E0,6.1312467E-1,1.2052766E0,-8.265526E-3,2.1391096E0,1.291698E0,1.9337306E0,6.955987E-2,4.4192368E-1,-1.1420837E-1,1.901287E-1,1.1121494E0,1.6074234E-1,1.061508E0,3.2796009E0,1.571585E-2,-8.509508E-2,7.546819E-1,8.4429E-2,-6.405451E-2,-1.1803725E-1,1.338411E0,-1.1773494E-2,-1.5397448E-2,1.6369853E0,4.60546E-1,2.3188936E-2,1.6140414E0,1.6644663E-1,2.1393871E0,1.7181301E-2,3.0037913E-1,1.4479597E-1,3.9087694E-2,1.12810336E-1,7.1148197E-3,5.2663177E-2,1.8494554E-1,1.15464024E-1,4.8653077E-2,9.877853E-2,5.12333E-2,2.240835E-3,8.8947425E-3,5.284574E-2,-1.0578057E-2,3.887691E-2,-9.497098E-3,1.0895817E-2,-1.8322825E-3,-1.0356718E-2,2.3320295E-2,-2.9810255E-3,1.0081259E-1,2.869815E-2,4.068407E-2,-4.722455E-3,3.017773E-2,9.470876E-2,1.0896366E-1,3.0310232E-2,-2.8676882E-3,5.5745386E-2,-4.8104334E-3,1.0069472E-2,1.0202644E-2,-3.1454489E-3,-3.8204056E-3,-8.817479E-3,-7.0011443E-3,-9.517633E-3,1.6965322E-1,4.6155877E-2,3.592622E-2,1.111129E-1,-6.553295E-3,2.2509003E-1,2.076084E-1,1.7102037E-1,3.0707514E-1,2.3401138E-1,-1.7296785E-2,4.8133135E-2,1.11506924E-1,9.151266E-2,-8.878121E-3,5.025987E-2,1.0808158E-1,5.1277086E-2,1.6296878E-1,2.0428109E-1,-3.6580186E-2,1.0461852E-1,1.7388761E-1,1.1495585E-1,1.3960064E-2,-9.144163E-3,1.7564358E-1,2.1701267E-2,-9.600567E-3,-2.666451E-3,4.494404E-2,-8.991302E-3,1.6561954E-1,6.629378E-2,-2.0853481E-3,3.2025702E-2,1.8954222E-1,3.738374E-2,1.2745704E-1,3.4168732E-1,6.228061E-2,7.160205E-4,-5.585602E-3,-1.00907935E-2,-5.9913605E-4,7.8406766E-2,-2.5024207E-3,3.723867E-2,-8.414329E-3,1.7096454E-2,-9.4657345E-3,3.9822855E-3,1.3754107E-1,4.0913723E-2,1.4193223E-1,7.506661E-2,3.633324E-3,5.9213195E-2,3.7873097E-2,-2.3060748E-3,1.0760074E-1,3.2282794E-1,5.634016E-3,1.0877375E-1,1.8912712E-1,2.4219906E-2],"categories":[],"categories_nodes":[],"categories_segments":[],"categories_sizes":[],"default_left":[0,0,0,0,0,0,0,0,0,0,0,0,0,0,0,0,0,0,0,0,0,0,0,0,0,0,0,0,0,0,0,0,0,0,0,0,0,0,0,0,0,0,0,0,0,0,0,0,0,0,0,0,0,0,0,0,0,0,0,0,0,0,0,0,0,0,0,0,0,0,0,0,0,0,0,0,0,0,0,0,0,0,0,0,0,0,0,0,0,0,0,0,0,0,0,0,0,0,0,0,0,0,0,0,0,0,0,0,0,0,0,0,0,0,0,0,0,0,0,0,0,0,0,0,0,0,0,0,0,0,0,0,0,0,0,0,0,0,0,0,0,0,0,0,0,0,0,0,0,0,0,0,0,0,0,0,0,0,0,0,0,0,0,0,0,0,0,0,0,0,0,0,0,0,0,0,0,0,0,0,0,0,0,0,0,0,0,0,0,0,0,0,0,0,0,0,0,0,0,0,0,0,0,0,0,0,0,0,0,0,0,0,0,0,0,0,0,0,0,0,0,0,0,0,0,0,0,0,0,0,0,0,0,0,0,0,0,0,0,0,0,0,0,0,0,0,0,0,0,0,0,0,0,0,0,0,0,0,0,0,0,0,0,0,0,0,0,0,0,0,0],"id":3,"left_children":[1,3,5,-1,7,9,11,13,15,17,19,21,23,25,27,29,31,33,35,37,39,41,43,45,47,49,51,53,55,57,59,61,63,65,67,69,71,73,75,77,79,81,83,85,87,89,91,93,-1,-1,95,-1,97,-1,99,101,103,105,107,109,111,113,115,117,119,-1,121,-1,123,125,127,-1,129,-1,131,-1,-1,133,135,137,139,141,143,145,147,149,151,153,155,-1,157,159,161,163,165,167,169,171,173,175,-1,-1,177,179,181,183,185,187,189,191,-1,-1,193,195,197,199,201,-1,203,-1,-1,-1,205,-1,207,209,-1,-1,211,213,-1,-1,215,-1,217,219,221,-1,223,225,227,229,231,233,235,237,239,241,243,245,247,249,251,253,255,257,-1,-1,259,261,263,265,267,269,-1,-1,-1,-1,-1,-1,-1,-1,-1,-1,-1,-1,-1,-1,-1,-1,-1,-1,-1,-1,-1,-1,-1,-1,-1,-1,-1,-1,-1,-1,-1,-1,-1,-1,-1,-1,-1,-1,-1,-1,-1,-1,-1,-1,-1,-1,-1,-1,-1,-1,-1,-1,-1,-1,-1,-1,-1,-1,-1,-1,-1,-1,-1,-1,-1,-1,-1,-1,-1,-1,-1,-1,-1,-1,-1,-1,-1,-1,-1,-1,-1,-1,-1,-1,-1,-1,-1,-1,-1,-1,-1,-1,-1,-1,-1,-1,-1,-1,-1,-1,-1,-1,-1,-1,-1,-1,-1],"loss_changes":[5.637234E3,6.5514154E2,8.699981E3,0E0,7.799606E2,1.4858047E3,1.4347946E2,3.6913525E2,1.5733576E1,7.716787E2,5.2366895E2,5.6347897E1,1.2739389E2,1.3955078E2,2.1375928E2,2.599567E1,1.2763924E1,1.15654785E2,2.1559912E2,5.1013947E1,2.2624854E2,7.89156E1,2.8761951E1,7.402439E1,5.2964767E1,2.395752E1,6.843701E1,5.60477E1,1.2297375E1,7.317908E0,7.3898544E0,1.1136657E1,4.3256226E0,2.0327393E1,5.394812E1,7.2656006E1,4.013037E1,2.5683807E1,4.9475355E0,1.21178955E2,1.7293237E2,2.9129377E1,1.3275998E2,4.2569576E1,2.1933784E0,9.446533E0,6.353546E1,9.831238E0,0E0,0E0,9.784775E0,0E0,1.9357056E1,0E0,7.070282E0,1.4989733E1,4.828725E0,7.0416665E0,2.1879467E1,5.4457264E0,1.9525452E0,8.5214E0,1.8097482E0,2.2824097E-1,9.843228E-1,0E0,4.4282227E0,0E0,1.2263184E0,2.3376465E1,4.8192383E1,0E0,3.493091E1,0E0,4.064331E-1,0E0,0E0,5.7796387E1,7.54234E1,2.5344238E1,2.7697998E1,2.195239E1,1.1752081E0,5.8914944E1,6.821161E1,1.1485292E1,5.9621197E1,2.8525925E-1,8.362625E0,0E0,7.064316E0,3.1395315E1,1.0877188E2,5.8402863E0,2.4375458E0,3.658638E0,7.1019516E0,1.5081543E1,5.504719E0,5.931572E0,0E0,0E0,7.2799873E-1,6.6401668E0,6.276703E-1,2.3672378E0,1.1348275E1,4.0480614E0,7.533547E0,6.0505104E-1,0E0,0E0,8.155956E-1,7.7831535E0,4.4961348E0,1.8811073E0,7.243061E-1,0E0,7.046509E-2,0E0,0E0,0E0,2.6273193E0,0E0,1.2675766E1,1.6670563E1,0E0,0E0,1.9902344E1,3.9488037E1,0E0,0E0,1.7653642E0,0E0,8.091797E0,6.038086E0,2.882434E1,0E0,1.6186523E1,1.9918823E1,6.409485E0,2.361729E1,5.3871414E1,4.279356E-1,1.5248375E0,1.8111092E1,2.7177053E1,3.93016E1,2.6635986E1,9.979065E0,1.6950684E0,2.560485E1,5.3762115E1,1.233292E0,1.5529251E-1,6.9553566E-1,0E0,0E0,2.9352112E0,2.5039246E1,1.6055239E1,4.994223E1,1.5371899E1,6.30011E0,0E0,0E0,0E0,0E0,0E0,0E0,0E0,0E0,0E0,0E0,0E0,0E0,0E0,0E0,0E0,0E0,0E0,0E0,0E0,0E0,0E0,0E0,0E0,0E0,0E0,0E0,0E0,0E0,0E0,0E0,0E0,0E0,0E0,0E0,0E0,0E0,0E0,0E0,0E0,0E0,0E0,0E0,0E0,0E0,0E0,0E0,0E0,0E0,0E0,0E0,0E0,0E0,0E0,0E0,0E0,0E0,0E0,0E0,0E0,0E0,0E0,0E0,0E0,0E0,0E0,0E0,0E0,0E0,0E0,0E0,0E0,0E0,0E0,0E0,0E0,0E0,0E0,0E0,0E0,0E0,0E0,0E0,0E0,0E0,0E0,0E0,0E0,0E0,0E0,0E0,0E0,0E0,0E0,0E0,0E0,0E0,0E0,0E0,0E0,0E0,0E0,0E0,0E0,0E0,0E0,0E0,0E0],"parents":[2147483647,0,0,1,1,2,2,4,4,5,5,6,6,7,7,8,8,9,9,10,10,11,11,12,12,13,13,14,14,15,15,16,16,17,17,18,18,19,19,20,20,21,21,22,22,23,23,24,24,25,25,26,26,27,27,28,28,29,29,30,30,31,31,32,32,33,33,34,34,35,35,36,36,37,37,38,38,39,39,40,40,41,41,42,42,43,43,44,44,45,45,46,46,47,47,50,50,52,52,54,54,55,55,56,56,57,57,58,58,59,59,60,60,61,61,62,62,63,63,64,64,66,66,68,68,69,69,70,70,72,72,74,74,77,77,78,78,79,79,80,80,81,81,82,82,83,83,84,84,85,85,86,86,87,87,88,88,90,90,91,91,92,92,93,93,94,94,95,95,96,96,97,97,98,98,99,99,102,102,103,103,104,104,105,105,106,106,107,107,108,108,109,109,112,112,113,113,114,114,115,115,116,116,118,118,122,122,124,124,125,125,128,128,129,129,132,132,134,134,135,135,136,136,138,138,139,139,140,140,141,141,142,142,143,143,144,144,145,145,146,146,147,147,148,148,149,149,150,150,151,151,152,152,153,153,154,154,155,155,158,158,159,159,160,160,161,161,162,162,163,163],"right_children":[2,4,6,-1,8,10,12,14,16,18,20,22,24,26,28,30,32,34,36,38,40,42,44,46,48,50,52,54,56,58,60,62,64,66,68,70,72,74,76,78,80,82,84,86,88,90,92,94,-1,-1,96,-1,98,-1,100,102,104,106,108,110,112,114,116,118,120,-1,122,-1,124,126,128,-1,130,-1,132,-1,-1,134,136,138,140,142,144,146,148,150,152,154,156,-1,158,160,162,164,166,168,170,172,174,176,-1,-1,178,180,182,184,186,188,190,192,-1,-1,194,196,198,200,202,-1,204,-1,-1,-1,206,-1,208,210,-1,-1,212,214,-1,-1,216,-1,218,220,222,-1,224,226,228,230,232,234,236,238,240,242,244,246,248,250,252,254,256,258,-1,-1,260,262,264,266,268,270,-1,-1,-1,-1,-1,-1,-1,-1,-1,-1,-1,-1,-1,-1,-1,-1,-1,-1,-1,-1,-1,-1,-1,-1,-1,-1,-1,-1,-1,-1,-1,-1,-1,-1,-1,-1,-1,-1,-1,-1,-1,-1,-1,-1,-1,-1,-1,-1,-1,-1,-1,-1,-1,-1,-1,-1,-1,-1,-1,-1,-1,-1,-1,-1,-1,-1,-1,-1,-1,-1,-1,-1,-1,-1,-1,-1,-1,-1,-1,-1,-1,-1,-1,-1,-1,-1,-1,-1,-1,-1,-1,-1,-1,-1,-1,-1,-1,-1,-1,-1,-1,-1,-1,-1,-1,-1,-1],"split_conditions":[5E1,1E1,1E0,-9.472453E-3,1E0,3.5E1,8.065E-1,2.5E1,2.5E1,7.2E1,7E1,3.6E1,1.66E2,3E1,1.21E2,2.1E1,1.37E2,2.4E1,9.7E1,4.9E1,1.05E2,1.4E1,1.3E1,1.09E2,5.7E1,1E0,1E0,1E0,3.6E1,7E0,8.5E1,5.224E-1,8.14E-1,1E0,1E0,2E1,1E0,1E0,6.5E1,4.8E1,5.5E1,4.571E-1,1.06E2,1E0,4.05E2,1.05E2,1.18E2,1.313E3,-2.6927765E-2,-9.373639E-3,1.1E1,-9.828671E-3,1.78E2,-9.3971295E-3,1.26E2,3.4E1,1.16E2,4.2E1,4.7E1,2.8E1,1.75E2,1E0,6.735E-1,2.6E1,1.7E1,-7.980312E-3,1.8E1,-9.196809E-3,1.11E2,7.5E1,1E0,-7.631614E-3,1.26E2,-9.312415E-3,1E0,-9.812167E-3,4.882021E-2,1E0,9.6E1,1E0,1.8E2,1.68E2,1E0,9E0,1E-1,4.2E-1,1.45E2,1.2E1,4.05E2,-1.6342368E-2,1E0,2.4E1,2.2E1,4.72E0,1.6E-1,1.2E1,9.6E1,1.1E1,3.6E1,4.1E1,5.2561264E-2,-9.7477455E-3,2.1E1,1.6E2,8.14E-1,3.1E1,1.1E1,6E0,5E0,2.96E0,-1.0756958E-2,5.4319356E-2,1.6E2,4E0,1E0,1E0,1.6E1,1.02516115E-2,8.3E1,-8.597299E-3,4.912277E-2,2.681155E-1,6.89E2,1.1251675E-1,1.03E2,1E0,3.0614203E-1,-8.821317E-3,2.5E1,2.5E1,3.386939E-1,5.199711E-2,1.11E2,-9.244985E-3,2.1E1,1E0,5.5E1,-8.265526E-3,1.39E2,1E0,5.5E1,7.3E1,2.51E2,6.9E2,7.2E1,2.4E1,7.3E1,1.32E2,3.6E1,1E0,1.1E1,6.8E1,1.31E2,1.63E2,1E0,3E0,-1.1773494E-2,-1.5397448E-2,1.1E1,6.5E1,1.2E1,8.163E-1,6.84E2,6.54E2,1.7181301E-2,3.0037913E-1,1.4479597E-1,3.9087694E-2,1.12810336E-1,7.1148197E-3,5.2663177E-2,1.8494554E-1,1.15464024E-1,4.8653077E-2,9.877853E-2,5.12333E-2,2.240835E-3,8.8947425E-3,5.284574E-2,-1.0578057E-2,3.887691E-2,-9.497098E-3,1.0895817E-2,-1.8322825E-3,-1.0356718E-2,2.3320295E-2,-2.9810255E-3,1.0081259E-1,2.869815E-2,4.068407E-2,-4.722455E-3,3.017773E-2,9.470876E-2,1.0896366E-1,3.0310232E-2,-2.8676882E-3,5.5745386E-2,-4.8104334E-3,1.0069472E-2,1.0202644E-2,-3.1454489E-3,-3.8204056E-3,-8.817479E-3,-7.0011443E-3,-9.517633E-3,1.6965322E-1,4.6155877E-2,3.592622E-2,1.111129E-1,-6.553295E-3,2.2509003E-1,2.076084E-1,1.7102037E-1,3.0707514E-1,2.3401138E-1,-1.7296785E-2,4.8133135E-2,1.11506924E-1,9.151266E-2,-8.878121E-3,5.025987E-2,1.0808158E-1,5.1277086E-2,1.6296878E-1,2.0428109E-1,-3.6580186E-2,1.0461852E-1,1.7388761E-1,1.1495585E-1,1.3960064E-2,-9.144163E-3,1.7564358E-1,2.1701267E-2,-9.600567E-3,-2.666451E-3,4.494404E-2,-8.991302E-3,1.6561954E-1,6.629378E-2,-2.0853481E-3,3.2025702E-2,1.8954222E-1,3.738374E-2,1.2745704E-1,3.4168732E-1,6.228061E-2,7.160205E-4,-5.585602E-3,-1.00907935E-2,-5.9913605E-4,7.8406766E-2,-2.5024207E-3,3.723867E-2,-8.414329E-3,1.7096454E-2,-9.4657345E-3,3.9822855E-3,1.3754107E-1,4.0913723E-2,1.4193223E-1,7.506661E-2,3.633324E-3,5.9213195E-2,3.7873097E-2,-2.3060748E-3,1.0760074E-1,3.2282794E-1,5.634016E-3,1.0877375E-1,1.8912712E-1,2.4219906E-2],"split_indices":[23,23,26,0,26,28,14,28,28,23,23,28,23,23,10,27,10,28,23,27,23,27,25,10,27,2,2,2,28,27,9,14,14,2,2,28,2,2,23,28,28,14,23,2,19,19,23,7,0,0,28,0,10,0,19,23,22,20,10,9,19,25,14,12,8,0,28,0,22,23,2,0,23,0,187,0,0,2,23,2,23,20,77,17,4,14,10,8,29,0,2,28,8,3,4,23,19,28,23,9,0,0,13,19,14,23,17,25,25,3,0,0,20,20,0,25,9,0,9,0,0,0,29,0,20,2,0,0,28,28,0,0,9,0,8,2,28,0,23,2,27,23,10,19,9,28,23,9,12,25,17,23,23,20,139,0,0,0,8,23,8,14,30,29,0,0,0,0,0,0,0,0,0,0,0,0,0,0,0,0,0,0,0,0,0,0,0,0,0,0,0,0,0,0,0,0,0,0,0,0,0,0,0,0,0,0,0,0,0,0,0,0,0,0,0,0,0,0,0,0,0,0,0,0,0,0,0,0,0,0,0,0,0,0,0,0,0,0,0,0,0,0,0,0,0,0,0,0,0,0,0,0,0,0,0,0,0,0,0,0,0,0,0,0,0,0,0,0,0,0,0],"split_type":[0,0,0,0,0,0,0,0,0,0,0,0,0,0,0,0,0,0,0,0,0,0,0,0,0,0,0,0,0,0,0,0,0,0,0,0,0,0,0,0,0,0,0,0,0,0,0,0,0,0,0,0,0,0,0,0,0,0,0,0,0,0,0,0,0,0,0,0,0,0,0,0,0,0,0,0,0,0,0,0,0,0,0,0,0,0,0,0,0,0,0,0,0,0,0,0,0,0,0,0,0,0,0,0,0,0,0,0,0,0,0,0,0,0,0,0,0,0,0,0,0,0,0,0,0,0,0,0,0,0,0,0,0,0,0,0,0,0,0,0,0,0,0,0,0,0,0,0,0,0,0,0,0,0,0,0,0,0,0,0,0,0,0,0,0,0,0,0,0,0,0,0,0,0,0,0,0,0,0,0,0,0,0,0,0,0,0,0,0,0,0,0,0,0,0,0,0,0,0,0,0,0,0,0,0,0,0,0,0,0,0,0,0,0,0,0,0,0,0,0,0,0,0,0,0,0,0,0,0,0,0,0,0,0,0,0,0,0,0,0,0,0,0,0,0,0,0,0,0,0,0,0,0,0,0,0,0,0,0,0,0,0,0,0,0,0,0,0,0,0,0],"sum_hessian":[1.24847E5,1.04863E5,1.9984E4,9.4916E4,9.947E3,6.423E3,1.3561E4,3.261E3,6.686E3,1.847E3,4.576E3,1.2353E4,1.208E3,1.018E3,2.243E3,1.576E3,5.11E3,9.19E2,9.28E2,1.085E3,3.491E3,3.083E3,9.27E3,1.169E3,3.9E1,3.96E2,6.22E2,1.337E3,9.06E2,1.496E3,8E1,2.237E3,2.873E3,2.63E2,6.56E2,6.05E2,3.23E2,9.59E2,1.26E2,2.214E3,1.277E3,2.335E3,7.48E2,6.017E3,3.253E3,5.2E1,1.117E3,3.2E1,7E0,4.3E1,3.53E2,3E1,5.92E2,1.06E2,1.231E3,1.04E2,8.02E2,1.321E3,1.75E2,2.5E1,5.5E1,6.26E2,1.611E3,2.862E3,1.1E1,4E0,2.59E2,2.5E1,6.31E2,1.09E2,4.96E2,3E0,3.2E2,4.6E1,9.13E2,1.17E2,9E0,1.31E3,9.04E2,5.1E2,7.67E2,1.403E3,9.32E2,6.78E2,7E1,4.651E3,1.366E3,3.234E3,1.9E1,3E0,4.9E1,8.99E2,2.18E2,1.8E1,1.4E1,3E1,3.23E2,5.28E2,6.4E1,6.3E1,1.168E3,5E1,5.4E1,6.8E1,7.34E2,8.81E2,4.4E2,2.7E1,1.48E2,6E0,1.9E1,4.5E1,1E1,6.3E1,5.63E2,7.57E2,8.54E2,3E0,2.859E3,2E0,9E0,5E0,2.54E2,5.33E2,9.8E1,6E1,4.9E1,8E0,4.88E2,2.46E2,7.4E1,9.01E2,1.2E1,2.7E1,1.283E3,5.44E2,3.6E2,5E0,5.05E2,6.88E2,7.9E1,1.222E3,1.81E2,9.2E2,1.2E1,7.2E1,6.06E2,5.1E1,1.9E1,1.934E3,2.717E3,1.48E2,1.218E3,1.05E2,3.129E3,4E0,1.5E1,2E0,4.7E1,2.15E2,6.84E2,8.4E1,1.34E2,1.6E1,2E0,1E1,4E0,7E0,2.3E1,2.4E1,2.99E2,2.3E1,5.05E2,3.8E1,2.6E1,2.8E1,3.5E1,3E0,5.1E1,3.6E1,3.2E1,7.25E2,9E0,5.43E2,3.38E2,1.71E2,2.69E2,1.9E1,8E0,2.8E1,1.2E2,3E0,3E0,8E0,2E0,2.2E1,4.1E1,2.02E2,3.61E2,7.4E1,6.83E2,2.77E2,5.77E2,8.7E1,2.772E3,2.52E2,2E0,1.9E1,7.9E1,2E0,5.8E1,2.22E2,2.66E2,1.04E2,1.42E2,3E0,9E0,1.098E3,1.85E2,1.1E1,5.33E2,2.85E2,7.5E1,4.1E2,9.5E1,6E0,6.82E2,5.1E1,2.8E1,7.78E2,4.44E2,1.5E1,1.66E2,8.58E2,6.2E1,5E0,7E0,1.5E1,5.7E1,3.41E2,2.65E2,1.5E1,3.6E1,8E0,1.1E1,1.6E1,1.918E3,1.982E3,7.35E2,3.4E1,1.14E2,9.35E2,2.83E2,9.2E1,1.3E1,3.124E3,5E0,2E0,2E0,3.8E1,9E0,8.7E1,1.28E2,7E1,6.14E2,7.7E1,7E0,1.25E2,9E0,1.4E1,2E0],"tree_param":{"num_deleted":"0","num_feature":"335","num_nodes":"271","size_leaf_vector":"1"}},{"base_weights":[9.381758E-4,-8.536585E-2,4.5288712E-1,-8.714665E-3,1.4027093E-1,1.3339626E0,3.4543883E-2,5.042517E-1,-3.9168824E-2,2.0332885E0,1.0487273E0,6.618336E-3,4.5699692E-1,7.2759056E-1,3.3409007E-2,4.9980413E-2,-6.608039E-2,1.4256182E0,2.637488E0,4.8482907E-1,1.2218243E0,1.15666784E-1,-3.0361518E-2,3.8078E-1,2.5097828E0,-8.767717E-3,7.995899E-1,4.7168428E-1,-1.0815348E-1,-9.721519E-3,3.573295E-1,-1.2188496E-2,-1.0569458E-1,1.9422491E0,1.2148085E0,2.284032E0,3.2589598E0,5.607749E-1,-7.388912E-2,1.0414642E0,1.5327878E0,2.4534278E-2,3.6559275E-1,1.0698153E-2,-1.049105E-1,7.348492E-1,1.4395516E-1,3.1829085E0,1.5131454E0,1.1084379E0,6.0315144E-1,2.1748756E-1,8.5210174E-1,-1.1112264E-1,3.027904E-1,-5.4123644E-2,1.08209886E-1,1.0261214E0,2.4781315E-1,1.244226E-1,-4.879218E-2,-1.07928954E-1,4.4941977E-1,-7.4695717E-3,1.9733276E0,-8.489362E-3,1.2664921E0,2.7771993E0,2.0305054E0,3.0711846E0,3.0991778E-1,-8.58104E-3,5.9333664E-1,4.416844E-2,-9.120279E-3,1.2172815E0,7.886093E-1,2.0271509E0,1.282083E0,-7.09528E-2,1.4993036E-1,2.7728373E-1,1.7959522E0,-4.0720325E-2,1.6602342E-1,-1.0601174E-1,1.0685005E-1,6.500718E-1,3.6486683E0,1.3709708E0,1.0490423E-1,3.7575274E0,1.202549E-1,-2.8531663E-2,1.8544979E0,6.5652966E-1,1.37808E0,6.038437E-1,9.056698E-3,3.942658E-1,-9.144804E-3,1.1906629E0,6.090103E-1,-1.3540524E-1,-8.72487E-3,4.2722557E-2,-8.516945E-3,8.5538365E-2,-7.684461E-2,1.2104836E0,5.586597E-2,1.219085E0,3.332174E-1,2.224256E-2,7.3132336E-1,4.9051085E-1,8.0367126E-2,6.830853E-4,-8.213171E-2,2.548672E-1,-1.08511224E-1,-8.138777E-3,4.558593E-2,1.9848818E0,5.7855967E-2,1.2825748E0,8.685918E-1,-7.872616E-3,2.8661842E0,-7.4498514E-3,2.0521913E0,3.5183315E0,2.7108784E0,5.958278E-1,3.7637892E-1,-8.543244E-3,1.2462837E0,5.6699973E-1,1.1225101E0,1.9182875E0,2.8558257E0,1.1204298E0,1.542752E0,8.6560124E-1,-7.439189E-2,7.961854E-1,1.06017336E-1,9.974895E-1,1.9083428E-1,1.2957387E0,4.260105E0,1.3076979E-2,-7.752551E-2,7.1210724E-1,9.623099E-2,1.7099552E-1,-1.0655729E-1,1.1056647E-1,-1.1114709E-2,2.2541618E-1,8.7985826E-1,3.3521286E-1,9.351705E-2,4.386721E-2,1.1642795E-1,-6.8694E-3,3.31343E-1,7.116958E-2,3.3937174E-1,1.6935241E-1,2.893125E-2,8.916808E-2,4.82561E-2,1.3664477E-1,1.0274033E-1,4.8420794E-2,3.482976E-2,-1.5353651E-2,4.110088E-2,1.0465009E-1,5.9256777E-2,1.2395651E-2,4.972507E-2,-1.253945E-2,-9.603997E-3,2.1317583E-2,-5.1475316E-3,-2.8422442E-3,-9.673869E-3,1.3516061E-1,1.0442035E-2,2.1521527E-2,-2.9604742E-3,1.0741691E-1,3.2526888E-2,-6.653824E-3,6.995987E-2,4.048516E-2,-6.350668E-3,5.1604293E-2,9.406473E-2,-5.195988E-3,5.0768163E-2,-3.338378E-3,1.2257401E-2,-2.5402834E-3,7.809122E-3,1.4452071E-2,-6.7717778E-3,-8.873326E-3,4.285562E-2,9.636515E-3,-8.7029645E-3,1.5941942E-1,5.1357727E-2,1.0324533E-1,4.8155088E-2,1.00390896E-1,4.6741426E-2,2.30848E-1,5.2935764E-2,1.5682516E-1,1.9985385E-1,2.8523242E-1,1.0659635E-1,2.205353E-1,-3.6227617E-2,4.7788266E-2,2.5374815E-2,-1.625898E-2,4.5647E-2,1.0252211E-1,8.2430094E-2,-8.227059E-3,4.6464756E-2,1.0086517E-1,4.7250923E-2,1.5882924E-1,7.346519E-2,2.3503673E-1,5.1560134E-2,9.975408E-2,2.9453637E-2,1.4890178E-1,1.0777775E-1,-7.13341E-3,1.2254691E-1,-7.909269E-3,3.7210717E-4,8.459102E-2,2.185868E-2,2.0532433E-2,-2.8807737E-3,1.3053682E-1,5.603333E-2,1.7801881E-3,4.0889475E-2,1.5890652E-1,4.974131E-4,1.3568121E-1,3.865706E-1,-7.4723093E-3,5.4945336E-3,-8.616272E-3,-5.0481386E-3,-2.6886608E-3,7.104985E-2,-6.31406E-4,3.6404513E-2,-8.54679E-3,4.6163812E-2,-4.192548E-3,-8.660293E-3,1.2576889E-1,6.3524717E-3,1.4444296E-1,4.938352E-2,-5.5898833E-3,3.193234E-2,1.1422588E-1,8.225717E-3],"categories":[],"categories_nodes":[],"categories_segments":[],"categories_sizes":[],"default_left":[0,0,0,0,0,0,0,0,0,0,0,0,0,0,0,0,0,0,0,0,0,0,0,0,0,0,0,0,0,0,0,0,0,0,0,0,0,0,0,0,0,0,0,0,0,0,0,0,0,0,0,0,0,0,0,0,0,0,0,0,0,0,0,0,0,0,0,0,0,0,0,0,0,0,0,0,0,0,0,0,0,0,0,0,0,0,0,0,0,0,0,0,0,0,0,0,0,0,0,0,0,0,0,0,0,0,0,0,0,0,0,0,0,0,0,0,0,0,0,0,0,0,0,0,0,0,0,0,0,0,0,0,0,0,0,0,0,0,0,0,0,0,0,0,0,0,0,0,0,0,0,0,0,0,0,0,0,0,0,0,0,0,0,0,0,0,0,0,0,0,0,0,0,0,0,0,0,0,0,0,0,0,0,0,0,0,0,0,0,0,0,0,0,0,0,0,0,0,0,0,0,0,0,0,0,0,0,0,0,0,0,0,0,0,0,0,0,0,0,0,0,0,0,0,0,0,0,0,0,0,0,0,0,0,0,0,0,0,0,0,0,0,0,0,0,0,0,0,0,0,0,0,0,0,0,0,0,0,0,0,0,0,0,0,0,0,0,0,0,0,0,0,0,0,0,0,0,0,0,0,0],"id":4,"left_children":[1,3,5,-1,7,9,11,13,15,17,19,21,23,25,27,29,31,33,35,37,39,41,43,45,47,-1,49,51,53,55,57,59,61,63,65,67,69,71,73,75,77,79,81,83,85,87,89,91,93,95,97,99,101,103,105,107,109,111,113,115,117,119,121,-1,123,-1,125,127,129,131,-1,-1,133,-1,-1,135,137,139,141,143,145,147,149,151,153,155,157,159,161,163,165,167,-1,-1,169,171,173,175,-1,177,-1,179,181,183,-1,-1,-1,185,187,189,191,193,195,197,199,201,203,205,207,209,211,-1,-1,213,-1,215,217,-1,219,-1,221,223,225,227,229,-1,231,233,235,237,239,241,243,245,247,249,251,253,255,257,259,261,263,265,267,269,271,-1,-1,273,275,-1,-1,-1,-1,277,279,-1,-1,-1,-1,-1,-1,-1,-1,-1,-1,-1,-1,-1,-1,-1,-1,-1,-1,-1,-1,-1,-1,-1,-1,-1,-1,-1,-1,-1,-1,-1,-1,-1,-1,-1,-1,-1,-1,-1,-1,-1,-1,-1,-1,-1,-1,-1,-1,-1,-1,-1,-1,-1,-1,-1,-1,-1,-1,-1,-1,-1,-1,-1,-1,-1,-1,-1,-1,-1,-1,-1,-1,-1,-1,-1,-1,-1,-1,-1,-1,-1,-1,-1,-1,-1,-1,-1,-1,-1,-1,-1,-1,-1,-1,-1,-1,-1,-1,-1,-1,-1,-1,-1,-1,-1,-1,-1,-1,-1,-1,-1,-1,-1,-1],"loss_changes":[4.8774204E3,5.583509E2,7.390222E3,0E0,6.485741E2,1.2854609E3,1.6039215E2,3.447871E2,1.596242E1,6.8245166E2,4.4714062E2,5.1435238E1,1.3093758E2,1.3414331E2,6.556878E1,2.83165E1,1.0907967E1,9.936316E1,1.9816113E2,4.5825897E1,1.9520752E2,7.355874E1,2.9156734E1,6.815005E1,1.5309677E1,0E0,1.23582886E2,2.47635E1,1.0085516E0,6.776529E0,1.8129868E1,1.0837088E1,3.7013016E0,1.720227E1,4.5602295E1,6.9379395E1,2.7020508E1,2.0728485E1,3.3274212E0,9.7910645E1,1.5678662E2,2.8364372E1,1.0851071E2,4.9068375E1,8.0023956E-1,7.8158615E1,2.3287155E1,1.0760132E1,9.597004E0,9.596875E1,3.569336E-1,9.195187E0,7.7519073E0,2.498436E-2,6.246707E-1,2.9894335E0,2.0357227E1,4.2734604E0,2.365099E1,7.347291E0,2.8190212E0,6.474495E-1,8.5430765E-1,0E0,2.392334E0,0E0,2.987915E0,5.1714966E1,1.8612305E1,3.2833984E1,0E0,0E0,2.6541138E-1,0E0,0E0,5.0438232E1,6.706952E1,3.340332E1,3.4341675E1,4.3964934E0,2.89757E1,5.0490414E1,5.6110138E1,9.140786E0,5.8167397E1,5.268936E-1,5.8337793E0,3.0832138E1,7.186531E0,2.4315834E-1,1.202447E1,1.2904236E1,0E0,0E0,3.9352837E0,6.6316986E0,1.3193909E1,3.5186768E-2,0E0,7.2433395E0,0E0,1.250885E0,2.570839E-1,1.8668175E-4,0E0,0E0,0E0,3.5967817E0,1.4690409E0,8.056692E0,6.720778E0,2.1661263E0,2.1011913E0,7.366331E0,1.8873901E0,3.963029E0,3.6532626E0,2.1693935E0,6.902051E-1,5.7302916E-1,1.9815445E-1,0E0,0E0,1.4864502E0,0E0,2.5631714E0,2.3421268E0,0E0,6.4368896E0,0E0,1.13289795E1,6.979492E0,2.2989258E1,1.9058228E-1,1.5793278E0,0E0,8.434692E0,5.165863E0,2.6031311E1,2.393396E1,6.8244324E0,5.0164978E1,1.7733582E1,3.3170931E0,2.594627E0,8.589844E0,2.0548134E1,1.5248779E1,3.929635E1,3.8280617E1,3.5384674E0,1.1113901E1,1.1863041E0,2.273745E1,5.0666714E1,8.513441E-1,3.029747E-1,0E0,0E0,2.2094503E1,4.8953796E1,0E0,0E0,0E0,0E0,8.188285E0,3.9192585E1,0E0,0E0,0E0,0E0,0E0,0E0,0E0,0E0,0E0,0E0,0E0,0E0,0E0,0E0,0E0,0E0,0E0,0E0,0E0,0E0,0E0,0E0,0E0,0E0,0E0,0E0,0E0,0E0,0E0,0E0,0E0,0E0,0E0,0E0,0E0,0E0,0E0,0E0,0E0,0E0,0E0,0E0,0E0,0E0,0E0,0E0,0E0,0E0,0E0,0E0,0E0,0E0,0E0,0E0,0E0,0E0,0E0,0E0,0E0,0E0,0E0,0E0,0E0,0E0,0E0,0E0,0E0,0E0,0E0,0E0,0E0,0E0,0E0,0E0,0E0,0E0,0E0,0E0,0E0,0E0,0E0,0E0,0E0,0E0,0E0,0E0,0E0,0E0,0E0,0E0,0E0,0E0,0E0,0E0,0E0,0E0,0E0,0E0,0E0,0E0,0E0,0E0,0E0,0E0,0E0,0E0,0E0,0E0,0E0,0E0,0E0,0E0,0E0,0E0],"parents":[2147483647,0,0,1,1,2,2,4,4,5,5,6,6,7,7,8,8,9,9,10,10,11,11,12,12,13,13,14,14,15,15,16,16,17,17,18,18,19,19,20,20,21,21,22,22,23,23,24,24,26,26,27,27,28,28,29,29,30,30,31,31,32,32,33,33,34,34,35,35,36,36,37,37,38,38,39,39,40,40,41,41,42,42,43,43,44,44,45,45,46,46,47,47,48,48,49,49,50,50,51,51,52,52,53,53,54,54,55,55,56,56,57,57,58,58,59,59,60,60,61,61,62,62,64,64,66,66,67,67,68,68,69,69,72,72,75,75,76,76,77,77,78,78,79,79,80,80,81,81,82,82,83,83,84,84,85,85,86,86,87,87,88,88,89,89,90,90,91,91,94,94,95,95,96,96,97,97,99,99,101,101,102,102,103,103,107,107,108,108,109,109,110,110,111,111,112,112,113,113,114,114,115,115,116,116,117,117,118,118,119,119,120,120,123,123,125,125,126,126,128,128,130,130,131,131,132,132,133,133,134,134,136,136,137,137,138,138,139,139,140,140,141,141,142,142,143,143,144,144,145,145,146,146,147,147,148,148,149,149,150,150,151,151,152,152,153,153,154,154,155,155,156,156,159,159,160,160,165,165,166,166],"right_children":[2,4,6,-1,8,10,12,14,16,18,20,22,24,26,28,30,32,34,36,38,40,42,44,46,48,-1,50,52,54,56,58,60,62,64,66,68,70,72,74,76,78,80,82,84,86,88,90,92,94,96,98,100,102,104,106,108,110,112,114,116,118,120,122,-1,124,-1,126,128,130,132,-1,-1,134,-1,-1,136,138,140,142,144,146,148,150,152,154,156,158,160,162,164,166,168,-1,-1,170,172,174,176,-1,178,-1,180,182,184,-1,-1,-1,186,188,190,192,194,196,198,200,202,204,206,208,210,212,-1,-1,214,-1,216,218,-1,220,-1,222,224,226,228,230,-1,232,234,236,238,240,242,244,246,248,250,252,254,256,258,260,262,264,266,268,270,272,-1,-1,274,276,-1,-1,-1,-1,278,280,-1,-1,-1,-1,-1,-1,-1,-1,-1,-1,-1,-1,-1,-1,-1,-1,-1,-1,-1,-1,-1,-1,-1,-1,-1,-1,-1,-1,-1,-1,-1,-1,-1,-1,-1,-1,-1,-1,-1,-1,-1,-1,-1,-1,-1,-1,-1,-1,-1,-1,-1,-1,-1,-1,-1,-1,-1,-1,-1,-1,-1,-1,-1,-1,-1,-1,-1,-1,-1,-1,-1,-1,-1,-1,-1,-1,-1,-1,-1,-1,-1,-1,-1,-1,-1,-1,-1,-1,-1,-1,-1,-1,-1,-1,-1,-1,-1,-1,-1,-1,-1,-1,-1,-1,-1,-1,-1,-1,-1,-1,-1,-1,-1,-1],"split_conditions":[5E1,1E1,1E0,-8.714665E-3,1E0,3.5E1,8.108E-1,5.938E-1,2.5E1,7.2E1,7E1,3.6E1,1.57E2,1E0,3.6E1,7E0,5.143E-1,2.4E1,9.7E1,4.9E1,1.05E2,1.4E1,1.3E1,3E1,8E0,-8.767717E-3,2.5E1,3.4E1,1E0,5.1E1,4.7E1,4.8E-1,8.14E-1,5.667E-1,1E0,2.4E1,1.26E2,1E0,5.567E-1,4.8E1,4.8E1,9.8E1,1.25E2,1E0,4.05E2,1.87E2,1.09E2,3.5E1,9E0,3E1,1.2E1,2.5E1,2.4E1,1.65E2,1E0,4.074E-1,7.9E1,6E0,8.1E1,1E0,6.4E-1,4E1,1.7E1,-7.4695717E-3,1.3E2,-8.489362E-3,6.222E-1,6.735E-1,4.909E-1,2.5E1,3.0991778E-1,-8.58104E-3,1E0,4.416844E-2,-9.120279E-3,1E0,9.6E1,1.39E2,1.38E2,1.1E1,1.55E2,9E0,4.271E-1,4.167E-1,1.45E2,3.65E2,4.05E2,6.5E1,1.92E2,1E0,1.04E2,1E0,1.202549E-1,-2.8531663E-2,1.4E1,1.1E1,1.8E1,1E1,9.056698E-3,1.8E1,-9.144804E-3,1.62E2,3.69E2,4.9E1,-8.72487E-3,4.2722557E-2,-8.516945E-3,2.6E1,2.5E1,4.2E1,1.1E1,1E0,5.57E2,3.7E1,3.5E1,4E0,1E0,1.657E-1,3.53E2,3.4E0,2.6E1,-8.138777E-3,4.558593E-2,6.94E2,5.7855967E-2,1.85E2,3E1,-7.872616E-3,1.449E3,-7.4498514E-3,9.2E1,1E0,3.5E1,1.8E1,1.3E2,-8.543244E-3,2.1E1,1E0,5.5E1,2.57E2,4.1E1,6.7E1,6.7E1,1E0,8.3E1,1.3E1,3.556E-1,2.5E1,8.7E1,4.9E1,2.01E2,1E0,1E0,7.1E1,1.31E2,2.1E1,1.2E1,1.1056647E-1,-1.1114709E-2,6.6E1,8.7E1,3.3521286E-1,9.351705E-2,4.386721E-2,1.1642795E-1,1E0,2.17E2,7.116958E-2,3.3937174E-1,1.6935241E-1,2.893125E-2,8.916808E-2,4.82561E-2,1.3664477E-1,1.0274033E-1,4.8420794E-2,3.482976E-2,-1.5353651E-2,4.110088E-2,1.0465009E-1,5.9256777E-2,1.2395651E-2,4.972507E-2,-1.253945E-2,-9.603997E-3,2.1317583E-2,-5.1475316E-3,-2.8422442E-3,-9.673869E-3,1.3516061E-1,1.0442035E-2,2.1521527E-2,-2.9604742E-3,1.0741691E-1,3.2526888E-2,-6.653824E-3,6.995987E-2,4.048516E-2,-6.350668E-3,5.1604293E-2,9.406473E-2,-5.195988E-3,5.0768163E-2,-3.338378E-3,1.2257401E-2,-2.5402834E-3,7.809122E-3,1.4452071E-2,-6.7717778E-3,-8.873326E-3,4.285562E-2,9.636515E-3,-8.7029645E-3,1.5941942E-1,5.1357727E-2,1.0324533E-1,4.8155088E-2,1.00390896E-1,4.6741426E-2,2.30848E-1,5.2935764E-2,1.5682516E-1,1.9985385E-1,2.8523242E-1,1.0659635E-1,2.205353E-1,-3.6227617E-2,4.7788266E-2,2.5374815E-2,-1.625898E-2,4.5647E-2,1.0252211E-1,8.2430094E-2,-8.227059E-3,4.6464756E-2,1.0086517E-1,4.7250923E-2,1.5882924E-1,7.346519E-2,2.3503673E-1,5.1560134E-2,9.975408E-2,2.9453637E-2,1.4890178E-1,1.0777775E-1,-7.13341E-3,1.2254691E-1,-7.909269E-3,3.7210717E-4,8.459102E-2,2.185868E-2,2.0532433E-2,-2.8807737E-3,1.3053682E-1,5.603333E-2,1.7801881E-3,4.0889475E-2,1.5890652E-1,4.974131E-4,1.3568121E-1,3.865706E-1,-7.4723093E-3,5.4945336E-3,-8.616272E-3,-5.0481386E-3,-2.6886608E-3,7.104985E-2,-6.31406E-4,3.6404513E-2,-8.54679E-3,4.6163812E-2,-4.192548E-3,-8.660293E-3,1.2576889E-1,6.3524717E-3,1.4444296E-1,4.938352E-2,-5.5898833E-3,3.193234E-2,1.1422588E-1,8.225717E-3],"split_indices":[23,23,26,0,26,28,14,21,28,23,23,28,23,18,28,27,21,28,23,27,23,27,25,28,25,0,28,23,295,20,10,14,14,14,18,28,23,18,21,28,28,20,23,18,19,20,10,28,25,23,25,28,28,10,5,14,10,25,20,25,14,9,8,0,9,0,21,14,14,28,0,0,187,0,0,18,23,23,23,28,10,17,21,14,10,30,29,23,9,0,23,6,0,0,25,28,28,25,0,23,0,20,29,12,0,0,0,9,23,9,17,37,29,9,27,20,0,21,29,3,12,0,0,29,0,10,28,0,7,0,23,271,8,25,20,0,8,18,28,22,8,12,12,0,20,8,14,28,23,27,22,0,0,23,23,8,8,0,0,22,9,0,0,0,0,135,10,0,0,0,0,0,0,0,0,0,0,0,0,0,0,0,0,0,0,0,0,0,0,0,0,0,0,0,0,0,0,0,0,0,0,0,0,0,0,0,0,0,0,0,0,0,0,0,0,0,0,0,0,0,0,0,0,0,0,0,0,0,0,0,0,0,0,0,0,0,0,0,0,0,0,0,0,0,0,0,0,0,0,0,0,0,0,0,0,0,0,0,0,0,0,0,0,0,0,0,0,0,0,0,0,0,0,0,0,0,0,0,0,0,0],"split_type":[0,0,0,0,0,0,0,0,0,0,0,0,0,0,0,0,0,0,0,0,0,0,0,0,0,0,0,0,0,0,0,0,0,0,0,0,0,0,0,0,0,0,0,0,0,0,0,0,0,0,0,0,0,0,0,0,0,0,0,0,0,0,0,0,0,0,0,0,0,0,0,0,0,0,0,0,0,0,0,0,0,0,0,0,0,0,0,0,0,0,0,0,0,0,0,0,0,0,0,0,0,0,0,0,0,0,0,0,0,0,0,0,0,0,0,0,0,0,0,0,0,0,0,0,0,0,0,0,0,0,0,0,0,0,0,0,0,0,0,0,0,0,0,0,0,0,0,0,0,0,0,0,0,0,0,0,0,0,0,0,0,0,0,0,0,0,0,0,0,0,0,0,0,0,0,0,0,0,0,0,0,0,0,0,0,0,0,0,0,0,0,0,0,0,0,0,0,0,0,0,0,0,0,0,0,0,0,0,0,0,0,0,0,0,0,0,0,0,0,0,0,0,0,0,0,0,0,0,0,0,0,0,0,0,0,0,0,0,0,0,0,0,0,0,0,0,0,0,0,0,0,0,0,0,0,0,0,0,0,0,0,0,0,0,0,0,0,0,0,0,0,0,0,0,0,0,0,0,0,0,0],"sum_hessian":[1.25044E5,1.04995E5,2.0049E4,9.5066E4,9.929E3,6.454E3,1.3595E4,3.278E3,6.651E3,1.868E3,4.586E3,1.2753E4,8.42E2,2.223E3,1.055E3,1.542E3,5.109E3,9.33E2,9.35E2,1.078E3,3.508E3,3.229E3,9.524E3,8.13E2,2.9E1,1.76E2,2.047E3,2.57E2,7.98E2,1.292E3,2.5E2,2.165E3,2.944E3,2.68E2,6.65E2,5.99E2,3.36E2,9.49E2,1.29E2,2.223E3,1.285E3,2.367E3,8.62E2,6.142E3,3.382E3,3.25E2,4.88E2,1.6E1,1.3E1,7.94E2,1.253E3,1.55E2,1.02E2,7.93E2,5E0,9.39E2,3.53E2,3.4E1,2.16E2,4.57E2,1.708E3,2.933E3,1.1E1,4E0,2.64E2,2.5E1,6.4E2,2E2,3.99E2,2.62E2,7.4E1,4.4E1,9.05E2,7E0,1.22E2,1.309E3,9.14E2,4.3E2,8.55E2,1.344E3,1.023E3,8.13E2,4.9E1,4.615E3,1.527E3,3.365E3,1.7E1,3.17E2,8E0,1.4E1,4.74E2,1.1E1,5E0,2E0,1.1E1,2.98E2,4.96E2,1.251E3,2E0,1.01E2,5.4E1,4.1E1,6.1E1,5.7E1,7.36E2,3E0,2E0,1.31E2,8.08E2,1.5E1,3.38E2,2.6E1,8E0,1.48E2,6.8E1,4.8E1,4.09E2,6.88E2,1.02E3,4E0,2.929E3,2E0,9E0,2.61E2,3E0,6.13E2,2.7E1,6E0,1.94E2,4E0,3.95E2,1.13E2,1.49E2,8.93E2,1.2E1,2.8E1,1.281E3,5.51E2,3.63E2,3.83E2,4.7E1,5.31E2,3.24E2,4E0,1.34E3,6.4E1,9.59E2,8.6E1,7.27E2,4.2E1,7E0,1.875E3,2.74E3,1.72E2,1.355E3,6E0,3.359E3,2E0,1.5E1,1.12E2,2.05E2,6E0,2E0,2E0,1.2E1,3.18E2,1.56E2,2E0,9E0,9E0,2E0,2.9E1,2.69E2,1.06E2,3.9E2,1.238E3,1.3E1,1.7E1,8.4E1,3.1E1,1E1,2E0,5.9E1,2E1,3.7E1,5.9E1,7.2E1,4.18E2,3.9E2,1E1,5E0,1.02E2,2.36E2,2.2E1,4E0,5E0,3E0,2.5E1,1.23E2,5.9E1,9E0,1E1,3.8E1,1.53E2,2.56E2,5.16E2,1.72E2,9E0,1.011E3,2E0,2E0,3E0,2.926E3,2.59E2,2E0,6.05E2,8E0,1E1,1.7E1,1.92E2,2E0,3.32E2,6.3E1,1.1E2,3E0,1.47E2,2E0,8.87E2,6E0,3E0,9E0,1.097E3,1.84E2,1.1E1,5.4E2,2.87E2,7.6E1,3.58E2,2.5E1,4.5E1,2E0,4.54E2,7.7E1,1.2E2,2.04E2,2E0,2E0,1.023E3,3.17E2,4.2E1,2.2E1,4.65E2,4.94E2,2.6E1,6E1,4.77E2,2.5E2,2.7E1,1.5E1,2E0,5E0,6.43E2,1.232E3,8.84E2,1.856E3,3.3E1,1.39E2,1.051E3,3.04E2,4E0,2E0,1.03E2,3.256E3,1E1,1.02E2,4.4E1,1.61E2,2.76E2,4.2E1,2.6E1,1.3E2],"tree_param":{"num_deleted":"0","num_feature":"335","num_nodes":"281","size_leaf_vector":"1"}},{"base_weights":[5.284341E-5,-9.146619E-2,3.5504085E-1,-8.017489E-3,-3.670847E-2,-9.811547E-2,6.169629E-1,5.906835E-3,-6.2104605E-2,-8.016723E-3,2.0845805E-1,1.0858849E0,3.803599E-1,-4.8895996E-2,9.2829615E-2,-4.9951423E-2,-1.0460819E-1,4.9884495E-1,-1.5921046E-1,8.1536585E-1,1.5891082E0,1.394176E-1,7.8213406E-1,8.9080945E-2,-9.549455E-2,-3.497298E-2,1.5323856E-1,1.9388838E-2,-6.814872E-2,-1.0646996E-1,7.646623E-2,2.7470496E-1,4.1462235E-2,-1.4666602E-2,-8.780784E-3,5.499887E-1,9.3568695E-1,1.2399393E0,2.0720956E0,5.395283E-1,-6.406773E-3,6.362578E-1,9.789219E-1,5.144978E-2,5.563661E-1,-9.724936E-2,7.840744E-2,-8.605534E-2,1.7043626E-1,1.3394678E0,1.2605977E-1,6.124861E-1,1.1593546E-2,-7.508751E-2,-1.7346056E-2,-1.07379735E-1,7.521562E-2,4.7494967E-2,-1.3985376E-2,2.9875316E-2,6.7520104E-3,1.0130185E0,4.8252305E-1,1.2463479E0,7.773763E-1,1.4864836E0,3.4310448E-1,2.4626791E0,1.656104E0,3.6298296E-1,8.5822946E-1,-1.0068047E-1,9.429109E-2,7.1983343E-1,2.73151E-1,1.1963357E0,7.306217E-1,-5.911307E-2,1.10663146E-1,9.026296E-1,1.3788952E-2,-1.100492E-1,-7.998183E-2,6.861604E-1,-1.2983751E-2,-2.2708286E-2,-1.4499725E-1,1.0715653E0,-2.85771E-2,1.8881413E0,7.413696E-1,1.9786075E-1,-1.3311474E-3,9.7216046E-1,-7.3277154E-3,7.815784E-3,1.0428706E0,-1.1464109E-1,-6.7664035E-2,4.9415362E-1,-2.3813756E-2,-1.0829808E-1,7.5179726E-2,-9.789043E-3,4.616161E-2,4.2300995E-2,-9.19012E-3,1.1779888E0,6.722841E-1,5.4603124E-1,2.986788E-1,2.783999E0,1.2181629E0,1.7465372E-1,8.8591486E-1,1.1554048E0,2.0583103E0,1.4516655E-1,2.637795E0,2.1797564E0,3.0598776E0,1.3085936E0,2.1722898E0,5.146005E-1,1.2107217E-1,5.489586E-1,9.3872815E-1,-3.797192E-2,-1.0298007E-1,4.1960475E-1,-2.7009472E-2,6.4207876E-1,1.1842711E0,-9.8443665E-2,4.030542E-1,1.475929E0,1.0287355E0,4.781653E-1,1.0914634E0,-6.694998E-3,8.362201E-3,6.767159E-2,6.8057464E-3,9.527398E-2,2.407674E-2,-1.163609E-2,5.1839318E-2,-8.9134015E-3,4.2660046E-2,5.8903478E-2,-7.7328812E-3,1.0808819E-1,-1.202574E-2,-4.892731E-3,2.6969003E-2,1.198771E-3,-1.2267429E-2,5.1027965E-2,1.2572885E-1,-8.923339E-3,1.5415499E-2,4.384817E-2,1.7419808E-1,6.973389E-2,-9.107133E-3,1.4181286E-2,7.132415E-2,1.6473949E-2,-3.7624186E-3,-1.0008273E-2,1.0814524E-1,-5.9803934E-3,3.8805855E-3,-7.764626E-3,1.4681405E-1,3.0215052E-3,-9.360973E-3,9.3114525E-3,-5.8724475E-3,5.1374752E-2,2.2151858E-2,4.6884723E-2,-2.1351394E-3,-7.989347E-3,-1.0320199E-2,-9.745225E-3,4.6035193E-2,1.1469182E-1,7.7343754E-2,2.6921622E-2,9.0042196E-2,1.2063521E-2,4.3842513E-2,2.837853E-2,-7.681449E-3,5.3107567E-2,2.4656299E-1,7.572677E-2,1.0113243E-1,4.030249E-2,-1.4909191E-2,9.66681E-2,5.8970552E-2,1.2767589E-1,4.2164553E-2,2.026268E-1,1.4234811E-1,-6.8214075E-3,7.2011895E-2,3.4775198E-2,2.297131E-1,1.965066E-1,1.03550926E-1,3.1969807E-1,2.1118924E-1,1.4975289E-1,2.3398519E-2,6.6842325E-2,2.1293958E-1,4.275148E-2,-8.262677E-3,-6.2877205E-3,2.1973645E-2,7.25566E-2,2.728137E-2,8.568036E-2,6.096818E-2,-9.014142E-3,2.5913477E-2,1.1787682E-3,-8.265704E-3,9.786612E-4,4.2189434E-2,1.0200364E-2,-7.848169E-3,5.6701105E-2,-1.0816386E-2,2.8729638E-2,9.7170115E-2,-1.4921056E-2,2.12301E-3,-1.6679907E-3,4.3930605E-2,6.783001E-2,1.3834852E-1,5.1694725E-2,8.846518E-2,6.414188E-2,2.206172E-3,6.890065E-2,1.4423735E-1],"categories":[],"categories_nodes":[],"categories_segments":[],"categories_sizes":[],"default_left":[0,0,0,0,0,0,0,0,0,0,0,0,0,0,0,0,0,0,0,0,0,0,0,0,0,0,0,0,0,0,0,0,0,0,0,0,0,0,0,0,0,0,0,0,0,0,0,0,0,0,0,0,0,0,0,0,0,0,0,0,0,0,0,0,0,0,0,0,0,0,0,0,0,0,0,0,0,0,0,0,0,0,0,0,0,0,0,0,0,0,0,0,0,0,0,0,0,0,0,0,0,0,0,0,0,0,0,0,0,0,0,0,0,0,0,0,0,0,0,0,0,0,0,0,0,0,0,0,0,0,0,0,0,0,0,0,0,0,0,0,0,0,0,0,0,0,0,0,0,0,0,0,0,0,0,0,0,0,0,0,0,0,0,0,0,0,0,0,0,0,0,0,0,0,0,0,0,0,0,0,0,0,0,0,0,0,0,0,0,0,0,0,0,0,0,0,0,0,0,0,0,0,0,0,0,0,0,0,0,0,0,0,0,0,0,0,0,0,0,0,0,0,0,0,0,0,0,0,0,0,0,0,0,0,0,0,0,0,0,0,0,0,0,0,0,0,0,0,0,0,0],"id":5,"left_children":[1,3,5,-1,7,9,11,13,15,-1,17,19,21,23,25,27,29,31,33,35,37,39,41,43,45,47,49,51,53,55,57,59,-1,-1,-1,61,63,65,67,69,71,73,75,77,79,81,83,85,87,89,91,93,95,97,99,101,103,-1,105,-1,-1,107,109,111,113,115,117,119,121,123,125,127,129,131,133,135,137,139,141,143,145,147,149,151,-1,153,155,157,159,161,163,165,167,169,-1,171,173,175,177,179,181,183,185,-1,-1,-1,-1,187,189,191,193,195,197,199,201,203,205,207,209,211,213,215,217,219,221,223,225,227,229,231,233,235,237,239,241,243,245,247,249,-1,-1,-1,-1,-1,-1,-1,-1,-1,-1,-1,-1,-1,-1,-1,-1,-1,-1,-1,-1,-1,-1,-1,-1,-1,-1,-1,-1,-1,-1,-1,-1,-1,-1,-1,-1,-1,-1,-1,-1,-1,-1,-1,-1,-1,-1,-1,-1,-1,-1,-1,-1,-1,-1,-1,-1,-1,-1,-1,-1,-1,-1,-1,-1,-1,-1,-1,-1,-1,-1,-1,-1,-1,-1,-1,-1,-1,-1,-1,-1,-1,-1,-1,-1,-1,-1,-1,-1,-1,-1,-1,-1,-1,-1,-1,-1,-1,-1,-1,-1,-1,-1,-1,-1,-1,-1,-1,-1,-1,-1,-1,-1],"loss_changes":[4.062157E3,4.7638428E1,3.0418904E3,0E0,1.4828466E1,6.0464325E0,1.8014995E3,2.4379955E1,4.429386E0,0E0,6.912453E0,7.4007666E2,1.0449913E3,2.019079E1,1.5284073E1,8.427656E0,6.513634E-1,1.4431E-2,1.447022E-2,1.1264722E2,3.1836035E2,3.9383826E2,1.1555298E2,1.3915873E1,7.238426E-1,6.6880803E0,4.316208E1,6.4147553E0,1.8634701E0,3.2031822E-1,9.439721E-1,6.2431663E-2,0E0,0E0,0E0,3.4123535E1,1.1888501E2,2.4425806E2,1.25417725E2,1.0113464E2,4.6981647E1,7.042059E1,9.203198E1,4.8184395E0,1.1072159E1,5.048523E-1,3.622292E0,1.9009438E0,2.2806385E1,8.445011E0,1.2028299E1,4.6473737E0,5.337051E0,1.3587742E0,2.1191082E0,3.233261E-1,1.0620646E0,0E0,1.0463943E0,0E0,0E0,7.077606E0,1.1150574E1,3.218982E1,1.056272E2,1.619513E2,1.0862662E2,6.2435303E1,6.693616E1,4.2557434E1,1.5467834E1,3.6467743E-1,9.444087E1,6.752771E1,2.1134254E1,4.1405273E1,7.290216E1,1.0422397E0,8.940685E0,5.886091E0,2.518022E0,1.231884E0,1.3590673E1,4.0965843E0,0E0,3.4379659E0,3.5477686E-1,3.985733E0,1.9490472E0,4.6223183E0,1.882225E0,1.185677E1,4.5085936E0,5.1680975E0,0E0,4.6000094E0,4.6939726E0,2.6966763E-1,4.1521587E0,7.94642E-2,1.1204599E0,3.1372643E-1,1.0555854E0,0E0,0E0,0E0,0E0,3.635315E0,6.926008E0,4.857788E-1,5.5871525E0,6.800438E0,8.895752E0,2.9561522E1,6.4832275E1,1.519607E2,3.7455566E1,3.8698906E1,8.530869E0,6.562964E1,4.018335E1,1.3396503E2,9.9190125E1,8.787247E0,1.3791874E1,9.740494E0,1.1052429E1,2.5237153E0,1.0053635E-1,2.852832E1,1.9170015E1,8.416925E1,6.326721E0,1.2597524E0,2.0074577E1,5.2809387E1,1.6269836E1,6.9385345E1,5.2662262E1,0E0,0E0,0E0,0E0,0E0,0E0,0E0,0E0,0E0,0E0,0E0,0E0,0E0,0E0,0E0,0E0,0E0,0E0,0E0,0E0,0E0,0E0,0E0,0E0,0E0,0E0,0E0,0E0,0E0,0E0,0E0,0E0,0E0,0E0,0E0,0E0,0E0,0E0,0E0,0E0,0E0,0E0,0E0,0E0,0E0,0E0,0E0,0E0,0E0,0E0,0E0,0E0,0E0,0E0,0E0,0E0,0E0,0E0,0E0,0E0,0E0,0E0,0E0,0E0,0E0,0E0,0E0,0E0,0E0,0E0,0E0,0E0,0E0,0E0,0E0,0E0,0E0,0E0,0E0,0E0,0E0,0E0,0E0,0E0,0E0,0E0,0E0,0E0,0E0,0E0,0E0,0E0,0E0,0E0,0E0,0E0,0E0,0E0,0E0,0E0,0E0,0E0,0E0,0E0,0E0,0E0,0E0,0E0,0E0,0E0,0E0,0E0],"parents":[2147483647,0,0,1,1,2,2,4,4,5,5,6,6,7,7,8,8,10,10,11,11,12,12,13,13,14,14,15,15,16,16,17,17,18,18,19,19,20,20,21,21,22,22,23,23,24,24,25,25,26,26,27,27,28,28,29,29,30,30,31,31,35,35,36,36,37,37,38,38,39,39,40,40,41,41,42,42,43,43,44,44,45,45,46,46,47,47,48,48,49,49,50,50,51,51,52,52,53,53,54,54,55,55,56,56,58,58,61,61,62,62,63,63,64,64,65,65,66,66,67,67,68,68,69,69,70,70,71,71,72,72,73,73,74,74,75,75,76,76,77,77,78,78,79,79,80,80,81,81,82,82,83,83,85,85,86,86,87,87,88,88,89,89,90,90,91,91,92,92,93,93,95,95,96,96,97,97,98,98,99,99,100,100,101,101,102,102,107,107,108,108,109,109,110,110,111,111,112,112,113,113,114,114,115,115,116,116,117,117,118,118,119,119,120,120,121,121,122,122,123,123,124,124,125,125,126,126,127,127,128,128,129,129,130,130,131,131,132,132,133,133,134,134,135,135,136,136,137,137,138,138],"right_children":[2,4,6,-1,8,10,12,14,16,-1,18,20,22,24,26,28,30,32,34,36,38,40,42,44,46,48,50,52,54,56,58,60,-1,-1,-1,62,64,66,68,70,72,74,76,78,80,82,84,86,88,90,92,94,96,98,100,102,104,-1,106,-1,-1,108,110,112,114,116,118,120,122,124,126,128,130,132,134,136,138,140,142,144,146,148,150,152,-1,154,156,158,160,162,164,166,168,170,-1,172,174,176,178,180,182,184,186,-1,-1,-1,-1,188,190,192,194,196,198,200,202,204,206,208,210,212,214,216,218,220,222,224,226,228,230,232,234,236,238,240,242,244,246,248,250,-1,-1,-1,-1,-1,-1,-1,-1,-1,-1,-1,-1,-1,-1,-1,-1,-1,-1,-1,-1,-1,-1,-1,-1,-1,-1,-1,-1,-1,-1,-1,-1,-1,-1,-1,-1,-1,-1,-1,-1,-1,-1,-1,-1,-1,-1,-1,-1,-1,-1,-1,-1,-1,-1,-1,-1,-1,-1,-1,-1,-1,-1,-1,-1,-1,-1,-1,-1,-1,-1,-1,-1,-1,-1,-1,-1,-1,-1,-1,-1,-1,-1,-1,-1,-1,-1,-1,-1,-1,-1,-1,-1,-1,-1,-1,-1,-1,-1,-1,-1,-1,-1,-1,-1,-1,-1,-1,-1,-1,-1,-1,-1],"split_conditions":[1E0,1E1,1.8E1,-8.017489E-3,4E-1,1E1,3.6E1,2.8E2,1.3E1,-8.016723E-3,2.9E1,7.2E1,2.52E2,8.5E1,1E0,4.889E-1,1E0,1.9E-2,9.1E1,3.6E1,1.37E2,1.41E2,1.08E2,1.03E2,1E0,4.792E-1,2E0,3.77E2,1E0,1E0,8E1,1.146E3,4.1462235E-2,-1.4666602E-2,-8.780784E-3,1.8E1,7.3E1,2.24E2,3E1,7.2E1,1.98E2,1.95E2,2.4E1,1E0,1.4E1,1.35E2,1.4E1,9.5E1,1.86E2,4.5E1,1.5E1,4.571E-1,2.31E2,2.77E-2,8E0,1E0,1.272E3,4.7494967E-2,4.074E-1,2.9875316E-2,6.7520104E-3,6E0,3.9E1,1.1E1,6.4E1,1.05E2,1.51E2,1.18E2,1.95E2,6E1,1E0,3.7E1,1.27E2,1.47E2,6.095E-1,4.8E1,2.01E2,1E0,2E0,6.095E2,6E0,1E0,1.48E2,2.727E-1,-1.2983751E-2,1.12E2,9.6E-1,1.63E2,2.31E2,1.095E3,7.371E-1,2.46E2,1.143E3,6.2E1,-7.3277154E-3,1E0,1E0,5E0,2.1E1,4E0,1.2E1,3.06E2,5.82E2,-9.789043E-3,4.616161E-2,4.2300995E-2,-9.19012E-3,1.1E1,4.1E1,4.375E-1,1E0,1E0,1E0,8.6E1,7.1E1,1.2E2,2.4E1,5.2E-1,7E1,1.48E2,2.83E2,2.04E2,4E2,5.075E-1,4.8E1,1.35E2,4.9E1,1.2E2,7E0,1.15E2,2.88E2,1.65E2,7.1E1,9.6E1,6.5E1,1.2E2,1E0,2.31E2,5.04E2,-6.694998E-3,8.362201E-3,6.767159E-2,6.8057464E-3,9.527398E-2,2.407674E-2,-1.163609E-2,5.1839318E-2,-8.9134015E-3,4.2660046E-2,5.8903478E-2,-7.7328812E-3,1.0808819E-1,-1.202574E-2,-4.892731E-3,2.6969003E-2,1.198771E-3,-1.2267429E-2,5.1027965E-2,1.2572885E-1,-8.923339E-3,1.5415499E-2,4.384817E-2,1.7419808E-1,6.973389E-2,-9.107133E-3,1.4181286E-2,7.132415E-2,1.6473949E-2,-3.7624186E-3,-1.0008273E-2,1.0814524E-1,-5.9803934E-3,3.8805855E-3,-7.764626E-3,1.4681405E-1,3.0215052E-3,-9.360973E-3,9.3114525E-3,-5.8724475E-3,5.1374752E-2,2.2151858E-2,4.6884723E-2,-2.1351394E-3,-7.989347E-3,-1.0320199E-2,-9.745225E-3,4.6035193E-2,1.1469182E-1,7.7343754E-2,2.6921622E-2,9.0042196E-2,1.2063521E-2,4.3842513E-2,2.837853E-2,-7.681449E-3,5.3107567E-2,2.4656299E-1,7.572677E-2,1.0113243E-1,4.030249E-2,-1.4909191E-2,9.66681E-2,5.8970552E-2,1.2767589E-1,4.2164553E-2,2.026268E-1,1.4234811E-1,-6.8214075E-3,7.2011895E-2,3.4775198E-2,2.297131E-1,1.965066E-1,1.03550926E-1,3.1969807E-1,2.1118924E-1,1.4975289E-1,2.3398519E-2,6.6842325E-2,2.1293958E-1,4.275148E-2,-8.262677E-3,-6.2877205E-3,2.1973645E-2,7.25566E-2,2.728137E-2,8.568036E-2,6.096818E-2,-9.014142E-3,2.5913477E-2,1.1787682E-3,-8.265704E-3,9.786612E-4,4.2189434E-2,1.0200364E-2,-7.848169E-3,5.6701105E-2,-1.0816386E-2,2.8729638E-2,9.7170115E-2,-1.4921056E-2,2.12301E-3,-1.6679907E-3,4.3930605E-2,6.783001E-2,1.3834852E-1,5.1694725E-2,8.846518E-2,6.414188E-2,2.206172E-3,6.890065E-2,1.4423735E-1],"split_indices":[2,23,23,0,14,23,28,19,17,0,9,23,19,9,0,14,316,21,22,23,20,22,23,20,237,21,0,30,5,89,9,7,0,0,0,28,22,10,28,23,19,22,8,0,17,20,8,9,22,28,17,14,20,21,10,122,7,0,14,0,0,8,9,28,20,20,23,23,20,9,0,12,9,20,21,28,20,32,0,30,0,156,22,14,0,20,3,20,20,7,21,20,7,20,0,0,6,10,10,0,12,19,30,0,0,0,0,28,20,14,230,0,0,22,9,22,28,21,20,9,10,22,19,21,23,10,12,20,17,20,10,22,23,23,23,20,0,22,19,0,0,0,0,0,0,0,0,0,0,0,0,0,0,0,0,0,0,0,0,0,0,0,0,0,0,0,0,0,0,0,0,0,0,0,0,0,0,0,0,0,0,0,0,0,0,0,0,0,0,0,0,0,0,0,0,0,0,0,0,0,0,0,0,0,0,0,0,0,0,0,0,0,0,0,0,0,0,0,0,0,0,0,0,0,0,0,0,0,0,0,0,0,0,0,0,0,0,0,0,0,0,0,0,0,0,0,0,0,0,0,0],"split_type":[0,0,0,0,0,0,0,0,0,0,0,0,0,0,0,0,0,0,0,0,0,0,0,0,0,0,0,0,0,0,0,0,0,0,0,0,0,0,0,0,0,0,0,0,0,0,0,0,0,0,0,0,0,0,0,0,0,0,0,0,0,0,0,0,0,0,0,0,0,0,0,0,0,0,0,0,0,0,0,0,0,0,0,0,0,0,0,0,0,0,0,0,0,0,0,0,0,0,0,0,0,0,0,0,0,0,0,0,0,0,0,0,0,0,0,0,0,0,0,0,0,0,0,0,0,0,0,0,0,0,0,0,0,0,0,0,0,0,0,0,0,0,0,0,0,0,0,0,0,0,0,0,0,0,0,0,0,0,0,0,0,0,0,0,0,0,0,0,0,0,0,0,0,0,0,0,0,0,0,0,0,0,0,0,0,0,0,0,0,0,0,0,0,0,0,0,0,0,0,0,0,0,0,0,0,0,0,0,0,0,0,0,0,0,0,0,0,0,0,0,0,0,0,0,0,0,0,0,0,0,0,0,0,0,0,0,0,0,0,0,0,0,0,0,0,0,0,0,0,0,0],"sum_hessian":[1.25033E5,9.9406E4,2.5627E4,8.5706E4,1.37E4,9.387E3,1.624E4,5.116E3,8.584E3,9.324E3,6.3E1,5.445E3,1.0795E4,3.138E3,1.978E3,6.677E3,1.907E3,3.5E1,2.8E1,3.543E3,1.902E3,6.749E3,4.046E3,7.92E2,2.346E3,6.35E2,1.343E3,1.388E3,5.289E3,1.888E3,1.9E1,4E0,3.1E1,1.7E1,1.1E1,1.107E3,2.436E3,1.106E3,7.96E2,1.802E3,4.947E3,2.326E3,1.72E3,7.34E2,5.8E1,2.323E3,2.3E1,5.09E2,1.26E2,2.9E1,1.314E3,1.7E1,1.371E3,4.653E3,6.36E2,1.879E3,9E0,2E0,1.7E1,2E0,2E0,1.39E2,9.68E2,8.2E2,1.616E3,8.67E2,2.39E2,4.08E2,3.88E2,1.161E3,6.41E2,2.555E3,2.392E3,1.89E3,4.36E2,9.15E2,8.05E2,2.56E2,4.78E2,3.5E1,2.3E1,1.331E3,9.92E2,6E0,1.7E1,2.46E2,2.63E2,2.2E1,1.04E2,1.4E1,1.5E1,8.4E2,4.74E2,1.1E1,6E0,1.367E3,4E0,7.33E2,3.92E3,7E0,6.29E2,1.87E3,9E0,7E0,2E0,2E0,1.5E1,9.2E1,4.7E1,7.18E2,2.5E2,1.3E1,8.07E2,2.47E2,1.369E3,5.51E2,3.16E2,2.21E2,1.8E1,2.8E2,1.28E2,2.34E2,1.54E2,7.13E2,4.48E2,1.34E2,5.07E2,9.1E1,2.464E3,6.49E2,1.743E3,1.621E3,2.69E2,1.13E2,3.23E2,3.4E2,5.75E2,4.75E2,3.3E2,2.23E2,3.3E1,1.5E1,4.63E2,2.3E1,1.2E1,1.9E1,4E0,1.329E3,2E0,1.9E1,9.73E2,3E0,3E0,2.23E2,2.3E1,1.3E1,2.5E2,1.3E1,9E0,7.6E1,2.8E1,3E0,1.1E1,1.3E1,2E0,8.17E2,2.3E1,8.5E1,3.89E2,3E0,8E0,4.51E2,9.16E2,2E0,2E0,1.1E1,7.22E2,1.18E2,3.802E3,3E0,4E0,2E0,6.27E2,1.333E3,5.37E2,7E0,2E0,3.9E1,5.3E1,2.8E1,1.9E1,4E0,7.14E2,2.19E2,3.1E1,2E0,1.1E1,1.2E2,6.87E2,1.29E2,1.18E2,4.3E2,9.39E2,3.23E2,2.28E2,1.14E2,2.02E2,1.7E2,5.1E1,2E0,1.6E1,2.12E2,6.8E1,3.7E1,9.1E1,1.5E2,8.4E1,4.2E1,1.12E2,6.91E2,2.2E1,1.95E2,2.53E2,4.8E1,8.6E1,2.87E2,2.2E2,7.6E1,1.5E1,7E0,2.457E3,1.36E2,5.13E2,5.49E2,1.194E3,1.493E3,1.28E2,1E1,2.59E2,6.6E1,4.7E1,8.3E1,2.4E2,9.9E1,2.41E2,9.8E1,4.77E2,2.76E2,1.99E2,2.51E2,7.9E1],"tree_param":{"num_deleted":"0","num_feature":"335","num_nodes":"251","size_leaf_vector":"1"}},{"base_weights":[2.2274905E-4,-7.208675E-2,3.7954316E-1,-7.376112E-3,1.19700074E-1,1.1430495E0,1.725615E-2,4.3026584E-1,-3.4574594E-2,1.735563E0,9.038066E-1,-2.070688E-3,3.0832765E-1,6.1999285E-1,2.5813863E-2,4.7843284E-3,-7.6448314E-2,1.2298554E0,2.2361364E0,5.746819E-1,1.1342736E0,-4.812835E-3,1.0859408E0,2.4745375E-1,2.143416E0,-7.971116E-3,6.8145597E-1,4.1139245E-1,-9.85675E-2,-1.3753459E-2,2.1771556E-1,-8.4999554E-2,1.9736087E-1,1.7240527E0,1.0303131E0,1.9445788E0,2.777125E0,9.784425E-1,4.1436175E-1,1.7589144E0,1.076455E0,-2.5811166E-2,1.17687546E-1,-9.968369E-3,1.7259697E0,7.64082E-1,1.5330012E-1,2.7973158E0,1.3364148E0,9.493154E-1,5.090544E-1,1.8985268E-1,7.272811E-1,-1.0134333E-1,2.8565812E-1,1.03337824E-1,-3.4771435E-2,8.0912524E-1,1.3926135E-1,6.205178E-2,-9.185648E-2,-7.586975E-2,5.208518E-1,-6.37109E-3,1.7450899E0,-7.6544653E-3,1.0822141E0,2.598776E0,1.7913083E0,2.68709E0,3.3227482E-1,4.8228276E-1,1.0719845E0,4.6468088E-1,7.655971E-2,1.5987592E0,2.6210084E0,9.438607E-1,1.3178072E0,1.2973251E-2,-6.40508E-2,3.7815592E-1,5.2885007E-2,2.0882287E0,-2.6855053E-2,2.3138528E-1,1.1476648E0,3.3123717E-2,4.937276E-1,2.791122E-1,1.0349737E-1,-3.3569027E-2,1.6640538E0,5.602423E-1,1.1790597E0,5.109777E-1,3.0083707E-1,3.5564393E-1,-1.12023406E-1,1.0658314E0,4.7928908E-1,-1.1861103E-1,-9.839726E-2,4.0259283E-2,-7.973749E-3,5.48439E-1,5.950482E-2,-3.604812E-2,6.55211E-1,1.9092432E-1,1.4153935E0,2.2878242E-1,-4.3710466E-2,-8.987745E-2,4.441218E-1,-3.42285E-2,-9.363313E-2,2.3823176E-1,-1.0217566E-2,6.5341103E-1,-6.5588974E-3,2.2502276E-1,1.708937E0,1.0936565E0,6.77965E-1,2.1180577E0,2.4975713E-1,-8.580969E-3,1.8227166E0,2.9735105E0,2.2599816E0,1.834791E-1,5.102188E-1,-7.960288E-3,1.0987746E0,-7.736886E-3,4.9116758E-1,4.0254798E-2,-1.1483012E-1,-1.6355624E-2,1.6377975E0,2.1751203E-1,9.65674E-2,1.0302495E0,4.6682516E-1,1.692706E0,1.1277759E0,-2.8346667E-2,2.0454563E-1,-7.350987E-2,1.1179884E-1,3.2032505E-1,1.9416404E0,-3.931782E-2,1.7866524E-1,2.0156154E-1,4.629693E-1,1.1950706E0,-1.0332156E-1,1.5804685E0,4.3649814E-1,-1.5095462E-1,2.8576067E-1,1.1754502E0,1.789123E-1,1.5173753E-1,2.6705457E-2,7.852054E-2,4.0965904E-2,1.4905909E-1,9.118962E-2,4.0916074E-2,1.8846717E-2,3.227852E-2,-4.531548E-3,-1.3398947E-2,3.5502166E-2,-1.1257846E-2,-7.090077E-3,1.8104458E-2,8.803365E-2,2.2148418E-4,4.092389E-2,-1.0796004E-2,-8.569053E-3,-8.127885E-3,-7.4429624E-3,3.0082527E-3,4.7989458E-2,1.4816937E-3,2.117846E-2,-3.828384E-3,2.8837055E-3,1.7835777E-2,6.952569E-2,-1.2289349E-2,1.0792699E-1,1.5392263E-1,1.9759111E-2,2.8967723E-2,1.1857053E-3,-6.1073164E-3,6.6411406E-2,-8.56328E-3,4.0518332E-2,-1.5572301E-2,4.327496E-2,-7.4847713E-3,7.6674875E-3,1.5311813E-2,-7.5116702E-3,5.1113013E-2,-1.0396744E-2,7.7165194E-2,4.151588E-2,1.3735393E-1,3.725704E-2,8.7876424E-2,-1.9732293E-2,8.568399E-2,3.071324E-2,-6.8694535E-3,1.7543624E-1,1.4771287E-1,4.062816E-2,2.4082401E-1,4.817442E-2,1.868898E-1,2.6809609E-2,3.614567E-2,-2.119227E-2,1.1083658E-2,4.144587E-2,8.912872E-2,6.392356E-2,3.9441742E-2,5.0055673E-3,-8.784399E-3,-1.89501E-2,9.393992E-2,1.3997963E-1,-1.7895881E-2,8.4553346E-2,4.03273E-2,2.3442391E-2,1.3833787E-1,6.207748E-2,8.3965614E-2,1.2796001E-1,4.0243748E-3,-5.7667284E-3,1.260697E-3,5.804046E-2,-6.3378015E-3,7.072718E-3,1.6446155E-1,6.6576223E-3,1.2144367E-2,4.5576878E-2,2.094982E-1,-1.891902E-2,6.933264E-3,-6.1506066E-3,6.391878E-3,2.6357552E-2,-2.4362462E-2,8.60917E-2,1.8039148E-2,1.15120225E-1,-2.1794789E-2,1.663764E-2,1.6247036E-1,5.0973516E-2,4.4549514E-2,-2.0212442E-2,8.2201615E-2,-1.4960595E-2,9.4738685E-2,-3.6572668E-4,7.751098E-2,2.5039405E-1,8.370771E-3,8.181135E-2],"categories":[],"categories_nodes":[],"categories_segments":[],"categories_sizes":[],"default_left":[0,0,0,0,0,0,0,0,0,0,0,0,0,0,0,0,0,0,0,0,0,0,0,0,0,0,0,0,0,0,0,0,0,0,0,0,0,0,0,0,0,0,0,0,0,0,0,0,0,0,0,0,0,0,0,0,0,0,0,0,0,0,0,0,0,0,0,0,0,0,0,0,0,0,0,0,0,0,0,0,0,0,0,0,0,0,0,0,0,0,0,0,0,0,0,0,0,0,0,0,0,0,0,0,0,0,0,0,0,0,0,0,0,0,0,0,0,0,0,0,0,0,0,0,0,0,0,0,0,0,0,0,0,0,0,0,0,0,0,0,0,0,0,0,0,0,0,0,0,0,0,0,0,0,0,0,0,0,0,0,0,0,0,0,0,0,0,0,0,0,0,0,0,0,0,0,0,0,0,0,0,0,0,0,0,0,0,0,0,0,0,0,0,0,0,0,0,0,0,0,0,0,0,0,0,0,0,0,0,0,0,0,0,0,0,0,0,0,0,0,0,0,0,0,0,0,0,0,0,0,0,0,0,0,0,0,0,0,0,0,0,0,0,0,0,0,0,0,0,0,0,0,0,0,0,0,0,0,0,0,0,0,0,0,0,0,0,0,0,0,0,0,0,0,0,0,0,0,0,0,0,0,0],"id":6,"left_children":[1,3,5,-1,7,9,11,13,15,17,19,21,23,25,27,29,31,33,35,37,39,41,43,45,47,-1,49,51,53,55,57,59,61,63,65,67,69,71,73,75,77,79,81,-1,83,85,87,89,91,93,95,97,99,101,103,105,107,109,111,113,115,117,119,-1,121,-1,123,125,127,129,-1,131,133,135,137,139,141,143,145,147,149,151,153,155,-1,157,159,161,163,-1,-1,-1,165,167,169,171,173,175,177,179,181,183,185,-1,-1,187,189,191,193,195,197,199,201,203,205,207,209,211,-1,213,-1,-1,215,217,219,221,-1,-1,223,225,227,229,231,-1,233,-1,235,-1,237,-1,239,-1,-1,241,243,245,247,249,251,253,255,257,259,261,263,-1,265,267,269,271,273,275,277,279,281,-1,-1,-1,-1,-1,-1,-1,-1,-1,-1,-1,-1,-1,-1,-1,-1,-1,-1,-1,-1,-1,-1,-1,-1,-1,-1,-1,-1,-1,-1,-1,-1,-1,-1,-1,-1,-1,-1,-1,-1,-1,-1,-1,-1,-1,-1,-1,-1,-1,-1,-1,-1,-1,-1,-1,-1,-1,-1,-1,-1,-1,-1,-1,-1,-1,-1,-1,-1,-1,-1,-1,-1,-1,-1,-1,-1,-1,-1,-1,-1,-1,-1,-1,-1,-1,-1,-1,-1,-1,-1,-1,-1,-1,-1,-1,-1,-1,-1,-1,-1,-1,-1,-1,-1,-1,-1,-1,-1,-1,-1,-1,-1,-1,-1,-1,-1,-1,-1],"loss_changes":[3.4277905E3,4.0492944E2,5.5346377E3,0E0,4.7741437E2,9.1118945E2,7.6344185E1,2.5374817E2,1.0973446E1,4.6581934E2,3.4743506E2,3.7976078E1,9.386367E1,9.963141E1,5.073299E1,1.3553986E1,7.570162E0,8.924365E1,1.4112988E2,1.2206561E2,9.554712E1,3.2661003E1,2.5008148E1,3.972102E1,1.0509468E1,0E0,9.5292786E1,1.7917255E1,8.8218594E-1,7.7779603E0,1.2646929E1,3.1607304E0,8.701506E0,1.0156433E1,3.8674072E1,5.6208252E1,2.8864014E1,2.4406067E1,2.301358E1,2.7151184E1,7.786499E1,1.6076172E1,3.134121E1,0E0,1.6384933E1,2.5480438E1,2.8376125E1,1.0044502E1,8.753063E0,7.183258E1,3.524475E-1,7.697248E0,8.388683E0,2.87714E-2,5.532063E-1,9.351734E0,2.3835297E0,1.1723225E1,4.0066805E0,8.16658E0,3.029251E-1,9.0987694E-1,3.6495972E0,0E0,5.267761E0,0E0,2.1773071E0,2.1807678E1,2.9712646E1,3.0713867E1,0E0,6.326084E-1,1.4263611E1,1.75934E1,1.45101385E1,1.3991241E1,1.4240112E0,6.541443E1,6.0356934E1,4.2608395E1,9.086914E0,3.283258E1,1.7275393E1,1.1450806E1,0E0,1.754129E1,2.177922E1,2.39467E1,3.8635323E1,0E0,0E0,0E0,3.0808372E0,5.645775E0,1.1523743E1,4.2541504E-2,5.3656363E-1,4.6387367E0,2.4460733E-2,1.0286636E0,9.67041E-1,6.3978434E-3,2.301693E-3,0E0,0E0,1.1071329E0,3.6874857E0,2.2786744E0,2.6846266E-1,6.9908347E0,9.033531E0,4.672575E0,2.3730645E0,1.0880098E0,2.5790234E0,7.1124387E-1,2.3516083E-1,1.2632496E0,0E0,1.0474672E0,0E0,0E0,1.732544E0,4.2072754E0,1.9005346E0,1.0422241E1,0E0,0E0,1.4234741E1,1.3890503E1,1.7830322E1,1.2025666E0,1.5884972E-1,0E0,1.1366577E0,0E0,8.648071E-1,0E0,4.9425364E-2,0E0,7.805084E0,0E0,0E0,4.5480103E1,1.4520264E0,8.433411E0,1.982898E1,1.5235985E1,9.391325E1,4.7984333E0,1.5329006E1,1.4959049E1,1.9791473E1,4.076652E0,9.357172E0,0E0,2.6807866E0,2.9866905E0,2.2150476E0,1.7825241E1,2.546361E0,1.2853383E1,5.6611084E1,1.9979599E1,7.726779E0,0E0,0E0,0E0,0E0,0E0,0E0,0E0,0E0,0E0,0E0,0E0,0E0,0E0,0E0,0E0,0E0,0E0,0E0,0E0,0E0,0E0,0E0,0E0,0E0,0E0,0E0,0E0,0E0,0E0,0E0,0E0,0E0,0E0,0E0,0E0,0E0,0E0,0E0,0E0,0E0,0E0,0E0,0E0,0E0,0E0,0E0,0E0,0E0,0E0,0E0,0E0,0E0,0E0,0E0,0E0,0E0,0E0,0E0,0E0,0E0,0E0,0E0,0E0,0E0,0E0,0E0,0E0,0E0,0E0,0E0,0E0,0E0,0E0,0E0,0E0,0E0,0E0,0E0,0E0,0E0,0E0,0E0,0E0,0E0,0E0,0E0,0E0,0E0,0E0,0E0,0E0,0E0,0E0,0E0,0E0,0E0,0E0,0E0,0E0,0E0,0E0,0E0,0E0,0E0,0E0,0E0,0E0,0E0,0E0,0E0,0E0,0E0,0E0,0E0,0E0,0E0,0E0,0E0],"parents":[2147483647,0,0,1,1,2,2,4,4,5,5,6,6,7,7,8,8,9,9,10,10,11,11,12,12,13,13,14,14,15,15,16,16,17,17,18,18,19,19,20,20,21,21,22,22,23,23,24,24,26,26,27,27,28,28,29,29,30,30,31,31,32,32,33,33,34,34,35,35,36,36,37,37,38,38,39,39,40,40,41,41,42,42,44,44,45,45,46,46,47,47,48,48,49,49,50,50,51,51,52,52,53,53,54,54,55,55,56,56,57,57,58,58,59,59,60,60,61,61,62,62,64,64,66,66,67,67,68,68,69,69,71,71,72,72,73,73,74,74,75,75,76,76,77,77,78,78,79,79,80,80,81,81,82,82,83,83,85,85,86,86,87,87,88,88,92,92,93,93,94,94,95,95,96,96,97,97,98,98,99,99,100,100,101,101,102,102,105,105,106,106,107,107,108,108,109,109,110,110,111,111,112,112,113,113,114,114,115,115,116,116,117,117,119,119,122,122,123,123,124,124,125,125,128,128,129,129,130,130,131,131,132,132,134,134,136,136,138,138,140,140,143,143,144,144,145,145,146,146,147,147,148,148,149,149,150,150,151,151,152,152,153,153,154,154,156,156,157,157,158,158,159,159,160,160,161,161,162,162,163,163,164,164],"right_children":[2,4,6,-1,8,10,12,14,16,18,20,22,24,26,28,30,32,34,36,38,40,42,44,46,48,-1,50,52,54,56,58,60,62,64,66,68,70,72,74,76,78,80,82,-1,84,86,88,90,92,94,96,98,100,102,104,106,108,110,112,114,116,118,120,-1,122,-1,124,126,128,130,-1,132,134,136,138,140,142,144,146,148,150,152,154,156,-1,158,160,162,164,-1,-1,-1,166,168,170,172,174,176,178,180,182,184,186,-1,-1,188,190,192,194,196,198,200,202,204,206,208,210,212,-1,214,-1,-1,216,218,220,222,-1,-1,224,226,228,230,232,-1,234,-1,236,-1,238,-1,240,-1,-1,242,244,246,248,250,252,254,256,258,260,262,264,-1,266,268,270,272,274,276,278,280,282,-1,-1,-1,-1,-1,-1,-1,-1,-1,-1,-1,-1,-1,-1,-1,-1,-1,-1,-1,-1,-1,-1,-1,-1,-1,-1,-1,-1,-1,-1,-1,-1,-1,-1,-1,-1,-1,-1,-1,-1,-1,-1,-1,-1,-1,-1,-1,-1,-1,-1,-1,-1,-1,-1,-1,-1,-1,-1,-1,-1,-1,-1,-1,-1,-1,-1,-1,-1,-1,-1,-1,-1,-1,-1,-1,-1,-1,-1,-1,-1,-1,-1,-1,-1,-1,-1,-1,-1,-1,-1,-1,-1,-1,-1,-1,-1,-1,-1,-1,-1,-1,-1,-1,-1,-1,-1,-1,-1,-1,-1,-1,-1,-1,-1,-1,-1,-1,-1],"split_conditions":[5E1,1E1,1E0,-7.376112E-3,1E0,3.5E1,8.108E-1,5.938E-1,4.976E-1,7.2E1,8E1,2.4E2,1.57E2,1E0,3.6E1,2.756E-1,8.108E-1,2.4E1,9.7E1,4E1,4E1,1E-1,7.273E-1,1.2E1,8E0,-7.971116E-3,2.5E1,3.4E1,1E0,4.333E-1,1.8E1,2E1,1.75E2,1E0,1E0,2E1,1.51E2,7E1,5E1,1.39E2,1.2E2,1.7E1,3.5E1,-9.968369E-3,6.1E1,7.2E1,5.714E-1,3.5E1,9E0,3E1,1E1,2.5E1,2.4E1,7.321E-1,5E-2,1E0,8.8E1,8E0,5E0,1.3E1,3E1,1.07E2,2.16E2,-6.37109E-3,1.8E1,-7.6544653E-3,6.292E-1,7.5E1,1E0,3E1,3.3227482E-1,6.167E-1,1E0,1E0,5.567E-1,1E0,2.1E-1,6E1,6E1,1E0,2.25E2,1.96E2,2.52E2,4.6E1,-2.6855053E-2,7.3E1,3.5E1,1E2,3E1,2.791122E-1,1.0349737E-1,-3.3569027E-2,1.4E1,1.1E1,1.1E1,1.58E2,8E0,1.8E1,1E0,1E0,2.1E1,4.6E1,2.88E2,4.0259283E-2,-7.973749E-3,4E0,6E1,7E-2,1.52E0,4E0,1.1E1,5.556E-1,1E0,2E2,7.8E1,1.22E2,5.075E-1,7E0,-1.0217566E-2,1.37E0,-6.5588974E-3,2.2502276E-1,1.69E2,1.08E2,3E1,1E0,2.4975713E-1,-8.580969E-3,3E1,3.6E1,4E1,8.9E1,2.3E1,-7.960288E-3,2.1E1,-7.736886E-3,1.8E1,4.0254798E-2,6.5E1,-1.6355624E-2,1.05E2,2.1751203E-1,9.65674E-2,1E0,1.05E2,6.292E-1,1.8E2,4.167E-1,8.9E1,1.61E2,2.31E2,1.4E1,1.79E2,8.7E1,1E0,2.0156154E-1,9.6E-1,6E0,2.708E-1,8.7E1,4.05E0,6.2E1,1.7E2,9.7E1,1.09E2,1.5173753E-1,2.6705457E-2,7.852054E-2,4.0965904E-2,1.4905909E-1,9.118962E-2,4.0916074E-2,1.8846717E-2,3.227852E-2,-4.531548E-3,-1.3398947E-2,3.5502166E-2,-1.1257846E-2,-7.090077E-3,1.8104458E-2,8.803365E-2,2.2148418E-4,4.092389E-2,-1.0796004E-2,-8.569053E-3,-8.127885E-3,-7.4429624E-3,3.0082527E-3,4.7989458E-2,